<?xml version="1.0"?>
<MethodSetup Method="BDT::BDT">
  <GeneralInfo>
    <Info name="TMVA Release" value="4.2.1 [262657]"/>
    <Info name="ROOT Release" value="6.06/01 [394753]"/>
    <Info name="Creator" value="ochando"/>
    <Info name="Date" value="Mon Nov  6 10:26:08 2017"/>
    <Info name="Host" value="Linux vocms0301.cern.ch 2.6.32-642.4.2.el6.x86_64 #1 SMP Wed Aug 24 09:19:54 CEST 2016 x86_64 x86_64 x86_64 GNU/Linux"/>
    <Info name="Dir" value="/grid_mnt/vol__vol_U__u/llr/cms/ochando/TMVA/EID"/>
    <Info name="Training events" value="277032"/>
    <Info name="TrainingTime" value="8.71941485e+02"/>
    <Info name="AnalysisType" value="Classification"/>
  </GeneralInfo>
  <Options>
    <Option name="V" modified="Yes">False</Option>
    <Option name="VerbosityLevel" modified="No">Default</Option>
    <Option name="VarTransform" modified="No">None</Option>
    <Option name="H" modified="Yes">False</Option>
    <Option name="CreateMVAPdfs" modified="No">False</Option>
    <Option name="IgnoreNegWeightsInTraining" modified="No">False</Option>
    <Option name="NTrees" modified="Yes">2000</Option>
    <Option name="MaxDepth" modified="Yes">2</Option>
    <Option name="MinNodeSize" modified="No">0.0360973.2</Option>
    <Option name="nCuts" modified="Yes">2000</Option>
    <Option name="BoostType" modified="Yes">Grad</Option>
    <Option name="AdaBoostR2Loss" modified="No">quadratic</Option>
    <Option name="UseBaggedBoost" modified="No">False</Option>
    <Option name="Shrinkage" modified="Yes">1.000000e-01</Option>
    <Option name="AdaBoostBeta" modified="No">5.000000e-01</Option>
    <Option name="UseRandomisedTrees" modified="No">False</Option>
    <Option name="UseNvars" modified="Yes">4</Option>
    <Option name="UsePoissonNvars" modified="No">True</Option>
    <Option name="BaggedSampleFraction" modified="No">6.000000e-01</Option>
    <Option name="UseYesNoLeaf" modified="No">True</Option>
    <Option name="NegWeightTreatment" modified="No">ignorenegweightsintraining</Option>
    <Option name="Css" modified="No">1.000000e+00</Option>
    <Option name="Cts_sb" modified="No">1.000000e+00</Option>
    <Option name="Ctb_ss" modified="No">1.000000e+00</Option>
    <Option name="Cbb" modified="No">1.000000e+00</Option>
    <Option name="NodePurityLimit" modified="No">5.000000e-01</Option>
    <Option name="SeparationType" modified="No">giniindex</Option>
    <Option name="DoBoostMonitor" modified="No">False</Option>
    <Option name="UseFisherCuts" modified="No">False</Option>
    <Option name="MinLinCorrForFisher" modified="No">8.000000e-01</Option>
    <Option name="UseExclusiveVars" modified="No">False</Option>
    <Option name="DoPreselection" modified="No">False</Option>
    <Option name="SigToBkgFraction" modified="No">1.000000e+00</Option>
    <Option name="PruneMethod" modified="Yes">costcomplexity</Option>
    <Option name="PruneStrength" modified="Yes">5.000000e+00</Option>
    <Option name="PruningValFraction" modified="No">5.000000e-01</Option>
    <Option name="nEventsMin" modified="Yes">100</Option>
    <Option name="UseBaggedGrad" modified="Yes">False</Option>
    <Option name="GradBaggingFraction" modified="No">6.000000e-01</Option>
    <Option name="UseNTrainEvents" modified="No">0</Option>
    <Option name="NNodesMax" modified="Yes">5</Option>
  </Options>
  <Variables NVar="16">
    <Variable VarIndex="0" Expression="ele_kfhits" Label="ele_kfhits" Title="ele_kfhits" Unit="" Internal="ele_kfhits" Type="I" Min="3.00000000e+00" Max="1.40000000e+01"/>
    <Variable VarIndex="1" Expression="ele_gsfhits" Label="ele_gsfhits" Title="ele_gsfhits" Unit="" Internal="ele_gsfhits" Type="I" Min="5.00000000e+00" Max="1.10000000e+01"/>
    <Variable VarIndex="2" Expression="ele_kfchi2" Label="ele_kfchi2" Title="ele_kfchi2" Unit="" Internal="ele_kfchi2" Type="F" Min="9.68324002e-06" Max="2.99071484e+01"/>
    <Variable VarIndex="3" Expression="ele_gsfchi2" Label="ele_gsfchi2" Title="ele_gsfchi2" Unit="" Internal="ele_gsfchi2" Type="F" Min="9.01006386e-02" Max="1.67352125e+06"/>
    <Variable VarIndex="4" Expression="ele_fbrem" Label="ele_fbrem" Title="ele_fbrem" Unit="" Internal="ele_fbrem" Type="F" Min="-9.99994397e-01" Max="9.99987662e-01"/>
    <Variable VarIndex="5" Expression="ele_oldsigmaietaieta" Label="ele_oldsigmaietaieta" Title="ele_oldsigmaietaieta" Unit="" Internal="ele_oldsigmaietaieta" Type="F" Min="0.00000000e+00" Max="3.19697373e-02"/>
    <Variable VarIndex="6" Expression="ele_oldsigmaiphiiphi" Label="ele_oldsigmaiphiiphi" Title="ele_oldsigmaiphiiphi" Unit="" Internal="ele_oldsigmaiphiiphi" Type="F" Min="0.00000000e+00" Max="3.38837542e-02"/>
    <Variable VarIndex="7" Expression="ele_oldcircularity" Label="ele_oldcircularity" Title="ele_oldcircularity" Unit="" Internal="ele_oldcircularity" Type="F" Min="0.00000000e+00" Max="9.72575247e-01"/>
    <Variable VarIndex="8" Expression="ele_oldr9" Label="ele_oldr9" Title="ele_oldr9" Unit="" Internal="ele_oldr9" Type="F" Min="2.54860502e-02" Max="5.17616653e+01"/>
    <Variable VarIndex="9" Expression="ele_scletawidth" Label="ele_scletawidth" Title="ele_scletawidth" Unit="" Internal="ele_scletawidth" Type="F" Min="8.87327711e-11" Max="3.31481278e-01"/>
    <Variable VarIndex="10" Expression="ele_sclphiwidth" Label="ele_sclphiwidth" Title="ele_sclphiwidth" Unit="" Internal="ele_sclphiwidth" Type="F" Min="1.30127187e-10" Max="7.09070027e-01"/>
    <Variable VarIndex="11" Expression="ele_he" Label="ele_he" Title="ele_he" Unit="" Internal="ele_he" Type="F" Min="0.00000000e+00" Max="1.61194534e+02"/>
    <Variable VarIndex="12" Expression="ele_ep" Label="ele_ep" Title="ele_ep" Unit="" Internal="ele_ep" Type="F" Min="1.68724205e-06" Max="5.48291626e+01"/>
    <Variable VarIndex="13" Expression="ele_eseedpout" Label="ele_eseedpout" Title="ele_eseedpout" Unit="" Internal="ele_eseedpout" Type="F" Min="1.08400873e-05" Max="9.01829224e+01"/>
    <Variable VarIndex="14" Expression="ele_deltaetaseed" Label="ele_deltaetaseed" Title="ele_deltaetaseed" Unit="" Internal="ele_deltaetaseed" Type="F" Min="-2.05986190e+00" Max="1.74035490e+00"/>
    <Variable VarIndex="15" Expression="ele_deltaphiseed" Label="ele_deltaphiseed" Title="ele_deltaphiseed" Unit="" Internal="ele_deltaphiseed" Type="F" Min="-1.22989094e+00" Max="1.41086018e+00"/>
  </Variables>
  <Spectators NSpec="6">
    <Spectator SpecIndex="0" Expression="ele_pT" Label="ele_pT" Title="F" Unit="" Internal="ele_pT" Type="F" Min="1.00000019e+01" Max="1.99999619e+01"/>
    <Spectator SpecIndex="1" Expression="ele_eta" Label="ele_eta" Title="F" Unit="" Internal="ele_eta" Type="F" Min="-1.53117776e+00" Max="1.53701556e+00"/>
    <Spectator SpecIndex="2" Expression="scl_eta" Label="scl_eta" Title="F" Unit="" Internal="scl_eta" Type="F" Min="-1.58746374e+00" Max="1.58218563e+00"/>
    <Spectator SpecIndex="3" Expression="Nvtx" Label="Nvtx" Title="I" Unit="" Internal="Nvtx" Type="F" Min="9.50000000e+01" Max="2.04000000e+02"/>
    <Spectator SpecIndex="4" Expression="PU_density" Label="PU_density" Title="F" Unit="" Internal="PU_density" Type="F" Min="3.82341314e-05" Max="1.32518804e+00"/>
    <Spectator SpecIndex="5" Expression="NPU" Label="NPU" Title="I" Unit="" Internal="NPU" Type="F" Min="1.45000000e+02" Max="2.68000000e+02"/>
  </Spectators>
  <Classes NClass="2">
    <Class Name="Signal" Index="0"/>
    <Class Name="Background" Index="1"/>
  </Classes>
  <Transformations NTransformations="0"/>
  <MVAPdfs/>
  <Weights NTrees="2000" AnalysisType="1">
    <BinaryTree type="DecisionTree" boostWeight="1.0000000000000000e+00" itree="0">
      <Node pos="s" depth="0" NCoef="0" IVar="8" Cut="4.3916863203048706e-01" cType="1" res="5.0000000000000000e-01" rms="5.0000000000000000e-01" purity="5.0000000000000000e-01" nType="0">
        <Node pos="l" depth="1" NCoef="0" IVar="8" Cut="3.6680921912193298e-01" cType="1" res="7.4527785181999207e-02" rms="2.6262786984443665e-01" purity="7.4527785181999207e-02" nType="0">
          <Node pos="l" depth="2" NCoef="0" IVar="-1" Cut="0.0000000000000000e+00" cType="1" res="-1.3381569087505341e-01" rms="1.7733043432235718e-01" purity="3.2502494752407074e-02" nType="-99"/>
          <Node pos="r" depth="2" NCoef="0" IVar="-1" Cut="0.0000000000000000e+00" cType="1" res="-2.0897578448057175e-02" rms="4.5961114764213562e-01" purity="3.0313050746917725e-01" nType="-99"/>
        </Node>
        <Node pos="r" depth="1" NCoef="0" IVar="13" Cut="8.1127464771270752e-01" cType="1" res="7.8113079071044922e-01" rms="4.1347974538803101e-01" purity="7.8113079071044922e-01" nType="0">
          <Node pos="l" depth="2" NCoef="0" IVar="-1" Cut="0.0000000000000000e+00" cType="1" res="-4.1695062071084976e-02" rms="4.0054002404212952e-01" purity="2.0072138309478760e-01" nType="-99"/>
          <Node pos="r" depth="2" NCoef="0" IVar="-1" Cut="0.0000000000000000e+00" cType="1" res="1.6426194459199905e-02" rms="3.5478386282920837e-01" purity="8.5231864452362061e-01" nType="-99"/>
        </Node>
      </Node>
    </BinaryTree>
    <BinaryTree type="DecisionTree" boostWeight="1.0000000000000000e+00" itree="1">
      <Node pos="s" depth="0" NCoef="0" IVar="8" Cut="4.6502381563186646e-01" cType="1" res="5.0000000000000000e-01" rms="5.0000000000000000e-01" purity="5.0000000000000000e-01" nType="0">
        <Node pos="l" depth="1" NCoef="0" IVar="9" Cut="1.8267333507537842e-02" cType="1" res="0.0000000000000000e+00" rms="inf" purity="9.4124488532543182e-02" nType="0">
          <Node pos="l" depth="2" NCoef="0" IVar="-1" Cut="0.0000000000000000e+00" cType="1" res="-5.4157669655978680e-03" rms="4.8181921243667603e-01" purity="4.0928053855895996e-01" nType="-99"/>
          <Node pos="r" depth="2" NCoef="0" IVar="-1" Cut="0.0000000000000000e+00" cType="1" res="-1.0108409821987152e-01" rms="2.1506264805793762e-01" purity="5.1500272005796432e-02" nType="-99"/>
        </Node>
        <Node pos="r" depth="1" NCoef="0" IVar="13" Cut="8.1133759021759033e-01" cType="1" res="7.9380184412002563e-01" rms="4.0457442402839661e-01" purity="7.9380184412002563e-01" nType="0">
          <Node pos="l" depth="2" NCoef="0" IVar="-1" Cut="0.0000000000000000e+00" cType="1" res="-3.6169346421957016e-02" rms="4.0836980938911438e-01" purity="2.1149073541164398e-01" nType="-99"/>
          <Node pos="r" depth="2" NCoef="0" IVar="-1" Cut="0.0000000000000000e+00" cType="1" res="1.6322653740644455e-02" rms="3.4542885422706604e-01" purity="8.6149543523788452e-01" nType="-99"/>
        </Node>
      </Node>
    </BinaryTree>
    <BinaryTree type="DecisionTree" boostWeight="1.0000000000000000e+00" itree="2">
      <Node pos="s" depth="0" NCoef="0" IVar="8" Cut="4.6502381563186646e-01" cType="1" res="0.0000000000000000e+00" rms="0.0000000000000000e+00" purity="5.0000000000000000e-01" nType="0">
        <Node pos="l" depth="1" NCoef="0" IVar="7" Cut="2.9098498821258545e-01" cType="1" res="0.0000000000000000e+00" rms="0.0000000000000000e+00" purity="9.4124488532543182e-02" nType="0">
          <Node pos="l" depth="2" NCoef="0" IVar="-1" Cut="0.0000000000000000e+00" cType="1" res="-4.9905679188668728e-03" rms="4.6036088466644287e-01" purity="3.7359705567359924e-01" nType="-99"/>
          <Node pos="r" depth="2" NCoef="0" IVar="-1" Cut="0.0000000000000000e+00" cType="1" res="-9.1347180306911469e-02" rms="2.1323819458484650e-01" purity="5.2426002919673920e-02" nType="-99"/>
        </Node>
        <Node pos="r" depth="1" NCoef="0" IVar="13" Cut="8.1133759021759033e-01" cType="1" res="0.0000000000000000e+00" rms="0.0000000000000000e+00" purity="7.9380184412002563e-01" nType="0">
          <Node pos="l" depth="2" NCoef="0" IVar="-1" Cut="0.0000000000000000e+00" cType="1" res="-3.3880695700645447e-02" rms="4.0836977958679199e-01" purity="2.1149073541164398e-01" nType="-99"/>
          <Node pos="r" depth="2" NCoef="0" IVar="-1" Cut="0.0000000000000000e+00" cType="1" res="1.5958614647388458e-02" rms="3.4542882442474365e-01" purity="8.6149543523788452e-01" nType="-99"/>
        </Node>
      </Node>
    </BinaryTree>
    <BinaryTree type="DecisionTree" boostWeight="1.0000000000000000e+00" itree="3">
      <Node pos="s" depth="0" NCoef="0" IVar="8" Cut="4.3916863203048706e-01" cType="1" res="0.0000000000000000e+00" rms="0.0000000000000000e+00" purity="5.0000000000000000e-01" nType="0">
        <Node pos="l" depth="1" NCoef="0" IVar="10" Cut="1.4390082657337189e-01" cType="1" res="0.0000000000000000e+00" rms="0.0000000000000000e+00" purity="7.4527785181999207e-02" nType="0">
          <Node pos="l" depth="2" NCoef="0" IVar="-1" Cut="0.0000000000000000e+00" cType="1" res="-1.0588387958705425e-02" rms="4.4022518396377563e-01" purity="3.0539932847023010e-01" nType="-99"/>
          <Node pos="r" depth="2" NCoef="0" IVar="-1" Cut="0.0000000000000000e+00" cType="1" res="-9.3319393694400787e-02" rms="1.8805161118507385e-01" purity="3.9690870791673660e-02" nType="-99"/>
        </Node>
        <Node pos="r" depth="1" NCoef="0" IVar="12" Cut="8.4960973262786865e-01" cType="1" res="2.9199125606282905e-07" rms="0.0000000000000000e+00" purity="7.8113079071044922e-01" nType="0">
          <Node pos="l" depth="2" NCoef="0" IVar="-1" Cut="0.0000000000000000e+00" cType="1" res="-3.3502127975225449e-02" rms="3.9880216121673584e-01" purity="2.1842512488365173e-01" nType="-99"/>
          <Node pos="r" depth="2" NCoef="0" IVar="-1" Cut="0.0000000000000000e+00" cType="1" res="1.5492030419409275e-02" rms="3.5170099139213562e-01" purity="8.4886640310287476e-01" nType="-99"/>
        </Node>
      </Node>
    </BinaryTree>
    <BinaryTree type="DecisionTree" boostWeight="1.0000000000000000e+00" itree="4">
      <Node pos="s" depth="0" NCoef="0" IVar="8" Cut="4.6502381563186646e-01" cType="1" res="5.0000000000000000e-01" rms="5.0000000000000000e-01" purity="5.0000000000000000e-01" nType="0">
        <Node pos="l" depth="1" NCoef="0" IVar="8" Cut="3.8001400232315063e-01" cType="1" res="9.4124488532543182e-02" rms="2.9200184345245361e-01" purity="9.4124488532543182e-02" nType="0">
          <Node pos="l" depth="2" NCoef="0" IVar="-1" Cut="0.0000000000000000e+00" cType="1" res="-8.8169321417808533e-02" rms="1.8247982859611511e-01" purity="3.7176579236984253e-02" nType="-99"/>
          <Node pos="r" depth="2" NCoef="0" IVar="-1" Cut="0.0000000000000000e+00" cType="1" res="-4.5606610365211964e-03" rms="4.5976895093917847e-01" purity="3.6528941988945007e-01" nType="-99"/>
        </Node>
        <Node pos="r" depth="1" NCoef="0" IVar="13" Cut="8.1133759021759033e-01" cType="1" res="7.9380184412002563e-01" rms="4.0457442402839661e-01" purity="7.9380184412002563e-01" nType="0">
          <Node pos="l" depth="2" NCoef="0" IVar="-1" Cut="0.0000000000000000e+00" cType="1" res="-3.0872685834765434e-02" rms="4.0476045012474060e-01" purity="2.1149073541164398e-01" nType="-99"/>
          <Node pos="r" depth="2" NCoef="0" IVar="-1" Cut="0.0000000000000000e+00" cType="1" res="1.5326989814639091e-02" rms="3.4419053792953491e-01" purity="8.6149543523788452e-01" nType="-99"/>
        </Node>
      </Node>
    </BinaryTree>
    <BinaryTree type="DecisionTree" boostWeight="1.0000000000000000e+00" itree="5">
      <Node pos="s" depth="0" NCoef="0" IVar="8" Cut="4.9087896943092346e-01" cType="1" res="5.0000000000000000e-01" rms="5.0000000000000000e-01" purity="5.0000000000000000e-01" nType="0">
        <Node pos="l" depth="1" NCoef="0" IVar="7" Cut="2.8326401114463806e-01" cType="1" res="1.1773335188627243e-01" rms="3.2229211926460266e-01" purity="1.1773335188627243e-01" nType="0">
          <Node pos="l" depth="2" NCoef="0" IVar="-1" Cut="0.0000000000000000e+00" cType="1" res="4.1776983998715878e-03" rms="4.4911661744117737e-01" purity="4.5217517018318176e-01" nType="-99"/>
          <Node pos="r" depth="2" NCoef="0" IVar="-1" Cut="0.0000000000000000e+00" cType="1" res="-6.4368687570095062e-02" rms="2.2531984746456146e-01" purity="6.4848929643630981e-02" nType="-99"/>
        </Node>
        <Node pos="r" depth="1" NCoef="0" IVar="13" Cut="8.1178194284439087e-01" cType="1" res="8.0479753017425537e-01" rms="3.9635649323463440e-01" purity="8.0479753017425537e-01" nType="0">
          <Node pos="l" depth="2" NCoef="0" IVar="-1" Cut="0.0000000000000000e+00" cType="1" res="-2.7525251731276512e-02" rms="4.0951773524284363e-01" purity="2.1832957863807678e-01" nType="-99"/>
          <Node pos="r" depth="2" NCoef="0" IVar="-1" Cut="0.0000000000000000e+00" cType="1" res="1.5250658616423607e-02" rms="3.3574613928794861e-01" purity="8.6946332454681396e-01" nType="-99"/>
        </Node>
      </Node>
    </BinaryTree>
    <BinaryTree type="DecisionTree" boostWeight="1.0000000000000000e+00" itree="6">
      <Node pos="s" depth="0" NCoef="0" IVar="5" Cut="1.6328372061252594e-02" cType="1" res="5.0000000000000000e-01" rms="5.0000000000000000e-01" purity="5.0000000000000000e-01" nType="0">
        <Node pos="l" depth="1" NCoef="0" IVar="8" Cut="4.1789734363555908e-01" cType="1" res="7.8990405797958374e-01" rms="4.0737652778625488e-01" purity="7.8990411758422852e-01" nType="0">
          <Node pos="l" depth="2" NCoef="0" IVar="-1" Cut="0.0000000000000000e+00" cType="1" res="-2.5773402303457260e-02" rms="3.3198314905166626e-01" purity="1.5421280264854431e-01" nType="-99"/>
          <Node pos="r" depth="2" NCoef="0" IVar="-1" Cut="0.0000000000000000e+00" cType="1" res="1.5749165788292885e-02" rms="3.1313878297805786e-01" purity="8.7724709510803223e-01" nType="-99"/>
        </Node>
        <Node pos="r" depth="1" NCoef="0" IVar="7" Cut="2.9513517022132874e-01" cType="1" res="1.7815940082073212e-01" rms="3.8264688849449158e-01" purity="1.7815940082073212e-01" nType="0">
          <Node pos="l" depth="2" NCoef="0" IVar="-1" Cut="0.0000000000000000e+00" cType="1" res="9.4815194606781006e-03" rms="4.2615747451782227e-01" purity="6.2739950418472290e-01" nType="-99"/>
          <Node pos="r" depth="2" NCoef="0" IVar="-1" Cut="0.0000000000000000e+00" cType="1" res="-5.1618538796901703e-02" rms="2.5631290674209595e-01" purity="9.2842586338520050e-02" nType="-99"/>
        </Node>
      </Node>
    </BinaryTree>
    <BinaryTree type="DecisionTree" boostWeight="1.0000000000000000e+00" itree="7">
      <Node pos="s" depth="0" NCoef="0" IVar="8" Cut="4.9087896943092346e-01" cType="1" res="4.8310703039169312e-01" rms="5.0551128387451172e-01" purity="5.0000000000000000e-01" nType="0">
        <Node pos="l" depth="1" NCoef="0" IVar="9" Cut="1.5148377977311611e-02" cType="1" res="1.1749234050512314e-01" rms="3.2200604677200317e-01" purity="1.1773335188627243e-01" nType="0">
          <Node pos="l" depth="2" NCoef="0" IVar="-1" Cut="0.0000000000000000e+00" cType="1" res="9.6640745177865028e-03" rms="4.5653381943702698e-01" purity="5.6796520948410034e-01" nType="-99"/>
          <Node pos="r" depth="2" NCoef="0" IVar="-1" Cut="0.0000000000000000e+00" cType="1" res="-5.1399096846580505e-02" rms="2.3718406260013580e-01" purity="7.5751356780529022e-02" nType="-99"/>
        </Node>
        <Node pos="r" depth="1" NCoef="0" IVar="12" Cut="8.4960973262786865e-01" cType="1" res="7.7847057580947876e-01" rms="4.2291811108589172e-01" purity="8.0479753017425537e-01" nType="0">
          <Node pos="l" depth="2" NCoef="0" IVar="-1" Cut="0.0000000000000000e+00" cType="1" res="-2.3530922830104828e-02" rms="4.0529504418373108e-01" purity="2.4720460176467896e-01" nType="-99"/>
          <Node pos="r" depth="2" NCoef="0" IVar="-1" Cut="0.0000000000000000e+00" cType="1" res="1.4867689460515976e-02" rms="3.3048680424690247e-01" purity="8.6605376005172729e-01" nType="-99"/>
        </Node>
      </Node>
    </BinaryTree>
    <BinaryTree type="DecisionTree" boostWeight="1.0000000000000000e+00" itree="8">
      <Node pos="s" depth="0" NCoef="0" IVar="5" Cut="1.6152625903487206e-02" cType="1" res="5.0000000000000000e-01" rms="5.0000000000000000e-01" purity="5.0000000000000000e-01" nType="0">
        <Node pos="l" depth="1" NCoef="0" IVar="13" Cut="8.1125140190124512e-01" cType="1" res="7.9732674360275269e-01" rms="4.0199106931686401e-01" purity="7.9732680320739746e-01" nType="0">
          <Node pos="l" depth="2" NCoef="0" IVar="-1" Cut="0.0000000000000000e+00" cType="1" res="-1.9958436489105225e-02" rms="3.6456203460693359e-01" purity="1.9843794405460358e-01" nType="-99"/>
          <Node pos="r" depth="2" NCoef="0" IVar="-1" Cut="0.0000000000000000e+00" cType="1" res="1.5559952706098557e-02" rms="3.0072090029716492e-01" purity="8.7207633256912231e-01" nType="-99"/>
        </Node>
        <Node pos="r" depth="1" NCoef="0" IVar="7" Cut="3.2606774568557739e-01" cType="1" res="1.8771906197071075e-01" rms="3.9048767089843750e-01" purity="1.8771907687187195e-01" nType="0">
          <Node pos="l" depth="2" NCoef="0" IVar="-1" Cut="0.0000000000000000e+00" cType="1" res="8.2049379125237465e-03" rms="4.2107987403869629e-01" purity="5.7280296087265015e-01" nType="-99"/>
          <Node pos="r" depth="2" NCoef="0" IVar="-1" Cut="0.0000000000000000e+00" cType="1" res="-5.0712842494249344e-02" rms="2.4286013841629028e-01" purity="8.1922061741352081e-02" nType="-99"/>
        </Node>
      </Node>
    </BinaryTree>
    <BinaryTree type="DecisionTree" boostWeight="1.0000000000000000e+00" itree="9">
      <Node pos="s" depth="0" NCoef="0" IVar="8" Cut="4.9087896943092346e-01" cType="1" res="5.0000000000000000e-01" rms="5.0000000000000000e-01" purity="5.0000000000000000e-01" nType="0">
        <Node pos="l" depth="1" NCoef="0" IVar="9" Cut="1.7604378983378410e-02" cType="1" res="1.1773335188627243e-01" rms="3.2229211926460266e-01" purity="1.1773335188627243e-01" nType="0">
          <Node pos="l" depth="2" NCoef="0" IVar="-1" Cut="0.0000000000000000e+00" cType="1" res="6.8282345309853554e-03" rms="4.5020607113838196e-01" purity="4.8273336887359619e-01" nType="-99"/>
          <Node pos="r" depth="2" NCoef="0" IVar="-1" Cut="0.0000000000000000e+00" cType="1" res="-5.2347585558891296e-02" rms="2.1850204467773438e-01" purity="6.2844090163707733e-02" nType="-99"/>
        </Node>
        <Node pos="r" depth="1" NCoef="0" IVar="12" Cut="8.4960973262786865e-01" cType="1" res="8.0479753017425537e-01" rms="3.9635649323463440e-01" purity="8.0479753017425537e-01" nType="0">
          <Node pos="l" depth="2" NCoef="0" IVar="-1" Cut="0.0000000000000000e+00" cType="1" res="-2.0912878215312958e-02" rms="4.0032440423965454e-01" purity="2.4720460176467896e-01" nType="-99"/>
          <Node pos="r" depth="2" NCoef="0" IVar="-1" Cut="0.0000000000000000e+00" cType="1" res="1.4439789578318596e-02" rms="3.2670643925666809e-01" purity="8.6605376005172729e-01" nType="-99"/>
        </Node>
      </Node>
    </BinaryTree>
    <BinaryTree type="DecisionTree" boostWeight="1.0000000000000000e+00" itree="10">
      <Node pos="s" depth="0" NCoef="0" IVar="5" Cut="1.6152625903487206e-02" cType="1" res="5.0000000000000000e-01" rms="5.0000000000000000e-01" purity="5.0000000000000000e-01" nType="0">
        <Node pos="l" depth="1" NCoef="0" IVar="13" Cut="8.1125140190124512e-01" cType="1" res="7.9732674360275269e-01" rms="4.0199106931686401e-01" purity="7.9732680320739746e-01" nType="0">
          <Node pos="l" depth="2" NCoef="0" IVar="-1" Cut="0.0000000000000000e+00" cType="1" res="-1.7660567536950111e-02" rms="3.6193451285362244e-01" purity="1.9843794405460358e-01" nType="-99"/>
          <Node pos="r" depth="2" NCoef="0" IVar="-1" Cut="0.0000000000000000e+00" cType="1" res="1.5128734521567822e-02" rms="2.9830753803253174e-01" purity="8.7207633256912231e-01" nType="-99"/>
        </Node>
        <Node pos="r" depth="1" NCoef="0" IVar="7" Cut="2.8572091460227966e-01" cType="1" res="1.8771906197071075e-01" rms="3.9048767089843750e-01" purity="1.8771907687187195e-01" nType="0">
          <Node pos="l" depth="2" NCoef="0" IVar="-1" Cut="0.0000000000000000e+00" cType="1" res="1.0359457693994045e-02" rms="4.0660741925239563e-01" purity="6.5968430042266846e-01" nType="-99"/>
          <Node pos="r" depth="2" NCoef="0" IVar="-1" Cut="0.0000000000000000e+00" cType="1" res="-3.7300836294889450e-02" rms="2.6046669483184814e-01" purity="1.0153633356094360e-01" nType="-99"/>
        </Node>
      </Node>
    </BinaryTree>
    <BinaryTree type="DecisionTree" boostWeight="1.0000000000000000e+00" itree="11">
      <Node pos="s" depth="0" NCoef="0" IVar="5" Cut="1.6408255323767662e-02" cType="1" res="5.0000000000000000e-01" rms="5.0000000000000000e-01" purity="5.0000000000000000e-01" nType="0">
        <Node pos="l" depth="1" NCoef="0" IVar="13" Cut="8.1125140190124512e-01" cType="1" res="7.8649687767028809e-01" rms="4.0977984666824341e-01" purity="7.8649687767028809e-01" nType="0">
          <Node pos="l" depth="2" NCoef="0" IVar="-1" Cut="0.0000000000000000e+00" cType="1" res="-1.8408983945846558e-02" rms="3.5443460941314697e-01" purity="1.8802024424076080e-01" nType="-99"/>
          <Node pos="r" depth="2" NCoef="0" IVar="-1" Cut="0.0000000000000000e+00" cType="1" res="1.4752282761037350e-02" rms="3.0297008156776428e-01" purity="8.6536562442779541e-01" nType="-99"/>
        </Node>
        <Node pos="r" depth="1" NCoef="0" IVar="7" Cut="3.3503371477127075e-01" cType="1" res="1.7389960587024689e-01" rms="3.7902313470840454e-01" purity="1.7389960587024689e-01" nType="0">
          <Node pos="l" depth="2" NCoef="0" IVar="-1" Cut="0.0000000000000000e+00" cType="1" res="7.4580516666173935e-03" rms="4.1515457630157471e-01" purity="5.3787881135940552e-01" nType="-99"/>
          <Node pos="r" depth="2" NCoef="0" IVar="-1" Cut="0.0000000000000000e+00" cType="1" res="-4.6724691987037659e-02" rms="2.3259717226028442e-01" purity="7.3081858456134796e-02" nType="-99"/>
        </Node>
      </Node>
    </BinaryTree>
    <BinaryTree type="DecisionTree" boostWeight="1.0000000000000000e+00" itree="12">
      <Node pos="s" depth="0" NCoef="0" IVar="8" Cut="4.3916863203048706e-01" cType="1" res="5.0000000000000000e-01" rms="5.0000000000000000e-01" purity="5.0000000000000000e-01" nType="0">
        <Node pos="l" depth="1" NCoef="0" IVar="0" Cut="8.0000000000000000e+00" cType="1" res="-1.1650499701499939e-01" rms="2.3231860995292664e-01" purity="7.4527785181999207e-02" nType="0">
          <Node pos="l" depth="2" NCoef="0" IVar="-1" Cut="0.0000000000000000e+00" cType="1" res="-9.0789366513490677e-03" rms="3.2032367587089539e-01" purity="1.6247111558914185e-01" nType="-99"/>
          <Node pos="r" depth="2" NCoef="0" IVar="-1" Cut="0.0000000000000000e+00" cType="1" res="-7.6456889510154724e-02" rms="1.4809088408946991e-01" purity="2.5172714143991470e-02" nType="-99"/>
        </Node>
        <Node pos="r" depth="1" NCoef="0" IVar="12" Cut="8.7701052427291870e-01" cType="1" res="7.8113079071044922e-01" rms="4.1347974538803101e-01" purity="7.8113079071044922e-01" nType="0">
          <Node pos="l" depth="2" NCoef="0" IVar="-1" Cut="0.0000000000000000e+00" cType="1" res="-1.8132535740733147e-02" rms="3.8339778780937195e-01" purity="2.4544559419155121e-01" nType="-99"/>
          <Node pos="r" depth="2" NCoef="0" IVar="-1" Cut="0.0000000000000000e+00" cType="1" res="1.3795299455523491e-02" rms="3.2996889948844910e-01" purity="8.5183119773864746e-01" nType="-99"/>
        </Node>
      </Node>
    </BinaryTree>
    <BinaryTree type="DecisionTree" boostWeight="1.0000000000000000e+00" itree="13">
      <Node pos="s" depth="0" NCoef="0" IVar="7" Cut="2.8239190578460693e-01" cType="1" res="5.0000000000000000e-01" rms="5.0000000000000000e-01" purity="5.0000000000000000e-01" nType="0">
        <Node pos="l" depth="1" NCoef="0" IVar="3" Cut="6.5087013244628906e+00" cType="1" res="8.5279321670532227e-01" rms="3.5431194305419922e-01" purity="8.5279321670532227e-01" nType="0">
          <Node pos="l" depth="2" NCoef="0" IVar="-1" Cut="0.0000000000000000e+00" cType="1" res="1.5647726133465767e-02" rms="2.5387403368949890e-01" purity="9.1553634405136108e-01" nType="-99"/>
          <Node pos="r" depth="2" NCoef="0" IVar="-1" Cut="0.0000000000000000e+00" cType="1" res="-1.2325710617005825e-02" rms="3.7895783782005310e-01" purity="2.9837569594383240e-01" nType="-99"/>
        </Node>
        <Node pos="r" depth="1" NCoef="0" IVar="5" Cut="1.4618433080613613e-02" cType="1" res="2.5539696216583252e-01" rms="4.3608412146568298e-01" purity="2.5539696216583252e-01" nType="0">
          <Node pos="l" depth="2" NCoef="0" IVar="-1" Cut="0.0000000000000000e+00" cType="1" res="1.1753509752452374e-02" rms="3.6083972454071045e-01" purity="7.2432017326354980e-01" nType="-99"/>
          <Node pos="r" depth="2" NCoef="0" IVar="-1" Cut="0.0000000000000000e+00" cType="1" res="-2.1346502006053925e-02" rms="2.8299319744110107e-01" purity="1.4128956198692322e-01" nType="-99"/>
        </Node>
      </Node>
    </BinaryTree>
    <BinaryTree type="DecisionTree" boostWeight="1.0000000000000000e+00" itree="14">
      <Node pos="s" depth="0" NCoef="0" IVar="8" Cut="5.4258930683135986e-01" cType="1" res="5.0000000000000000e-01" rms="5.0000000000000000e-01" purity="5.0000000000000000e-01" nType="0">
        <Node pos="l" depth="1" NCoef="0" IVar="9" Cut="1.5308083035051823e-02" cType="1" res="1.6567492485046387e-01" rms="3.7178859114646912e-01" purity="1.6567492485046387e-01" nType="0">
          <Node pos="l" depth="2" NCoef="0" IVar="-1" Cut="0.0000000000000000e+00" cType="1" res="1.1054328642785549e-02" rms="4.1482624411582947e-01" purity="6.4078235626220703e-01" nType="-99"/>
          <Node pos="r" depth="2" NCoef="0" IVar="-1" Cut="0.0000000000000000e+00" cType="1" res="-2.8983753174543381e-02" rms="2.4612365663051605e-01" purity="9.6355862915515900e-02" nType="-99"/>
        </Node>
        <Node pos="r" depth="1" NCoef="0" IVar="13" Cut="8.5685062408447266e-01" cType="1" res="8.2361489534378052e-01" rms="3.8114750385284424e-01" purity="8.2361489534378052e-01" nType="0">
          <Node pos="l" depth="2" NCoef="0" IVar="-1" Cut="0.0000000000000000e+00" cType="1" res="-1.1203732341527939e-02" rms="4.0922698378562927e-01" purity="2.8312742710113525e-01" nType="-99"/>
          <Node pos="r" depth="2" NCoef="0" IVar="-1" Cut="0.0000000000000000e+00" cType="1" res="1.4023463241755962e-02" rms="2.9855167865753174e-01" purity="8.8780003786087036e-01" nType="-99"/>
        </Node>
      </Node>
    </BinaryTree>
    <BinaryTree type="DecisionTree" boostWeight="1.0000000000000000e+00" itree="15">
      <Node pos="s" depth="0" NCoef="0" IVar="7" Cut="3.1058248877525330e-01" cType="1" res="0.0000000000000000e+00" rms="0.0000000000000000e+00" purity="5.0000000000000000e-01" nType="0">
        <Node pos="l" depth="1" NCoef="0" IVar="3" Cut="4.3691678047180176e+00" cType="1" res="inf" rms="0.0000000000000000e+00" purity="8.2439625263214111e-01" nType="0">
          <Node pos="l" depth="2" NCoef="0" IVar="-1" Cut="0.0000000000000000e+00" cType="1" res="1.5195567160844803e-02" rms="2.6189830899238586e-01" purity="9.0717905759811401e-01" nType="-99"/>
          <Node pos="r" depth="2" NCoef="0" IVar="-1" Cut="0.0000000000000000e+00" cType="1" res="-1.0146321728825569e-02" rms="3.6925187706947327e-01" purity="2.9599434137344360e-01" nType="-99"/>
        </Node>
        <Node pos="r" depth="1" NCoef="0" IVar="5" Cut="1.4442021958529949e-02" cType="1" res="2.4685005209075775e-32" rms="0.0000000000000000e+00" purity="2.2853282094001770e-01" nType="0">
          <Node pos="l" depth="2" NCoef="0" IVar="-1" Cut="0.0000000000000000e+00" cType="1" res="1.1383295990526676e-02" rms="3.5759934782981873e-01" purity="7.2193431854248047e-01" nType="-99"/>
          <Node pos="r" depth="2" NCoef="0" IVar="-1" Cut="0.0000000000000000e+00" cType="1" res="-2.2304346784949303e-02" rms="2.7224990725517273e-01" purity="1.2755712866783142e-01" nType="-99"/>
        </Node>
      </Node>
    </BinaryTree>
    <BinaryTree type="DecisionTree" boostWeight="1.0000000000000000e+00" itree="16">
      <Node pos="s" depth="0" NCoef="0" IVar="5" Cut="1.5881018713116646e-02" cType="1" res="2.7667150254845341e-12" rms="0.0000000000000000e+00" purity="5.0000000000000000e-01" nType="0">
        <Node pos="l" depth="1" NCoef="0" IVar="14" Cut="8.7222252041101456e-03" cType="1" res="-0.0000000000000000e+00" rms="0.0000000000000000e+00" purity="8.0883383750915527e-01" nType="0">
          <Node pos="l" depth="2" NCoef="0" IVar="-1" Cut="0.0000000000000000e+00" cType="1" res="1.4119043946266174e-02" rms="2.8918111324310303e-01" purity="8.5778218507766724e-01" nType="-99"/>
          <Node pos="r" depth="2" NCoef="0" IVar="-1" Cut="0.0000000000000000e+00" cType="1" res="-2.7952075004577637e-02" rms="3.3603262901306152e-01" purity="1.8068015575408936e-01" nType="-99"/>
        </Node>
        <Node pos="r" depth="1" NCoef="0" IVar="7" Cut="3.6103501915931702e-01" cType="1" res="1.4847697619999800e-22" rms="0.0000000000000000e+00" purity="2.0354314148426056e-01" nType="0">
          <Node pos="l" depth="2" NCoef="0" IVar="-1" Cut="0.0000000000000000e+00" cType="1" res="7.8218365088105202e-03" rms="3.9558580517768860e-01" purity="5.2496361732482910e-01" nType="-99"/>
          <Node pos="r" depth="2" NCoef="0" IVar="-1" Cut="0.0000000000000000e+00" cType="1" res="-3.7431877106428146e-02" rms="2.2978417575359344e-01" purity="7.4749149382114410e-02" nType="-99"/>
        </Node>
      </Node>
    </BinaryTree>
    <BinaryTree type="DecisionTree" boostWeight="1.0000000000000000e+00" itree="17">
      <Node pos="s" depth="0" NCoef="0" IVar="10" Cut="1.5591745078563690e-01" cType="1" res="7.3926495388150215e-03" rms="0.0000000000000000e+00" purity="5.0000000000000000e-01" nType="0">
        <Node pos="l" depth="1" NCoef="0" IVar="13" Cut="8.3520114421844482e-01" cType="1" res="0.0000000000000000e+00" rms="0.0000000000000000e+00" purity="7.5428903102874756e-01" nType="0">
          <Node pos="l" depth="2" NCoef="0" IVar="-1" Cut="0.0000000000000000e+00" cType="1" res="-1.6773637384176254e-02" rms="3.5286056995391846e-01" purity="1.9542613625526428e-01" nType="-99"/>
          <Node pos="r" depth="2" NCoef="0" IVar="-1" Cut="0.0000000000000000e+00" cType="1" res="1.3646256178617477e-02" rms="3.1391945481300354e-01" purity="8.4734386205673218e-01" nType="-99"/>
        </Node>
        <Node pos="r" depth="1" NCoef="0" IVar="7" Cut="2.1127578616142273e-01" cType="1" res="0.0000000000000000e+00" rms="0.0000000000000000e+00" purity="1.1060254275798798e-01" nType="0">
          <Node pos="l" depth="2" NCoef="0" IVar="-1" Cut="0.0000000000000000e+00" cType="1" res="1.0220126248896122e-02" rms="3.8796979188919067e-01" purity="6.3207137584686279e-01" nType="-99"/>
          <Node pos="r" depth="2" NCoef="0" IVar="-1" Cut="0.0000000000000000e+00" cType="1" res="-3.8491670042276382e-02" rms="2.0311577618122101e-01" purity="6.8188667297363281e-02" nType="-99"/>
        </Node>
      </Node>
    </BinaryTree>
    <BinaryTree type="DecisionTree" boostWeight="1.0000000000000000e+00" itree="18">
      <Node pos="s" depth="0" NCoef="0" IVar="7" Cut="2.8239190578460693e-01" cType="1" res="5.0000000000000000e-01" rms="5.0000000000000000e-01" purity="5.0000000000000000e-01" nType="0">
        <Node pos="l" depth="1" NCoef="0" IVar="3" Cut="6.5087013244628906e+00" cType="1" res="8.5279321670532227e-01" rms="3.5431194305419922e-01" purity="8.5279321670532227e-01" nType="0">
          <Node pos="l" depth="2" NCoef="0" IVar="-1" Cut="0.0000000000000000e+00" cType="1" res="1.4713917858898640e-02" rms="2.5104027986526489e-01" purity="9.1553634405136108e-01" nType="-99"/>
          <Node pos="r" depth="2" NCoef="0" IVar="-1" Cut="0.0000000000000000e+00" cType="1" res="-1.0700262151658535e-02" rms="3.7212008237838745e-01" purity="2.9837569594383240e-01" nType="-99"/>
        </Node>
        <Node pos="r" depth="1" NCoef="0" IVar="5" Cut="1.4706638641655445e-02" cType="1" res="2.5539696216583252e-01" rms="4.3608412146568298e-01" purity="2.5539696216583252e-01" nType="0">
          <Node pos="l" depth="2" NCoef="0" IVar="-1" Cut="0.0000000000000000e+00" cType="1" res="1.0850372724235058e-02" rms="3.5415583848953247e-01" purity="7.1860069036483765e-01" nType="-99"/>
          <Node pos="r" depth="2" NCoef="0" IVar="-1" Cut="0.0000000000000000e+00" cType="1" res="-1.6172623261809349e-02" rms="2.7749010920524597e-01" purity="1.3907791674137115e-01" nType="-99"/>
        </Node>
      </Node>
    </BinaryTree>
    <BinaryTree type="DecisionTree" boostWeight="1.0000000000000000e+00" itree="19">
      <Node pos="s" depth="0" NCoef="0" IVar="8" Cut="4.1331347823143005e-01" cType="1" res="5.0000000000000000e-01" rms="5.0000000000000000e-01" purity="5.0000000000000000e-01" nType="0">
        <Node pos="l" depth="1" NCoef="0" IVar="1" Cut="1.0000000000000000e+01" cType="1" res="-2.8499335050582886e-02" rms="1.8977746367454529e-01" purity="5.6183535605669022e-02" nType="0">
          <Node pos="l" depth="2" NCoef="0" IVar="-1" Cut="0.0000000000000000e+00" cType="1" res="-5.4191380739212036e-02" rms="1.6802757978439331e-01" purity="3.4944735467433929e-02" nType="-99"/>
          <Node pos="r" depth="2" NCoef="0" IVar="-1" Cut="0.0000000000000000e+00" cType="1" res="5.3105778060853481e-03" rms="3.5727855563163757e-01" purity="2.1805168688297272e-01" nType="-99"/>
        </Node>
        <Node pos="r" depth="1" NCoef="0" IVar="12" Cut="8.7701052427291870e-01" cType="1" res="7.6688843965530396e-01" rms="4.2281267046928406e-01" purity="7.6688843965530396e-01" nType="0">
          <Node pos="l" depth="2" NCoef="0" IVar="-1" Cut="0.0000000000000000e+00" cType="1" res="-1.6273094341158867e-02" rms="3.5641452670097351e-01" purity="2.2845809161663055e-01" nType="-99"/>
          <Node pos="r" depth="2" NCoef="0" IVar="-1" Cut="0.0000000000000000e+00" cType="1" res="1.2842241674661636e-02" rms="3.2265043258666992e-01" purity="8.4190100431442261e-01" nType="-99"/>
        </Node>
      </Node>
    </BinaryTree>
    <BinaryTree type="DecisionTree" boostWeight="1.0000000000000000e+00" itree="20">
      <Node pos="s" depth="0" NCoef="0" IVar="7" Cut="2.8482213616371155e-01" cType="1" res="5.0000000000000000e-01" rms="5.0000000000000000e-01" purity="5.0000000000000000e-01" nType="0">
        <Node pos="l" depth="1" NCoef="0" IVar="3" Cut="6.5087013244628906e+00" cType="1" res="8.5043990612030029e-01" rms="3.5663965344429016e-01" purity="8.5043996572494507e-01" nType="0">
          <Node pos="l" depth="2" NCoef="0" IVar="-1" Cut="0.0000000000000000e+00" cType="1" res="1.4339471235871315e-02" rms="2.5181427597999573e-01" purity="9.1420817375183105e-01" nType="-99"/>
          <Node pos="r" depth="2" NCoef="0" IVar="-1" Cut="0.0000000000000000e+00" cType="1" res="-9.6952458843588829e-03" rms="3.6764824390411377e-01" purity="2.9494199156761169e-01" nType="-99"/>
        </Node>
        <Node pos="r" depth="1" NCoef="0" IVar="5" Cut="1.4442021958529949e-02" cType="1" res="2.5278595089912415e-01" rms="4.3460926413536072e-01" purity="2.5278595089912415e-01" nType="0">
          <Node pos="l" depth="2" NCoef="0" IVar="-1" Cut="0.0000000000000000e+00" cType="1" res="1.0891068726778030e-02" rms="3.4543979167938232e-01" purity="7.3437303304672241e-01" nType="-99"/>
          <Node pos="r" depth="2" NCoef="0" IVar="-1" Cut="0.0000000000000000e+00" cType="1" res="-1.3371797278523445e-02" rms="2.7856847643852234e-01" purity="1.4411251246929169e-01" nType="-99"/>
        </Node>
      </Node>
    </BinaryTree>
    <BinaryTree type="DecisionTree" boostWeight="1.0000000000000000e+00" itree="21">
      <Node pos="s" depth="0" NCoef="0" IVar="7" Cut="3.1884527206420898e-01" cType="1" res="5.0000000000000000e-01" rms="5.0000000000000000e-01" purity="5.0000000000000000e-01" nType="0">
        <Node pos="l" depth="1" NCoef="0" IVar="3" Cut="4.3691678047180176e+00" cType="1" res="8.1600892543792725e-01" rms="3.8747692108154297e-01" purity="8.1600892543792725e-01" nType="0">
          <Node pos="l" depth="2" NCoef="0" IVar="-1" Cut="0.0000000000000000e+00" cType="1" res="1.4099457301199436e-02" rms="2.6256847381591797e-01" purity="9.0330928564071655e-01" nType="-99"/>
          <Node pos="r" depth="2" NCoef="0" IVar="-1" Cut="0.0000000000000000e+00" cType="1" res="-8.9915189892053604e-03" rms="3.5466870665550232e-01" purity="2.8255125880241394e-01" nType="-99"/>
        </Node>
        <Node pos="r" depth="1" NCoef="0" IVar="5" Cut="1.4442021958529949e-02" cType="1" res="2.2181268036365509e-01" rms="4.1546577215194702e-01" purity="2.2181266546249390e-01" nType="0">
          <Node pos="l" depth="2" NCoef="0" IVar="-1" Cut="0.0000000000000000e+00" cType="1" res="1.0365014895796776e-02" rms="3.4877705574035645e-01" purity="7.2037392854690552e-01" nType="-99"/>
          <Node pos="r" depth="2" NCoef="0" IVar="-1" Cut="0.0000000000000000e+00" cType="1" res="-1.6698105260729790e-02" rms="2.6495790481567383e-01" purity="1.2217590212821960e-01" nType="-99"/>
        </Node>
      </Node>
    </BinaryTree>
    <BinaryTree type="DecisionTree" boostWeight="1.0000000000000000e+00" itree="22">
      <Node pos="s" depth="0" NCoef="0" IVar="13" Cut="8.5632032155990601e-01" cType="1" res="0.0000000000000000e+00" rms="0.0000000000000000e+00" purity="5.0000000000000000e-01" nType="0">
        <Node pos="l" depth="1" NCoef="0" IVar="7" Cut="2.0689018070697784e-01" cType="1" res="1.8954333388800000e+11" rms="0.0000000000000000e+00" purity="7.5254619121551514e-02" nType="0">
          <Node pos="l" depth="2" NCoef="0" IVar="-1" Cut="0.0000000000000000e+00" cType="1" res="8.3852112293243408e-03" rms="4.3990111351013184e-01" purity="5.2468609809875488e-01" nType="-99"/>
          <Node pos="r" depth="2" NCoef="0" IVar="-1" Cut="0.0000000000000000e+00" cType="1" res="-4.8260219395160675e-02" rms="1.8812902271747589e-01" purity="4.8022419214248657e-02" nType="-99"/>
        </Node>
        <Node pos="r" depth="1" NCoef="0" IVar="10" Cut="1.8012860417366028e-01" cType="1" res="1.0026296115200000e+11" rms="0.0000000000000000e+00" purity="6.9163715839385986e-01" nType="0">
          <Node pos="l" depth="2" NCoef="0" IVar="-1" Cut="0.0000000000000000e+00" cType="1" res="1.2883121147751808e-02" rms="3.1455290317535400e-01" purity="8.2883411645889282e-01" nType="-99"/>
          <Node pos="r" depth="2" NCoef="0" IVar="-1" Cut="0.0000000000000000e+00" cType="1" res="-1.4283289201557636e-02" rms="2.6174479722976685e-01" purity="1.3343168795108795e-01" nType="-99"/>
        </Node>
      </Node>
    </BinaryTree>
    <BinaryTree type="DecisionTree" boostWeight="1.0000000000000000e+00" itree="23">
      <Node pos="s" depth="0" NCoef="0" IVar="10" Cut="1.5591745078563690e-01" cType="1" res="5.0000000000000000e-01" rms="5.0000000000000000e-01" purity="5.0000000000000000e-01" nType="0">
        <Node pos="l" depth="1" NCoef="0" IVar="13" Cut="8.3520114421844482e-01" cType="1" res="-0.0000000000000000e+00" rms="3.5091561953332382e+34" purity="7.5428903102874756e-01" nType="0">
          <Node pos="l" depth="2" NCoef="0" IVar="-1" Cut="0.0000000000000000e+00" cType="1" res="-1.2525905855000019e-02" rms="3.4529721736907959e-01" purity="1.9542613625526428e-01" nType="-99"/>
          <Node pos="r" depth="2" NCoef="0" IVar="-1" Cut="0.0000000000000000e+00" cType="1" res="1.2764033861458302e-02" rms="3.0820706486701965e-01" purity="8.4734386205673218e-01" nType="-99"/>
        </Node>
        <Node pos="r" depth="1" NCoef="0" IVar="7" Cut="2.1127578616142273e-01" cType="1" res="1.1060253530740738e-01" rms="3.1363931298255920e-01" purity="1.1060254275798798e-01" nType="0">
          <Node pos="l" depth="2" NCoef="0" IVar="-1" Cut="0.0000000000000000e+00" cType="1" res="9.6261035650968552e-03" rms="3.7550014257431030e-01" purity="6.3207137584686279e-01" nType="-99"/>
          <Node pos="r" depth="2" NCoef="0" IVar="-1" Cut="0.0000000000000000e+00" cType="1" res="-3.0167927965521812e-02" rms="1.9912418723106384e-01" purity="6.8188667297363281e-02" nType="-99"/>
        </Node>
      </Node>
    </BinaryTree>
    <BinaryTree type="DecisionTree" boostWeight="1.0000000000000000e+00" itree="24">
      <Node pos="s" depth="0" NCoef="0" IVar="5" Cut="1.6536071896553040e-02" cType="1" res="-0.0000000000000000e+00" rms="7.0710676908493042e-01" purity="5.0000000000000000e-01" nType="0">
        <Node pos="l" depth="1" NCoef="0" IVar="14" Cut="-8.1355040892958641e-03" cType="1" res="7.8084838390350342e-01" rms="4.1367158293724060e-01" purity="7.8084844350814819e-01" nType="0">
          <Node pos="l" depth="2" NCoef="0" IVar="-1" Cut="0.0000000000000000e+00" cType="1" res="-2.3065451532602310e-02" rms="3.3919966220855713e-01" purity="1.9128590822219849e-01" nType="-99"/>
          <Node pos="r" depth="2" NCoef="0" IVar="-1" Cut="0.0000000000000000e+00" cType="1" res="1.2905725277960300e-02" rms="2.8576681017875671e-01" purity="8.3676642179489136e-01" nType="-99"/>
        </Node>
        <Node pos="r" depth="1" NCoef="0" IVar="7" Cut="3.6282819509506226e-01" cType="1" res="1.6768050193786621e-01" rms="3.7358233332633972e-01" purity="1.6768050193786621e-01" nType="0">
          <Node pos="l" depth="2" NCoef="0" IVar="-1" Cut="0.0000000000000000e+00" cType="1" res="7.1118245832622051e-03" rms="3.7801542878150940e-01" purity="4.7932344675064087e-01" nType="-99"/>
          <Node pos="r" depth="2" NCoef="0" IVar="-1" Cut="0.0000000000000000e+00" cType="1" res="-3.2476183027029037e-02" rms="2.1357506513595581e-01" purity="6.1770100146532059e-02" nType="-99"/>
        </Node>
      </Node>
    </BinaryTree>
    <BinaryTree type="DecisionTree" boostWeight="1.0000000000000000e+00" itree="25">
      <Node pos="s" depth="0" NCoef="0" IVar="8" Cut="5.6844443082809448e-01" cType="1" res="5.0000000000000000e-01" rms="5.0000000000000000e-01" purity="5.0000000000000000e-01" nType="0">
        <Node pos="l" depth="1" NCoef="0" IVar="0" Cut="9.0000000000000000e+00" cType="1" res="-1.6338951885700226e-02" rms="2.7713510394096375e-01" purity="1.8716801702976227e-01" nType="0">
          <Node pos="l" depth="2" NCoef="0" IVar="-1" Cut="0.0000000000000000e+00" cType="1" res="9.0956594794988632e-03" rms="3.2945087552070618e-01" purity="3.3683228492736816e-01" nType="-99"/>
          <Node pos="r" depth="2" NCoef="0" IVar="-1" Cut="0.0000000000000000e+00" cType="1" res="-4.1288688778877258e-02" rms="1.9054947793483734e-01" purity="5.7928197085857391e-02" nType="-99"/>
        </Node>
        <Node pos="r" depth="1" NCoef="0" IVar="12" Cut="1.6716759204864502e+00" cType="1" res="8.3265125751495361e-01" rms="3.7328693270683289e-01" purity="8.3265131711959839e-01" nType="0">
          <Node pos="l" depth="2" NCoef="0" IVar="-1" Cut="0.0000000000000000e+00" cType="1" res="1.2924781069159508e-02" rms="2.7069815993309021e-01" purity="8.6397939920425415e-01" nType="-99"/>
          <Node pos="r" depth="2" NCoef="0" IVar="-1" Cut="0.0000000000000000e+00" cType="1" res="-1.3714910484850407e-02" rms="4.5733767747879028e-01" purity="4.3524882197380066e-01" nType="-99"/>
        </Node>
      </Node>
    </BinaryTree>
    <BinaryTree type="DecisionTree" boostWeight="1.0000000000000000e+00" itree="26">
      <Node pos="s" depth="0" NCoef="0" IVar="7" Cut="2.8239190578460693e-01" cType="1" res="1.4502600720334158e-07" rms="0.0000000000000000e+00" purity="5.0000000000000000e-01" nType="0">
        <Node pos="l" depth="1" NCoef="0" IVar="3" Cut="6.5087013244628906e+00" cType="1" res="3.0993352490762364e-20" rms="0.0000000000000000e+00" purity="8.5279321670532227e-01" nType="0">
          <Node pos="l" depth="2" NCoef="0" IVar="-1" Cut="0.0000000000000000e+00" cType="1" res="1.3473005034029484e-02" rms="2.4619270861148834e-01" purity="9.1553634405136108e-01" nType="-99"/>
          <Node pos="r" depth="2" NCoef="0" IVar="-1" Cut="0.0000000000000000e+00" cType="1" res="-7.9959481954574585e-03" rms="3.6116033792495728e-01" purity="2.9837569594383240e-01" nType="-99"/>
        </Node>
        <Node pos="r" depth="1" NCoef="0" IVar="1" Cut="1.0000000000000000e+01" cType="1" res="1.5848534181714058e-02" rms="2.3267529904842377e-01" purity="2.5539696216583252e-01" nType="0">
          <Node pos="l" depth="2" NCoef="0" IVar="-1" Cut="0.0000000000000000e+00" cType="1" res="-1.7671190202236176e-02" rms="2.3193551599979401e-01" purity="1.0719901323318481e-01" nType="-99"/>
          <Node pos="r" depth="2" NCoef="0" IVar="-1" Cut="0.0000000000000000e+00" cType="1" res="9.0791555121541023e-03" rms="3.7028688192367554e-01" purity="5.5926597118377686e-01" nType="-99"/>
        </Node>
      </Node>
    </BinaryTree>
    <BinaryTree type="DecisionTree" boostWeight="1.0000000000000000e+00" itree="27">
      <Node pos="s" depth="0" NCoef="0" IVar="13" Cut="8.5632032155990601e-01" cType="1" res="5.0000000000000000e-01" rms="5.0000000000000000e-01" purity="5.0000000000000000e-01" nType="0">
        <Node pos="l" depth="1" NCoef="0" IVar="7" Cut="2.0544001460075378e-01" cType="1" res="7.5254611670970917e-02" rms="2.6380175352096558e-01" purity="7.5254619121551514e-02" nType="0">
          <Node pos="l" depth="2" NCoef="0" IVar="-1" Cut="0.0000000000000000e+00" cType="1" res="7.8312754631042480e-03" rms="4.3539470434188843e-01" purity="5.2648109197616577e-01" nType="-99"/>
          <Node pos="r" depth="2" NCoef="0" IVar="-1" Cut="0.0000000000000000e+00" cType="1" res="-4.1219402104616165e-02" rms="1.8688614666461945e-01" purity="4.8453956842422485e-02" nType="-99"/>
        </Node>
        <Node pos="r" depth="1" NCoef="0" IVar="14" Cut="1.0221213102340698e-02" cType="1" res="6.9163715839385986e-01" rms="4.6181726455688477e-01" purity="6.9163715839385986e-01" nType="0">
          <Node pos="l" depth="2" NCoef="0" IVar="-1" Cut="0.0000000000000000e+00" cType="1" res="1.2415691278874874e-02" rms="3.0145117640495300e-01" purity="7.7495646476745605e-01" nType="-99"/>
          <Node pos="r" depth="2" NCoef="0" IVar="-1" Cut="0.0000000000000000e+00" cType="1" res="-3.8650389760732651e-02" rms="2.6248764991760254e-01" purity="9.0683981776237488e-02" nType="-99"/>
        </Node>
      </Node>
    </BinaryTree>
    <BinaryTree type="DecisionTree" boostWeight="1.0000000000000000e+00" itree="28">
      <Node pos="s" depth="0" NCoef="0" IVar="5" Cut="1.7079284414649010e-02" cType="1" res="5.0000000000000000e-01" rms="5.0000000000000000e-01" purity="5.0000000000000000e-01" nType="0">
        <Node pos="l" depth="1" NCoef="0" IVar="14" Cut="-7.8595513477921486e-03" cType="1" res="7.5592696666717529e-01" rms="4.2953625321388245e-01" purity="7.5592696666717529e-01" nType="0">
          <Node pos="l" depth="2" NCoef="0" IVar="-1" Cut="0.0000000000000000e+00" cType="1" res="-2.0137013867497444e-02" rms="3.2891461253166199e-01" purity="1.8547618389129639e-01" nType="-99"/>
          <Node pos="r" depth="2" NCoef="0" IVar="-1" Cut="0.0000000000000000e+00" cType="1" res="1.2371528893709183e-02" rms="2.8580793738365173e-01" purity="8.1882673501968384e-01" nType="-99"/>
        </Node>
        <Node pos="r" depth="1" NCoef="0" IVar="7" Cut="3.5076853632926941e-01" cType="1" res="1.4026185870170593e-01" rms="3.4725850820541382e-01" purity="1.4026185870170593e-01" nType="0">
          <Node pos="l" depth="2" NCoef="0" IVar="-1" Cut="0.0000000000000000e+00" cType="1" res="6.2717469409108162e-03" rms="3.7048557400703430e-01" purity="4.6470937132835388e-01" nType="-99"/>
          <Node pos="r" depth="2" NCoef="0" IVar="-1" Cut="0.0000000000000000e+00" cType="1" res="-3.0780898407101631e-02" rms="2.0468340814113617e-01" purity="5.6140977889299393e-02" nType="-99"/>
        </Node>
      </Node>
    </BinaryTree>
    <BinaryTree type="DecisionTree" boostWeight="1.0000000000000000e+00" itree="29">
      <Node pos="s" depth="0" NCoef="0" IVar="10" Cut="1.5981538593769073e-01" cType="1" res="5.0000000000000000e-01" rms="5.0000000000000000e-01" purity="5.0000000000000000e-01" nType="0">
        <Node pos="l" depth="1" NCoef="0" IVar="13" Cut="8.3520114421844482e-01" cType="1" res="7.4851703643798828e-01" rms="4.3386551737785339e-01" purity="7.4851703643798828e-01" nType="0">
          <Node pos="l" depth="2" NCoef="0" IVar="-1" Cut="0.0000000000000000e+00" cType="1" res="-1.0007514618337154e-02" rms="3.3420935273170471e-01" purity="1.8930636346340179e-01" nType="-99"/>
          <Node pos="r" depth="2" NCoef="0" IVar="-1" Cut="0.0000000000000000e+00" cType="1" res="1.2024059891700745e-02" rms="3.0116420984268188e-01" purity="8.4411323070526123e-01" nType="-99"/>
        </Node>
        <Node pos="r" depth="1" NCoef="0" IVar="8" Cut="6.2047344446182251e-01" cType="1" res="1.0174832493066788e-01" rms="3.0231705307960510e-01" purity="1.0174831748008728e-01" nType="0">
          <Node pos="l" depth="2" NCoef="0" IVar="-1" Cut="0.0000000000000000e+00" cType="1" res="-2.3224946111440659e-02" rms="1.9648915529251099e-01" purity="6.8643927574157715e-02" nType="-99"/>
          <Node pos="r" depth="2" NCoef="0" IVar="-1" Cut="0.0000000000000000e+00" cType="1" res="9.6872756257653236e-03" rms="3.4729322791099548e-01" purity="7.3832243680953979e-01" nType="-99"/>
        </Node>
      </Node>
    </BinaryTree>
    <BinaryTree type="DecisionTree" boostWeight="1.0000000000000000e+00" itree="30">
      <Node pos="s" depth="0" NCoef="0" IVar="7" Cut="2.8239190578460693e-01" cType="1" res="5.0000000000000000e-01" rms="5.0000000000000000e-01" purity="5.0000000000000000e-01" nType="0">
        <Node pos="l" depth="1" NCoef="0" IVar="3" Cut="6.5087013244628906e+00" cType="1" res="8.5279321670532227e-01" rms="3.5431194305419922e-01" purity="8.5279321670532227e-01" nType="0">
          <Node pos="l" depth="2" NCoef="0" IVar="-1" Cut="0.0000000000000000e+00" cType="1" res="1.2964698486030102e-02" rms="2.4383717775344849e-01" purity="9.1553634405136108e-01" nType="-99"/>
          <Node pos="r" depth="2" NCoef="0" IVar="-1" Cut="0.0000000000000000e+00" cType="1" res="-7.2462940588593483e-03" rms="3.5633137822151184e-01" purity="2.9837569594383240e-01" nType="-99"/>
        </Node>
        <Node pos="r" depth="1" NCoef="0" IVar="1" Cut="1.0000000000000000e+01" cType="1" res="1.9627859815955162e-02" rms="2.2799430787563324e-01" purity="2.5539696216583252e-01" nType="0">
          <Node pos="l" depth="2" NCoef="0" IVar="-1" Cut="0.0000000000000000e+00" cType="1" res="-1.4519269578158855e-02" rms="2.2936843335628510e-01" purity="1.0719901323318481e-01" nType="-99"/>
          <Node pos="r" depth="2" NCoef="0" IVar="-1" Cut="0.0000000000000000e+00" cType="1" res="8.8482992723584175e-03" rms="3.6197611689567566e-01" purity="5.5926597118377686e-01" nType="-99"/>
        </Node>
      </Node>
    </BinaryTree>
    <BinaryTree type="DecisionTree" boostWeight="1.0000000000000000e+00" itree="31">
      <Node pos="s" depth="0" NCoef="0" IVar="5" Cut="1.5673318877816200e-02" cType="1" res="-0.0000000000000000e+00" rms="0.0000000000000000e+00" purity="5.0000000000000000e-01" nType="0">
        <Node pos="l" depth="1" NCoef="0" IVar="14" Cut="8.3290226757526398e-03" cType="1" res="0.0000000000000000e+00" rms="0.0000000000000000e+00" purity="8.1714200973510742e-01" nType="0">
          <Node pos="l" depth="2" NCoef="0" IVar="-1" Cut="0.0000000000000000e+00" cType="1" res="1.2313578277826309e-02" rms="2.6453351974487305e-01" purity="8.6457550525665283e-01" nType="-99"/>
          <Node pos="r" depth="2" NCoef="0" IVar="-1" Cut="0.0000000000000000e+00" cType="1" res="-2.0805452018976212e-02" rms="3.3663824200630188e-01" purity="1.9793982803821564e-01" nType="-99"/>
        </Node>
        <Node pos="r" depth="1" NCoef="0" IVar="9" Cut="1.5240518376231194e-02" cType="1" res="1.2580316024468630e-06" rms="0.0000000000000000e+00" purity="2.1513193845748901e-01" nType="0">
          <Node pos="l" depth="2" NCoef="0" IVar="-1" Cut="0.0000000000000000e+00" cType="1" res="8.6831478402018547e-03" rms="3.8683840632438660e-01" purity="6.1564016342163086e-01" nType="-99"/>
          <Node pos="r" depth="2" NCoef="0" IVar="-1" Cut="0.0000000000000000e+00" cType="1" res="-1.2255420908331871e-02" rms="2.3325681686401367e-01" purity="1.0997138172388077e-01" nType="-99"/>
        </Node>
      </Node>
    </BinaryTree>
    <BinaryTree type="DecisionTree" boostWeight="1.0000000000000000e+00" itree="32">
      <Node pos="s" depth="0" NCoef="0" IVar="7" Cut="3.5627070069313049e-01" cType="1" res="0.0000000000000000e+00" rms="0.0000000000000000e+00" purity="5.0000000000000000e-01" nType="0">
        <Node pos="l" depth="1" NCoef="0" IVar="14" Cut="1.0366938076913357e-02" cType="1" res="inf" rms="0.0000000000000000e+00" purity="7.7918934822082520e-01" nType="0">
          <Node pos="l" depth="2" NCoef="0" IVar="-1" Cut="0.0000000000000000e+00" cType="1" res="1.2088743969798088e-02" rms="2.8102099895477295e-01" purity="8.3478158712387085e-01" nType="-99"/>
          <Node pos="r" depth="2" NCoef="0" IVar="-1" Cut="0.0000000000000000e+00" cType="1" res="-2.8147695586085320e-02" rms="2.9624944925308228e-01" purity="1.3665942847728729e-01" nType="-99"/>
        </Node>
        <Node pos="r" depth="1" NCoef="0" IVar="5" Cut="1.3862385414540768e-02" cType="1" res="0.0000000000000000e+00" rms="5.4251946508288000e+13" purity="1.9064129889011383e-01" nType="0">
          <Node pos="l" depth="2" NCoef="0" IVar="-1" Cut="0.0000000000000000e+00" cType="1" res="9.9442489445209503e-03" rms="3.1887793540954590e-01" purity="7.4054938554763794e-01" nType="-99"/>
          <Node pos="r" depth="2" NCoef="0" IVar="-1" Cut="0.0000000000000000e+00" cType="1" res="-1.1472591198980808e-02" rms="2.4531854689121246e-01" purity="1.1571401357650757e-01" nType="-99"/>
        </Node>
      </Node>
    </BinaryTree>
    <BinaryTree type="DecisionTree" boostWeight="1.0000000000000000e+00" itree="33">
      <Node pos="s" depth="0" NCoef="0" IVar="13" Cut="8.5632032155990601e-01" cType="1" res="5.0000000000000000e-01" rms="5.0000000000000000e-01" purity="5.0000000000000000e-01" nType="0">
        <Node pos="l" depth="1" NCoef="0" IVar="0" Cut="9.0000000000000000e+00" cType="1" res="-5.6934759020805359e-02" rms="2.1029500663280487e-01" purity="7.5254619121551514e-02" nType="0">
          <Node pos="l" depth="2" NCoef="0" IVar="-1" Cut="0.0000000000000000e+00" cType="1" res="-8.5276836762204766e-04" rms="2.5163874030113220e-01" purity="1.3617199659347534e-01" nType="-99"/>
          <Node pos="r" depth="2" NCoef="0" IVar="-1" Cut="0.0000000000000000e+00" cType="1" res="-4.6324677765369415e-02" rms="1.7806321382522583e-01" purity="4.2848661541938782e-02" nType="-99"/>
        </Node>
        <Node pos="r" depth="1" NCoef="0" IVar="12" Cut="1.8085248470306396e+00" cType="1" res="6.9163715839385986e-01" rms="4.6181726455688477e-01" purity="6.9163715839385986e-01" nType="0">
          <Node pos="l" depth="2" NCoef="0" IVar="-1" Cut="0.0000000000000000e+00" cType="1" res="1.2345315888524055e-02" rms="2.6541119813919067e-01" purity="7.8057986497879028e-01" nType="-99"/>
          <Node pos="r" depth="2" NCoef="0" IVar="-1" Cut="0.0000000000000000e+00" cType="1" res="-9.2952735722064972e-03" rms="3.8280224800109863e-01" purity="2.6865416765213013e-01" nType="-99"/>
        </Node>
      </Node>
    </BinaryTree>
    <BinaryTree type="DecisionTree" boostWeight="1.0000000000000000e+00" itree="34">
      <Node pos="s" depth="0" NCoef="0" IVar="8" Cut="3.8745832443237305e-01" cType="1" res="5.0000000000000000e-01" rms="5.0000000000000000e-01" purity="5.0000000000000000e-01" nType="0">
        <Node pos="l" depth="1" NCoef="0" IVar="8" Cut="3.2957142591476440e-01" cType="1" res="4.1272986680269241e-02" rms="1.9892090559005737e-01" purity="4.1272990405559540e-02" nType="0">
          <Node pos="l" depth="2" NCoef="0" IVar="-1" Cut="0.0000000000000000e+00" cType="1" res="-5.2178885787725449e-02" rms="1.3659080862998962e-01" purity="2.1537940949201584e-02" nType="-99"/>
          <Node pos="r" depth="2" NCoef="0" IVar="-1" Cut="0.0000000000000000e+00" cType="1" res="4.7776354476809502e-03" rms="3.1264081597328186e-01" purity="1.5893511474132538e-01" nType="-99"/>
        </Node>
        <Node pos="r" depth="1" NCoef="0" IVar="12" Cut="8.7701052427291870e-01" cType="1" res="7.5094050168991089e-01" rms="4.3246835470199585e-01" purity="7.5094044208526611e-01" nType="0">
          <Node pos="l" depth="2" NCoef="0" IVar="-1" Cut="0.0000000000000000e+00" cType="1" res="-1.2788938358426094e-02" rms="3.1912899017333984e-01" purity="2.1011209487915039e-01" nType="-99"/>
          <Node pos="r" depth="2" NCoef="0" IVar="-1" Cut="0.0000000000000000e+00" cType="1" res="1.1214847676455975e-02" rms="3.0556976795196533e-01" purity="8.3167684078216553e-01" nType="-99"/>
        </Node>
      </Node>
    </BinaryTree>
    <BinaryTree type="DecisionTree" boostWeight="1.0000000000000000e+00" itree="35">
      <Node pos="s" depth="0" NCoef="0" IVar="7" Cut="3.5627070069313049e-01" cType="1" res="5.0000000000000000e-01" rms="5.0000000000000000e-01" purity="5.0000000000000000e-01" nType="0">
        <Node pos="l" depth="1" NCoef="0" IVar="14" Cut="-1.1226502247154713e-02" cType="1" res="7.7918934822082520e-01" rms="4.1479310393333435e-01" purity="7.7918934822082520e-01" nType="0">
          <Node pos="l" depth="2" NCoef="0" IVar="-1" Cut="0.0000000000000000e+00" cType="1" res="-2.8114039450883865e-02" rms="3.0385074019432068e-01" purity="1.4023351669311523e-01" nType="-99"/>
          <Node pos="r" depth="2" NCoef="0" IVar="-1" Cut="0.0000000000000000e+00" cType="1" res="1.1826396919786930e-02" rms="2.7573865652084351e-01" purity="8.3348989486694336e-01" nType="-99"/>
        </Node>
        <Node pos="r" depth="1" NCoef="0" IVar="5" Cut="1.3723776675760746e-02" cType="1" res="1.9064128398895264e-01" rms="3.9280679821968079e-01" purity="1.9064129889011383e-01" nType="0">
          <Node pos="l" depth="2" NCoef="0" IVar="-1" Cut="0.0000000000000000e+00" cType="1" res="9.8604997619986534e-03" rms="3.1103172898292542e-01" purity="7.4977701902389526e-01" nType="-99"/>
          <Node pos="r" depth="2" NCoef="0" IVar="-1" Cut="0.0000000000000000e+00" cType="1" res="-9.2535698786377907e-03" rms="2.4446308612823486e-01" purity="1.1885498464107513e-01" nType="-99"/>
        </Node>
      </Node>
    </BinaryTree>
    <BinaryTree type="DecisionTree" boostWeight="1.0000000000000000e+00" itree="36">
      <Node pos="s" depth="0" NCoef="0" IVar="5" Cut="1.7079284414649010e-02" cType="1" res="5.0000000000000000e-01" rms="5.0000000000000000e-01" purity="5.0000000000000000e-01" nType="0">
        <Node pos="l" depth="1" NCoef="0" IVar="14" Cut="8.6238896474242210e-03" cType="1" res="7.5592696666717529e-01" rms="4.2953625321388245e-01" purity="7.5592696666717529e-01" nType="0">
          <Node pos="l" depth="2" NCoef="0" IVar="-1" Cut="0.0000000000000000e+00" cType="1" res="1.1478872038424015e-02" rms="2.7983313798904419e-01" purity="8.1856811046600342e-01" nType="-99"/>
          <Node pos="r" depth="2" NCoef="0" IVar="-1" Cut="0.0000000000000000e+00" cType="1" res="-2.3692222312092781e-02" rms="3.0051305890083313e-01" purity="1.4977687597274780e-01" nType="-99"/>
        </Node>
        <Node pos="r" depth="1" NCoef="0" IVar="7" Cut="4.1169133782386780e-01" cType="1" res="1.4026185870170593e-01" rms="3.4725850820541382e-01" purity="1.4026185870170593e-01" nType="0">
          <Node pos="l" depth="2" NCoef="0" IVar="-1" Cut="0.0000000000000000e+00" cType="1" res="5.5168047547340393e-03" rms="3.4225800633430481e-01" purity="3.6231738328933716e-01" nType="-99"/>
          <Node pos="r" depth="2" NCoef="0" IVar="-1" Cut="0.0000000000000000e+00" cType="1" res="-3.4040704369544983e-02" rms="1.8182550370693207e-01" purity="4.1605357080698013e-02" nType="-99"/>
        </Node>
      </Node>
    </BinaryTree>
    <BinaryTree type="DecisionTree" boostWeight="1.0000000000000000e+00" itree="37">
      <Node pos="s" depth="0" NCoef="0" IVar="10" Cut="1.6229589283466339e-01" cType="1" res="0.0000000000000000e+00" rms="0.0000000000000000e+00" purity="5.0000000000000000e-01" nType="0">
        <Node pos="l" depth="1" NCoef="0" IVar="11" Cut="4.8334193229675293e-01" cType="1" res="0.0000000000000000e+00" rms="0.0000000000000000e+00" purity="7.4502372741699219e-01" nType="0">
          <Node pos="l" depth="2" NCoef="0" IVar="-1" Cut="0.0000000000000000e+00" cType="1" res="1.0909128002822399e-02" rms="2.9732796549797058e-01" purity="7.6438581943511963e-01" nType="-99"/>
          <Node pos="r" depth="2" NCoef="0" IVar="-1" Cut="0.0000000000000000e+00" cType="1" res="-8.5893936455249786e-02" rms="3.1585353612899780e-01" purity="9.9365070462226868e-02" nType="-99"/>
        </Node>
        <Node pos="r" depth="1" NCoef="0" IVar="7" Cut="1.8893398344516754e-01" cType="1" res="0.0000000000000000e+00" rms="0.0000000000000000e+00" purity="9.6621960401535034e-02" nType="0">
          <Node pos="l" depth="2" NCoef="0" IVar="-1" Cut="0.0000000000000000e+00" cType="1" res="9.7973933443427086e-03" rms="3.4581613540649414e-01" purity="6.4982622861862183e-01" nType="-99"/>
          <Node pos="r" depth="2" NCoef="0" IVar="-1" Cut="0.0000000000000000e+00" cType="1" res="-1.8231574445962906e-02" rms="1.8759286403656006e-01" purity="6.7818142473697662e-02" nType="-99"/>
        </Node>
      </Node>
    </BinaryTree>
    <BinaryTree type="DecisionTree" boostWeight="1.0000000000000000e+00" itree="38">
      <Node pos="s" depth="0" NCoef="0" IVar="13" Cut="8.5632032155990601e-01" cType="1" res="0.0000000000000000e+00" rms="0.0000000000000000e+00" purity="5.0000000000000000e-01" nType="0">
        <Node pos="l" depth="1" NCoef="0" IVar="0" Cut="1.0000000000000000e+01" cType="1" res="-4.4970817863941193e-02" rms="2.0677420496940613e-01" purity="7.5254619121551514e-02" nType="0">
          <Node pos="l" depth="2" NCoef="0" IVar="-1" Cut="0.0000000000000000e+00" cType="1" res="-2.0290464162826538e-03" rms="2.3413315415382385e-01" purity="1.1807285249233246e-01" nType="-99"/>
          <Node pos="r" depth="2" NCoef="0" IVar="-1" Cut="0.0000000000000000e+00" cType="1" res="-4.9693893641233444e-02" rms="1.7084501683712006e-01" purity="3.6251980811357498e-02" nType="-99"/>
        </Node>
        <Node pos="r" depth="1" NCoef="0" IVar="12" Cut="1.8085248470306396e+00" cType="1" res="0.0000000000000000e+00" rms="0.0000000000000000e+00" purity="6.9163715839385986e-01" nType="0">
          <Node pos="l" depth="2" NCoef="0" IVar="-1" Cut="0.0000000000000000e+00" cType="1" res="1.1910393834114075e-02" rms="2.5813084840774536e-01" purity="7.8057986497879028e-01" nType="-99"/>
          <Node pos="r" depth="2" NCoef="0" IVar="-1" Cut="0.0000000000000000e+00" cType="1" res="-8.6325872689485550e-03" rms="3.7949395179748535e-01" purity="2.6865416765213013e-01" nType="-99"/>
        </Node>
      </Node>
    </BinaryTree>
    <BinaryTree type="DecisionTree" boostWeight="1.0000000000000000e+00" itree="39">
      <Node pos="s" depth="0" NCoef="0" IVar="7" Cut="2.8239190578460693e-01" cType="1" res="5.0000000000000000e-01" rms="5.0000000000000000e-01" purity="5.0000000000000000e-01" nType="0">
        <Node pos="l" depth="1" NCoef="0" IVar="3" Cut="4.3691678047180176e+00" cType="1" res="8.5279321670532227e-01" rms="3.5431194305419922e-01" purity="8.5279321670532227e-01" nType="0">
          <Node pos="l" depth="2" NCoef="0" IVar="-1" Cut="0.0000000000000000e+00" cType="1" res="1.2120873667299747e-02" rms="2.3233482241630554e-01" purity="9.2103862762451172e-01" nType="-99"/>
          <Node pos="r" depth="2" NCoef="0" IVar="-1" Cut="0.0000000000000000e+00" cType="1" res="-3.6050488706678152e-03" rms="3.5319358110427856e-01" purity="3.4997302293777466e-01" nType="-99"/>
        </Node>
        <Node pos="r" depth="1" NCoef="0" IVar="1" Cut="1.0000000000000000e+01" cType="1" res="2.2307371720671654e-02" rms="2.1922917664051056e-01" purity="2.5539696216583252e-01" nType="0">
          <Node pos="l" depth="2" NCoef="0" IVar="-1" Cut="0.0000000000000000e+00" cType="1" res="-1.0628568008542061e-02" rms="2.2319155931472778e-01" purity="1.0719901323318481e-01" nType="-99"/>
          <Node pos="r" depth="2" NCoef="0" IVar="-1" Cut="0.0000000000000000e+00" cType="1" res="8.5682431235909462e-03" rms="3.4581038355827332e-01" purity="5.5926597118377686e-01" nType="-99"/>
        </Node>
      </Node>
    </BinaryTree>
    <BinaryTree type="DecisionTree" boostWeight="1.0000000000000000e+00" itree="40">
      <Node pos="s" depth="0" NCoef="0" IVar="5" Cut="1.5673318877816200e-02" cType="1" res="5.0000000000000000e-01" rms="5.0000000000000000e-01" purity="5.0000000000000000e-01" nType="0">
        <Node pos="l" depth="1" NCoef="0" IVar="14" Cut="-8.1106545403599739e-03" cType="1" res="8.1714200973510742e-01" rms="3.8655003905296326e-01" purity="8.1714200973510742e-01" nType="0">
          <Node pos="l" depth="2" NCoef="0" IVar="-1" Cut="0.0000000000000000e+00" cType="1" res="-1.7011713236570358e-02" rms="3.5510766506195068e-01" purity="2.2423915565013885e-01" nType="-99"/>
          <Node pos="r" depth="2" NCoef="0" IVar="-1" Cut="0.0000000000000000e+00" cType="1" res="1.1463166214525700e-02" rms="2.5190147757530212e-01" purity="8.6433249711990356e-01" nType="-99"/>
        </Node>
        <Node pos="r" depth="1" NCoef="0" IVar="1" Cut="1.0000000000000000e+01" cType="1" res="1.8112771213054657e-02" rms="2.1735289692878723e-01" purity="2.1513193845748901e-01" nType="0">
          <Node pos="l" depth="2" NCoef="0" IVar="-1" Cut="0.0000000000000000e+00" cType="1" res="-1.2942203320562840e-02" rms="2.1500650048255920e-01" purity="9.2148520052433014e-02" nType="-99"/>
          <Node pos="r" depth="2" NCoef="0" IVar="-1" Cut="0.0000000000000000e+00" cType="1" res="8.1234145909547806e-03" rms="3.5212644934654236e-01" purity="5.1030695438385010e-01" nType="-99"/>
        </Node>
      </Node>
    </BinaryTree>
    <BinaryTree type="DecisionTree" boostWeight="1.0000000000000000e+00" itree="41">
      <Node pos="s" depth="0" NCoef="0" IVar="7" Cut="2.5954782962799072e-01" cType="1" res="5.0000000000000000e-01" rms="5.0000000000000000e-01" purity="5.0000000000000000e-01" nType="0">
        <Node pos="l" depth="1" NCoef="0" IVar="3" Cut="1.0787768363952637e+01" cType="1" res="8.7250524759292603e-01" rms="3.3352637290954590e-01" purity="8.7250524759292603e-01" nType="0">
          <Node pos="l" depth="2" NCoef="0" IVar="-1" Cut="0.0000000000000000e+00" cType="1" res="1.1941961012780666e-02" rms="2.2935527563095093e-01" purity="9.1872549057006836e-01" nType="-99"/>
          <Node pos="r" depth="2" NCoef="0" IVar="-1" Cut="0.0000000000000000e+00" cType="1" res="-9.3421284109354019e-03" rms="3.4728470444679260e-01" purity="2.7416402101516724e-01" nType="-99"/>
        </Node>
        <Node pos="r" depth="1" NCoef="0" IVar="1" Cut="1.0000000000000000e+01" cType="1" res="2.6807917281985283e-02" rms="2.2125266492366791e-01" purity="2.8394412994384766e-01" nType="0">
          <Node pos="l" depth="2" NCoef="0" IVar="-1" Cut="0.0000000000000000e+00" cType="1" res="-8.1422561779618263e-03" rms="2.2991536557674408e-01" purity="1.2135878950357437e-01" nType="-99"/>
          <Node pos="r" depth="2" NCoef="0" IVar="-1" Cut="0.0000000000000000e+00" cType="1" res="8.3330357447266579e-03" rms="3.4070613980293274e-01" purity="5.9158021211624146e-01" nType="-99"/>
        </Node>
      </Node>
    </BinaryTree>
    <BinaryTree type="DecisionTree" boostWeight="1.0000000000000000e+00" itree="42">
      <Node pos="s" depth="0" NCoef="0" IVar="13" Cut="8.5632032155990601e-01" cType="1" res="5.0000000000000000e-01" rms="5.0000000000000000e-01" purity="5.0000000000000000e-01" nType="0">
        <Node pos="l" depth="1" NCoef="0" IVar="0" Cut="9.0000000000000000e+00" cType="1" res="-4.0162630379199982e-02" rms="2.0479662716388702e-01" purity="7.5254619121551514e-02" nType="0">
          <Node pos="l" depth="2" NCoef="0" IVar="-1" Cut="0.0000000000000000e+00" cType="1" res="1.9987369887530804e-03" rms="2.4323971569538116e-01" purity="1.3617199659347534e-01" nType="-99"/>
          <Node pos="r" depth="2" NCoef="0" IVar="-1" Cut="0.0000000000000000e+00" cType="1" res="-3.9381619542837143e-02" rms="1.7595571279525757e-01" purity="4.2848661541938782e-02" nType="-99"/>
        </Node>
        <Node pos="r" depth="1" NCoef="0" IVar="12" Cut="1.8085248470306396e+00" cType="1" res="6.9163715839385986e-01" rms="4.6181726455688477e-01" purity="6.9163715839385986e-01" nType="0">
          <Node pos="l" depth="2" NCoef="0" IVar="-1" Cut="0.0000000000000000e+00" cType="1" res="1.1526381596922874e-02" rms="2.5436434149742126e-01" purity="7.8057986497879028e-01" nType="-99"/>
          <Node pos="r" depth="2" NCoef="0" IVar="-1" Cut="0.0000000000000000e+00" cType="1" res="-8.5437139496207237e-03" rms="3.7830746173858643e-01" purity="2.6865416765213013e-01" nType="-99"/>
        </Node>
      </Node>
    </BinaryTree>
    <BinaryTree type="DecisionTree" boostWeight="1.0000000000000000e+00" itree="43">
      <Node pos="s" depth="0" NCoef="0" IVar="5" Cut="1.7159169539809227e-02" cType="1" res="5.0000000000000000e-01" rms="5.0000000000000000e-01" purity="5.0000000000000000e-01" nType="0">
        <Node pos="l" depth="1" NCoef="0" IVar="14" Cut="-7.8595513477921486e-03" cType="1" res="7.5233089923858643e-01" rms="4.3165856599807739e-01" purity="7.5233089923858643e-01" nType="0">
          <Node pos="l" depth="2" NCoef="0" IVar="-1" Cut="0.0000000000000000e+00" cType="1" res="-1.7850289121270180e-02" rms="3.2121387124061584e-01" purity="1.8219926953315735e-01" nType="-99"/>
          <Node pos="r" depth="2" NCoef="0" IVar="-1" Cut="0.0000000000000000e+00" cType="1" res="1.0908486321568489e-02" rms="2.6895752549171448e-01" purity="8.1619423627853394e-01" nType="-99"/>
        </Node>
        <Node pos="r" depth="1" NCoef="0" IVar="11" Cut="4.0278494358062744e-01" cType="1" res="1.3640540838241577e-01" rms="3.4321856498718262e-01" purity="1.3640540838241577e-01" nType="0">
          <Node pos="l" depth="2" NCoef="0" IVar="-1" Cut="0.0000000000000000e+00" cType="1" res="-2.4003151338547468e-03" rms="2.3584726452827454e-01" purity="1.3928236067295074e-01" nType="-99"/>
          <Node pos="r" depth="2" NCoef="0" IVar="-1" Cut="0.0000000000000000e+00" cType="1" res="-8.7406754493713379e-02" rms="2.2987453639507294e-01" purity="4.1425857692956924e-02" nType="-99"/>
        </Node>
      </Node>
    </BinaryTree>
    <BinaryTree type="DecisionTree" boostWeight="1.0000000000000000e+00" itree="44">
      <Node pos="s" depth="0" NCoef="0" IVar="10" Cut="1.7009176313877106e-01" cType="1" res="0.0000000000000000e+00" rms="0.0000000000000000e+00" purity="5.0000000000000000e-01" nType="0">
        <Node pos="l" depth="1" NCoef="0" IVar="12" Cut="1.8085269927978516e+00" cType="1" res="0.0000000000000000e+00" rms="0.0000000000000000e+00" purity="7.3339051008224487e-01" nType="0">
          <Node pos="l" depth="2" NCoef="0" IVar="-1" Cut="0.0000000000000000e+00" cType="1" res="1.0872447863221169e-02" rms="2.7011898159980774e-01" purity="7.7946394681930542e-01" nType="-99"/>
          <Node pos="r" depth="2" NCoef="0" IVar="-1" Cut="0.0000000000000000e+00" cType="1" res="-9.6408482640981674e-03" rms="4.2397430539131165e-01" purity="3.5825499892234802e-01" nType="-99"/>
        </Node>
        <Node pos="r" depth="1" NCoef="0" IVar="8" Cut="6.2047344446182251e-01" cType="1" res="2.6504828929901123e+00" rms="0.0000000000000000e+00" purity="7.9660974442958832e-02" nType="0">
          <Node pos="l" depth="2" NCoef="0" IVar="-1" Cut="0.0000000000000000e+00" cType="1" res="-1.8599443137645721e-02" rms="1.7897847294807434e-01" purity="5.8068174868822098e-02" nType="-99"/>
          <Node pos="r" depth="2" NCoef="0" IVar="-1" Cut="0.0000000000000000e+00" cType="1" res="8.4817502647638321e-03" rms="3.3610174059867859e-01" purity="7.1242403984069824e-01" nType="-99"/>
        </Node>
      </Node>
    </BinaryTree>
    <BinaryTree type="DecisionTree" boostWeight="1.0000000000000000e+00" itree="45">
      <Node pos="s" depth="0" NCoef="0" IVar="7" Cut="3.6113113164901733e-01" cType="1" res="0.0000000000000000e+00" rms="2.2539276562500000e+05" purity="5.0000000000000000e-01" nType="0">
        <Node pos="l" depth="1" NCoef="0" IVar="14" Cut="1.0366938076913357e-02" cType="1" res="0.0000000000000000e+00" rms="2.2035158053768100e-06" purity="7.7443158626556396e-01" nType="0">
          <Node pos="l" depth="2" NCoef="0" IVar="-1" Cut="0.0000000000000000e+00" cType="1" res="1.0887867771089077e-02" rms="2.6790744066238403e-01" purity="8.3124470710754395e-01" nType="-99"/>
          <Node pos="r" depth="2" NCoef="0" IVar="-1" Cut="0.0000000000000000e+00" cType="1" res="-2.4988127872347832e-02" rms="2.9050728678703308e-01" purity="1.3386584818363190e-01" nType="-99"/>
        </Node>
        <Node pos="r" depth="1" NCoef="0" IVar="5" Cut="1.3723776675760746e-02" cType="1" res="0.0000000000000000e+00" rms="2.0149291231064126e-05" purity="1.8718703091144562e-01" nType="0">
          <Node pos="l" depth="2" NCoef="0" IVar="-1" Cut="0.0000000000000000e+00" cType="1" res="8.9674210175871849e-03" rms="2.9835590720176697e-01" purity="7.4899083375930786e-01" nType="-99"/>
          <Node pos="r" depth="2" NCoef="0" IVar="-1" Cut="0.0000000000000000e+00" cType="1" res="-7.1675372309982777e-03" rms="2.3492012917995453e-01" purity="1.1621805280447006e-01" nType="-99"/>
        </Node>
      </Node>
    </BinaryTree>
    <BinaryTree type="DecisionTree" boostWeight="1.0000000000000000e+00" itree="46">
      <Node pos="s" depth="0" NCoef="0" IVar="13" Cut="8.5632032155990601e-01" cType="1" res="-9.3582698923455609e-08" rms="0.0000000000000000e+00" purity="5.0000000000000000e-01" nType="0">
        <Node pos="l" depth="1" NCoef="0" IVar="0" Cut="1.0000000000000000e+01" cType="1" res="-3.6111500114202499e-02" rms="2.0251035690307617e-01" purity="7.5254619121551514e-02" nType="0">
          <Node pos="l" depth="2" NCoef="0" IVar="-1" Cut="0.0000000000000000e+00" cType="1" res="-7.4494112050160766e-04" rms="2.2898082435131073e-01" purity="1.1807285249233246e-01" nType="-99"/>
          <Node pos="r" depth="2" NCoef="0" IVar="-1" Cut="0.0000000000000000e+00" cType="1" res="-4.4757153838872910e-02" rms="1.6917198896408081e-01" purity="3.6251980811357498e-02" nType="-99"/>
        </Node>
        <Node pos="r" depth="1" NCoef="0" IVar="14" Cut="-8.7703755125403404e-03" cType="1" res="1.6463770692210049e-22" rms="0.0000000000000000e+00" purity="6.9163715839385986e-01" nType="0">
          <Node pos="l" depth="2" NCoef="0" IVar="-1" Cut="0.0000000000000000e+00" cType="1" res="-2.3555569350719452e-02" rms="2.8000009059906006e-01" purity="1.2528502941131592e-01" nType="-99"/>
          <Node pos="r" depth="2" NCoef="0" IVar="-1" Cut="0.0000000000000000e+00" cType="1" res="1.0772373527288437e-02" rms="2.7592006325721741e-01" purity="7.7644526958465576e-01" nType="-99"/>
        </Node>
      </Node>
    </BinaryTree>
    <BinaryTree type="DecisionTree" boostWeight="1.0000000000000000e+00" itree="47">
      <Node pos="s" depth="0" NCoef="0" IVar="7" Cut="3.6258926987648010e-01" cType="1" res="5.0000000000000000e-01" rms="5.0000000000000000e-01" purity="5.0000000000000000e-01" nType="0">
        <Node pos="l" depth="1" NCoef="0" IVar="14" Cut="1.2995390221476555e-02" cType="1" res="7.7303230762481689e-01" rms="4.1887155175209045e-01" purity="7.7303224802017212e-01" nType="0">
          <Node pos="l" depth="2" NCoef="0" IVar="-1" Cut="0.0000000000000000e+00" cType="1" res="1.0647471994161606e-02" rms="2.6867890357971191e-01" purity="8.2667708396911621e-01" nType="-99"/>
          <Node pos="r" depth="2" NCoef="0" IVar="-1" Cut="0.0000000000000000e+00" cType="1" res="-3.4846916794776917e-02" rms="2.6229327917098999e-01" purity="9.2964902520179749e-02" nType="-99"/>
        </Node>
        <Node pos="r" depth="1" NCoef="0" IVar="5" Cut="1.2665309011936188e-02" cType="1" res="1.8609444797039032e-01" rms="3.8918286561965942e-01" purity="1.8609444797039032e-01" nType="0">
          <Node pos="l" depth="2" NCoef="0" IVar="-1" Cut="0.0000000000000000e+00" cType="1" res="1.0463636368513107e-02" rms="2.7153068780899048e-01" purity="8.1596326828002930e-01" nType="-99"/>
          <Node pos="r" depth="2" NCoef="0" IVar="-1" Cut="0.0000000000000000e+00" cType="1" res="-4.7890492714941502e-03" rms="2.3879018425941467e-01" purity="1.3738505542278290e-01" nType="-99"/>
        </Node>
      </Node>
    </BinaryTree>
    <BinaryTree type="DecisionTree" boostWeight="1.0000000000000000e+00" itree="48">
      <Node pos="s" depth="0" NCoef="0" IVar="7" Cut="2.5954782962799072e-01" cType="1" res="5.0000000000000000e-01" rms="5.0000000000000000e-01" purity="5.0000000000000000e-01" nType="0">
        <Node pos="l" depth="1" NCoef="0" IVar="3" Cut="1.0787768363952637e+01" cType="1" res="8.7250524759292603e-01" rms="3.3352637290954590e-01" purity="8.7250524759292603e-01" nType="0">
          <Node pos="l" depth="2" NCoef="0" IVar="-1" Cut="0.0000000000000000e+00" cType="1" res="1.1347242631018162e-02" rms="2.2499790787696838e-01" purity="9.1872549057006836e-01" nType="-99"/>
          <Node pos="r" depth="2" NCoef="0" IVar="-1" Cut="0.0000000000000000e+00" cType="1" res="-8.5064582526683807e-03" rms="3.4389108419418335e-01" purity="2.7416402101516724e-01" nType="-99"/>
        </Node>
        <Node pos="r" depth="1" NCoef="0" IVar="1" Cut="1.0000000000000000e+01" cType="1" res="2.5737997144460678e-02" rms="2.1584935486316681e-01" purity="2.8394412994384766e-01" nType="0">
          <Node pos="l" depth="2" NCoef="0" IVar="-1" Cut="0.0000000000000000e+00" cType="1" res="-7.1157542988657951e-03" rms="2.2603642940521240e-01" purity="1.2135878950357437e-01" nType="-99"/>
          <Node pos="r" depth="2" NCoef="0" IVar="-1" Cut="0.0000000000000000e+00" cType="1" res="7.9574296250939369e-03" rms="3.3079233765602112e-01" purity="5.9158021211624146e-01" nType="-99"/>
        </Node>
      </Node>
    </BinaryTree>
    <BinaryTree type="DecisionTree" boostWeight="1.0000000000000000e+00" itree="49">
      <Node pos="s" depth="0" NCoef="0" IVar="7" Cut="3.9369612932205200e-01" cType="1" res="5.0000000000000000e-01" rms="5.0000000000000000e-01" purity="5.0000000000000000e-01" nType="0">
        <Node pos="l" depth="1" NCoef="0" IVar="14" Cut="-1.1023513972759247e-02" cType="1" res="7.4318552017211914e-01" rms="4.3687617778778076e-01" purity="7.4318552017211914e-01" nType="0">
          <Node pos="l" depth="2" NCoef="0" IVar="-1" Cut="0.0000000000000000e+00" cType="1" res="-2.5586221367120743e-02" rms="2.8149178624153137e-01" purity="1.1966962367296219e-01" nType="-99"/>
          <Node pos="r" depth="2" NCoef="0" IVar="-1" Cut="0.0000000000000000e+00" cType="1" res="1.0492147877812386e-02" rms="2.6905715465545654e-01" purity="8.0673086643218994e-01" nType="-99"/>
        </Node>
        <Node pos="r" depth="1" NCoef="0" IVar="5" Cut="1.2488897889852524e-02" cType="1" res="1.6249923408031464e-01" rms="3.6890816688537598e-01" purity="1.6249923408031464e-01" nType="0">
          <Node pos="l" depth="2" NCoef="0" IVar="-1" Cut="0.0000000000000000e+00" cType="1" res="1.0508465580642223e-02" rms="2.6718902587890625e-01" purity="8.2356870174407959e-01" nType="-99"/>
          <Node pos="r" depth="2" NCoef="0" IVar="-1" Cut="0.0000000000000000e+00" cType="1" res="-7.0166075602173805e-03" rms="2.2907952964305878e-01" purity="1.2151161581277847e-01" nType="-99"/>
        </Node>
      </Node>
    </BinaryTree>
    <BinaryTree type="DecisionTree" boostWeight="1.0000000000000000e+00" itree="50">
      <Node pos="s" depth="0" NCoef="0" IVar="13" Cut="8.5632032155990601e-01" cType="1" res="5.0000000000000000e-01" rms="5.0000000000000000e-01" purity="5.0000000000000000e-01" nType="0">
        <Node pos="l" depth="1" NCoef="0" IVar="7" Cut="2.0689018070697784e-01" cType="1" res="7.5254611670970917e-02" rms="2.6380175352096558e-01" purity="7.5254619121551514e-02" nType="0">
          <Node pos="l" depth="2" NCoef="0" IVar="-1" Cut="0.0000000000000000e+00" cType="1" res="7.1826796047389507e-03" rms="4.0159657597541809e-01" purity="5.2468609809875488e-01" nType="-99"/>
          <Node pos="r" depth="2" NCoef="0" IVar="-1" Cut="0.0000000000000000e+00" cType="1" res="-2.5572311133146286e-02" rms="1.7819918692111969e-01" purity="4.8022419214248657e-02" nType="-99"/>
        </Node>
        <Node pos="r" depth="1" NCoef="0" IVar="12" Cut="1.8359256982803345e+00" cType="1" res="6.9163715839385986e-01" rms="4.6181726455688477e-01" purity="6.9163715839385986e-01" nType="0">
          <Node pos="l" depth="2" NCoef="0" IVar="-1" Cut="0.0000000000000000e+00" cType="1" res="1.0834255255758762e-02" rms="2.4855798482894897e-01" purity="7.7916169166564941e-01" nType="-99"/>
          <Node pos="r" depth="2" NCoef="0" IVar="-1" Cut="0.0000000000000000e+00" cType="1" res="-8.3943465724587440e-03" rms="3.7286922335624695e-01" purity="2.6445394754409790e-01" nType="-99"/>
        </Node>
      </Node>
    </BinaryTree>
    <BinaryTree type="DecisionTree" boostWeight="1.0000000000000000e+00" itree="51">
      <Node pos="s" depth="0" NCoef="0" IVar="12" Cut="9.0423071384429932e-01" cType="1" res="0.0000000000000000e+00" rms="0.0000000000000000e+00" purity="5.0000000000000000e-01" nType="0">
        <Node pos="l" depth="1" NCoef="0" IVar="7" Cut="2.0640680193901062e-01" cType="1" res="0.0000000000000000e+00" rms="0.0000000000000000e+00" purity="9.1097444295883179e-02" nType="0">
          <Node pos="l" depth="2" NCoef="0" IVar="-1" Cut="0.0000000000000000e+00" cType="1" res="5.6965956464409828e-03" rms="3.6845389008522034e-01" purity="5.8971709012985229e-01" nType="-99"/>
          <Node pos="r" depth="2" NCoef="0" IVar="-1" Cut="0.0000000000000000e+00" cType="1" res="-2.7420310303568840e-02" rms="1.8113954365253448e-01" purity="5.9477966278791428e-02" nType="-99"/>
        </Node>
        <Node pos="r" depth="1" NCoef="0" IVar="12" Cut="1.6588121652603149e+00" cType="1" res="0.0000000000000000e+00" rms="0.0000000000000000e+00" purity="6.4820814132690430e-01" nType="0">
          <Node pos="l" depth="2" NCoef="0" IVar="-1" Cut="0.0000000000000000e+00" cType="1" res="1.1395767331123352e-02" rms="2.3840874433517456e-01" purity="7.9150253534317017e-01" nType="-99"/>
          <Node pos="r" depth="2" NCoef="0" IVar="-1" Cut="0.0000000000000000e+00" cType="1" res="-6.5031563863158226e-03" rms="3.3226716518402100e-01" purity="2.2697314620018005e-01" nType="-99"/>
        </Node>
      </Node>
    </BinaryTree>
    <BinaryTree type="DecisionTree" boostWeight="1.0000000000000000e+00" itree="52">
      <Node pos="s" depth="0" NCoef="0" IVar="5" Cut="1.7398823052644730e-02" cType="1" res="0.0000000000000000e+00" rms="0.0000000000000000e+00" purity="5.0000000000000000e-01" nType="0">
        <Node pos="l" depth="1" NCoef="0" IVar="14" Cut="7.8858854249119759e-03" cType="1" res="1.3351748403200000e+11" rms="0.0000000000000000e+00" purity="7.4131470918655396e-01" nType="0">
          <Node pos="l" depth="2" NCoef="0" IVar="-1" Cut="0.0000000000000000e+00" cType="1" res="1.0164991952478886e-02" rms="2.6526629924774170e-01" purity="8.0915451049804688e-01" nType="-99"/>
          <Node pos="r" depth="2" NCoef="0" IVar="-1" Cut="0.0000000000000000e+00" cType="1" res="-1.7981739714741707e-02" rms="2.9701101779937744e-01" purity="1.6617800295352936e-01" nType="-99"/>
        </Node>
        <Node pos="r" depth="1" NCoef="0" IVar="11" Cut="4.0278494358062744e-01" cType="1" res="2.4932297932800000e+11" rms="0.0000000000000000e+00" purity="1.2448545545339584e-01" nType="0">
          <Node pos="l" depth="2" NCoef="0" IVar="-1" Cut="0.0000000000000000e+00" cType="1" res="-2.4272045120596886e-03" rms="2.2495745122432709e-01" purity="1.2724775075912476e-01" nType="-99"/>
          <Node pos="r" depth="2" NCoef="0" IVar="-1" Cut="0.0000000000000000e+00" cType="1" res="-9.0917870402336121e-02" rms="2.1432740986347198e-01" purity="3.1557757407426834e-02" nType="-99"/>
        </Node>
      </Node>
    </BinaryTree>
    <BinaryTree type="DecisionTree" boostWeight="1.0000000000000000e+00" itree="53">
      <Node pos="s" depth="0" NCoef="0" IVar="10" Cut="1.7009176313877106e-01" cType="1" res="2.0082497940165922e-06" rms="0.0000000000000000e+00" purity="5.0000000000000000e-01" nType="0">
        <Node pos="l" depth="1" NCoef="0" IVar="11" Cut="4.8334193229675293e-01" cType="1" res="0.0000000000000000e+00" rms="0.0000000000000000e+00" purity="7.3339051008224487e-01" nType="0">
          <Node pos="l" depth="2" NCoef="0" IVar="-1" Cut="0.0000000000000000e+00" cType="1" res="9.5542622730135918e-03" rms="2.8128606081008911e-01" purity="7.5223129987716675e-01" nType="-99"/>
          <Node pos="r" depth="2" NCoef="0" IVar="-1" Cut="0.0000000000000000e+00" cType="1" res="-7.7186651527881622e-02" rms="3.2140809297561646e-01" purity="1.0146747529506683e-01" nType="-99"/>
        </Node>
        <Node pos="r" depth="1" NCoef="0" IVar="1" Cut="9.0000000000000000e+00" cType="1" res="-2.5586767587810755e-03" rms="1.6260604560375214e-01" purity="7.9660974442958832e-02" nType="0">
          <Node pos="l" depth="2" NCoef="0" IVar="-1" Cut="0.0000000000000000e+00" cType="1" res="-3.6335680633783340e-02" rms="1.3498359918594360e-01" purity="2.9109958559274673e-02" nType="-99"/>
          <Node pos="r" depth="2" NCoef="0" IVar="-1" Cut="0.0000000000000000e+00" cType="1" res="4.4354358687996864e-03" rms="2.5091332197189331e-01" purity="1.8013364076614380e-01" nType="-99"/>
        </Node>
      </Node>
    </BinaryTree>
    <BinaryTree type="DecisionTree" boostWeight="1.0000000000000000e+00" itree="54">
      <Node pos="s" depth="0" NCoef="0" IVar="7" Cut="4.2042857408523560e-01" cType="1" res="5.0000000000000000e-01" rms="5.0000000000000000e-01" purity="5.0000000000000000e-01" nType="0">
        <Node pos="l" depth="1" NCoef="0" IVar="14" Cut="-1.1023513972759247e-02" cType="1" res="7.1806281805038452e-01" rms="4.4994288682937622e-01" purity="7.1806281805038452e-01" nType="0">
          <Node pos="l" depth="2" NCoef="0" IVar="-1" Cut="0.0000000000000000e+00" cType="1" res="-2.4900680407881737e-02" rms="2.6549446582794189e-01" purity="1.0630938410758972e-01" nType="-99"/>
          <Node pos="r" depth="2" NCoef="0" IVar="-1" Cut="0.0000000000000000e+00" cType="1" res="1.0115118697285652e-02" rms="2.6858425140380859e-01" purity="7.8748214244842529e-01" nType="-99"/>
        </Node>
        <Node pos="r" depth="1" NCoef="0" IVar="5" Cut="1.2488897889852524e-02" cType="1" res="1.4160345494747162e-01" rms="3.4864297509193420e-01" purity="1.4160345494747162e-01" nType="0">
          <Node pos="l" depth="2" NCoef="0" IVar="-1" Cut="0.0000000000000000e+00" cType="1" res="9.8494589328765869e-03" rms="2.6624259352684021e-01" purity="8.1444418430328369e-01" nType="-99"/>
          <Node pos="r" depth="2" NCoef="0" IVar="-1" Cut="0.0000000000000000e+00" cType="1" res="-8.7221227586269379e-03" rms="2.1454995870590210e-01" purity="1.0552018135786057e-01" nType="-99"/>
        </Node>
      </Node>
    </BinaryTree>
    <BinaryTree type="DecisionTree" boostWeight="1.0000000000000000e+00" itree="55">
      <Node pos="s" depth="0" NCoef="0" IVar="13" Cut="8.5632032155990601e-01" cType="1" res="5.0000000000000000e-01" rms="5.0000000000000000e-01" purity="5.0000000000000000e-01" nType="0">
        <Node pos="l" depth="1" NCoef="0" IVar="0" Cut="9.0000000000000000e+00" cType="1" res="-2.7568027377128601e-02" rms="1.9832244515419006e-01" purity="7.5254619121551514e-02" nType="0">
          <Node pos="l" depth="2" NCoef="0" IVar="-1" Cut="0.0000000000000000e+00" cType="1" res="4.2557958513498306e-03" rms="2.3327359557151794e-01" purity="1.3617199659347534e-01" nType="-99"/>
          <Node pos="r" depth="2" NCoef="0" IVar="-1" Cut="0.0000000000000000e+00" cType="1" res="-3.3232543617486954e-02" rms="1.7283308506011963e-01" purity="4.2848661541938782e-02" nType="-99"/>
        </Node>
        <Node pos="r" depth="1" NCoef="0" IVar="14" Cut="1.0221213102340698e-02" cType="1" res="6.9163715839385986e-01" rms="4.6181726455688477e-01" purity="6.9163715839385986e-01" nType="0">
          <Node pos="l" depth="2" NCoef="0" IVar="-1" Cut="0.0000000000000000e+00" cType="1" res="1.0002289898693562e-02" rms="2.7095368504524231e-01" purity="7.7495646476745605e-01" nType="-99"/>
          <Node pos="r" depth="2" NCoef="0" IVar="-1" Cut="0.0000000000000000e+00" cType="1" res="-2.8943777084350586e-02" rms="2.5363838672637939e-01" purity="9.0683981776237488e-02" nType="-99"/>
        </Node>
      </Node>
    </BinaryTree>
    <BinaryTree type="DecisionTree" boostWeight="1.0000000000000000e+00" itree="56">
      <Node pos="s" depth="0" NCoef="0" IVar="12" Cut="9.0423071384429932e-01" cType="1" res="5.0000000000000000e-01" rms="5.0000000000000000e-01" purity="5.0000000000000000e-01" nType="0">
        <Node pos="l" depth="1" NCoef="0" IVar="8" Cut="8.3154296875000000e-01" cType="1" res="9.1097444295883179e-02" rms="2.8774762153625488e-01" purity="9.1097444295883179e-02" nType="0">
          <Node pos="l" depth="2" NCoef="0" IVar="-1" Cut="0.0000000000000000e+00" cType="1" res="-2.5526100769639015e-02" rms="1.7427131533622742e-01" purity="5.8270890265703201e-02" nType="-99"/>
          <Node pos="r" depth="2" NCoef="0" IVar="-1" Cut="0.0000000000000000e+00" cType="1" res="5.1806503906846046e-03" rms="3.6351126432418823e-01" purity="4.9140879511833191e-01" nType="-99"/>
        </Node>
        <Node pos="r" depth="1" NCoef="0" IVar="12" Cut="1.6588121652603149e+00" cType="1" res="6.4820814132690430e-01" rms="4.7752943634986877e-01" purity="6.4820814132690430e-01" nType="0">
          <Node pos="l" depth="2" NCoef="0" IVar="-1" Cut="0.0000000000000000e+00" cType="1" res="1.1045059189200401e-02" rms="2.3353147506713867e-01" purity="7.9150253534317017e-01" nType="-99"/>
          <Node pos="r" depth="2" NCoef="0" IVar="-1" Cut="0.0000000000000000e+00" cType="1" res="-6.0884542763233185e-03" rms="3.2879546284675598e-01" purity="2.2697314620018005e-01" nType="-99"/>
        </Node>
      </Node>
    </BinaryTree>
    <BinaryTree type="DecisionTree" boostWeight="1.0000000000000000e+00" itree="57">
      <Node pos="s" depth="0" NCoef="0" IVar="7" Cut="4.2042857408523560e-01" cType="1" res="5.0000000000000000e-01" rms="5.0000000000000000e-01" purity="5.0000000000000000e-01" nType="0">
        <Node pos="l" depth="1" NCoef="0" IVar="14" Cut="-1.1023513972759247e-02" cType="1" res="7.1806281805038452e-01" rms="4.4994288682937622e-01" purity="7.1806281805038452e-01" nType="0">
          <Node pos="l" depth="2" NCoef="0" IVar="-1" Cut="0.0000000000000000e+00" cType="1" res="-2.3252204060554504e-02" rms="2.6478493213653564e-01" purity="1.0630938410758972e-01" nType="-99"/>
          <Node pos="r" depth="2" NCoef="0" IVar="-1" Cut="0.0000000000000000e+00" cType="1" res="9.8959645256400108e-03" rms="2.6588487625122070e-01" purity="7.8748214244842529e-01" nType="-99"/>
        </Node>
        <Node pos="r" depth="1" NCoef="0" IVar="5" Cut="1.2488897889852524e-02" cType="1" res="1.4160345494747162e-01" rms="3.4864297509193420e-01" purity="1.4160345494747162e-01" nType="0">
          <Node pos="l" depth="2" NCoef="0" IVar="-1" Cut="0.0000000000000000e+00" cType="1" res="9.6199307590723038e-03" rms="2.6384219527244568e-01" purity="8.1444418430328369e-01" nType="-99"/>
          <Node pos="r" depth="2" NCoef="0" IVar="-1" Cut="0.0000000000000000e+00" cType="1" res="-7.7880178578197956e-03" rms="2.1294634044170380e-01" purity="1.0552018135786057e-01" nType="-99"/>
        </Node>
      </Node>
    </BinaryTree>
    <BinaryTree type="DecisionTree" boostWeight="1.0000000000000000e+00" itree="58">
      <Node pos="s" depth="0" NCoef="0" IVar="5" Cut="1.5034244395792484e-02" cType="1" res="5.0000000000000000e-01" rms="5.0000000000000000e-01" purity="5.0000000000000000e-01" nType="0">
        <Node pos="l" depth="1" NCoef="0" IVar="11" Cut="5.6260722875595093e-01" cType="1" res="8.4114849567413330e-01" rms="3.6553758382797241e-01" purity="8.4114843606948853e-01" nType="0">
          <Node pos="l" depth="2" NCoef="0" IVar="-1" Cut="0.0000000000000000e+00" cType="1" res="9.9519854411482811e-03" rms="2.3947191238403320e-01" purity="8.4820878505706787e-01" nType="-99"/>
          <Node pos="r" depth="2" NCoef="0" IVar="-1" Cut="0.0000000000000000e+00" cType="1" res="-7.4678525328636169e-02" rms="4.0128940343856812e-01" purity="1.8024419248104095e-01" nType="-99"/>
        </Node>
        <Node pos="r" depth="1" NCoef="0" IVar="1" Cut="9.0000000000000000e+00" cType="1" res="2.3424766957759857e-02" rms="2.0632655918598175e-01" purity="2.5204694271087646e-01" nType="0">
          <Node pos="l" depth="2" NCoef="0" IVar="-1" Cut="0.0000000000000000e+00" cType="1" res="-2.4902740493416786e-02" rms="1.6315960884094238e-01" purity="4.8106510192155838e-02" nType="-99"/>
          <Node pos="r" depth="2" NCoef="0" IVar="-1" Cut="0.0000000000000000e+00" cType="1" res="6.5470924600958824e-03" rms="3.1045249104499817e-01" purity="4.2886519432067871e-01" nType="-99"/>
        </Node>
      </Node>
    </BinaryTree>
    <BinaryTree type="DecisionTree" boostWeight="1.0000000000000000e+00" itree="59">
      <Node pos="s" depth="0" NCoef="0" IVar="13" Cut="8.5632032155990601e-01" cType="1" res="5.0000000000000000e-01" rms="5.0000000000000000e-01" purity="5.0000000000000000e-01" nType="0">
        <Node pos="l" depth="1" NCoef="0" IVar="0" Cut="9.0000000000000000e+00" cType="1" res="-2.3653943091630936e-02" rms="1.9637483358383179e-01" purity="7.5254619121551514e-02" nType="0">
          <Node pos="l" depth="2" NCoef="0" IVar="-1" Cut="0.0000000000000000e+00" cType="1" res="4.8098987899720669e-03" rms="2.3040407896041870e-01" purity="1.3617199659347534e-01" nType="-99"/>
          <Node pos="r" depth="2" NCoef="0" IVar="-1" Cut="0.0000000000000000e+00" cType="1" res="-3.0848285183310509e-02" rms="1.7190489172935486e-01" purity="4.2848661541938782e-02" nType="-99"/>
        </Node>
        <Node pos="r" depth="1" NCoef="0" IVar="12" Cut="1.9181282520294189e+00" cType="1" res="6.9163715839385986e-01" rms="4.6181726455688477e-01" purity="6.9163715839385986e-01" nType="0">
          <Node pos="l" depth="2" NCoef="0" IVar="-1" Cut="0.0000000000000000e+00" cType="1" res="1.0175528004765511e-02" rms="2.4206636846065521e-01" purity="7.7487689256668091e-01" nType="-99"/>
          <Node pos="r" depth="2" NCoef="0" IVar="-1" Cut="0.0000000000000000e+00" cType="1" res="-8.7122730910778046e-03" rms="3.6503803730010986e-01" purity="2.5392657518386841e-01" nType="-99"/>
        </Node>
      </Node>
    </BinaryTree>
    <BinaryTree type="DecisionTree" boostWeight="1.0000000000000000e+00" itree="60">
      <Node pos="s" depth="0" NCoef="0" IVar="7" Cut="2.5954782962799072e-01" cType="1" res="5.0000000000000000e-01" rms="5.0000000000000000e-01" purity="5.0000000000000000e-01" nType="0">
        <Node pos="l" depth="1" NCoef="0" IVar="11" Cut="6.1839509010314941e-01" cType="1" res="4.2675159056670964e-04" rms="3.2493594360351562e+02" purity="8.7250524759292603e-01" nType="0">
          <Node pos="l" depth="2" NCoef="0" IVar="-1" Cut="0.0000000000000000e+00" cType="1" res="1.0136598721146584e-02" rms="2.2737541794776917e-01" purity="8.7860167026519775e-01" nType="-99"/>
          <Node pos="r" depth="2" NCoef="0" IVar="-1" Cut="0.0000000000000000e+00" cType="1" res="-9.0488627552986145e-02" rms="3.7475526332855225e-01" purity="1.4586108922958374e-01" nType="-99"/>
        </Node>
        <Node pos="r" depth="1" NCoef="0" IVar="1" Cut="1.0000000000000000e+01" cType="1" res="2.5531072169542313e-02" rms="2.0603451132774353e-01" purity="2.8394412994384766e-01" nType="0">
          <Node pos="l" depth="2" NCoef="0" IVar="-1" Cut="0.0000000000000000e+00" cType="1" res="-4.8526409082114697e-03" rms="2.1832714974880219e-01" purity="1.2135878950357437e-01" nType="-99"/>
          <Node pos="r" depth="2" NCoef="0" IVar="-1" Cut="0.0000000000000000e+00" cType="1" res="7.2002662345767021e-03" rms="3.1665587425231934e-01" purity="5.9158021211624146e-01" nType="-99"/>
        </Node>
      </Node>
    </BinaryTree>
    <BinaryTree type="DecisionTree" boostWeight="1.0000000000000000e+00" itree="61">
      <Node pos="s" depth="0" NCoef="0" IVar="7" Cut="4.2042857408523560e-01" cType="1" res="0.0000000000000000e+00" rms="0.0000000000000000e+00" purity="5.0000000000000000e-01" nType="0">
