<?xml version="1.0"?>
<MethodSetup Method="BDT::BDT">
  <GeneralInfo>
    <Info name="TMVA Release" value="4.2.1 [262657]"/>
    <Info name="ROOT Release" value="6.06/01 [394753]"/>
    <Info name="Creator" value="ochando"/>
    <Info name="Date" value="Mon Nov  6 11:32:19 2017"/>
    <Info name="Host" value="Linux vocms0301.cern.ch 2.6.32-642.4.2.el6.x86_64 #1 SMP Wed Aug 24 09:19:54 CEST 2016 x86_64 x86_64 x86_64 GNU/Linux"/>
    <Info name="Dir" value="/grid_mnt/vol__vol_U__u/llr/cms/ochando/TMVA/EID"/>
    <Info name="Training events" value="228731"/>
    <Info name="TrainingTime" value="1.94333255e+03"/>
    <Info name="AnalysisType" value="Classification"/>
  </GeneralInfo>
  <Options>
    <Option name="V" modified="Yes">False</Option>
    <Option name="VerbosityLevel" modified="No">Default</Option>
    <Option name="VarTransform" modified="No">None</Option>
    <Option name="H" modified="Yes">False</Option>
    <Option name="CreateMVAPdfs" modified="No">False</Option>
    <Option name="IgnoreNegWeightsInTraining" modified="No">False</Option>
    <Option name="NTrees" modified="Yes">2000</Option>
    <Option name="MaxDepth" modified="Yes">2</Option>
    <Option name="MinNodeSize" modified="No">0.0437193.2</Option>
    <Option name="nCuts" modified="Yes">2000</Option>
    <Option name="BoostType" modified="Yes">Grad</Option>
    <Option name="AdaBoostR2Loss" modified="No">quadratic</Option>
    <Option name="UseBaggedBoost" modified="No">False</Option>
    <Option name="Shrinkage" modified="Yes">1.000000e-01</Option>
    <Option name="AdaBoostBeta" modified="No">5.000000e-01</Option>
    <Option name="UseRandomisedTrees" modified="No">False</Option>
    <Option name="UseNvars" modified="Yes">4</Option>
    <Option name="UsePoissonNvars" modified="No">True</Option>
    <Option name="BaggedSampleFraction" modified="No">6.000000e-01</Option>
    <Option name="UseYesNoLeaf" modified="No">True</Option>
    <Option name="NegWeightTreatment" modified="No">ignorenegweightsintraining</Option>
    <Option name="Css" modified="No">1.000000e+00</Option>
    <Option name="Cts_sb" modified="No">1.000000e+00</Option>
    <Option name="Ctb_ss" modified="No">1.000000e+00</Option>
    <Option name="Cbb" modified="No">1.000000e+00</Option>
    <Option name="NodePurityLimit" modified="No">5.000000e-01</Option>
    <Option name="SeparationType" modified="No">giniindex</Option>
    <Option name="DoBoostMonitor" modified="No">False</Option>
    <Option name="UseFisherCuts" modified="No">False</Option>
    <Option name="MinLinCorrForFisher" modified="No">8.000000e-01</Option>
    <Option name="UseExclusiveVars" modified="No">False</Option>
    <Option name="DoPreselection" modified="No">False</Option>
    <Option name="SigToBkgFraction" modified="No">1.000000e+00</Option>
    <Option name="PruneMethod" modified="Yes">costcomplexity</Option>
    <Option name="PruneStrength" modified="Yes">5.000000e+00</Option>
    <Option name="PruningValFraction" modified="No">5.000000e-01</Option>
    <Option name="nEventsMin" modified="Yes">100</Option>
    <Option name="UseBaggedGrad" modified="Yes">False</Option>
    <Option name="GradBaggingFraction" modified="No">6.000000e-01</Option>
    <Option name="UseNTrainEvents" modified="No">0</Option>
    <Option name="NNodesMax" modified="Yes">5</Option>
  </Options>
  <Variables NVar="30">
    <Variable VarIndex="0" Expression="ele_kfhits" Label="ele_kfhits" Title="ele_kfhits" Unit="" Internal="ele_kfhits" Type="I" Min="-1.00000000e+00" Max="1.30000000e+01"/>
    <Variable VarIndex="1" Expression="ele_gsfhits" Label="ele_gsfhits" Title="ele_gsfhits" Unit="" Internal="ele_gsfhits" Type="I" Min="5.00000000e+00" Max="1.30000000e+01"/>
    <Variable VarIndex="2" Expression="ele_kfchi2" Label="ele_kfchi2" Title="ele_kfchi2" Unit="" Internal="ele_kfchi2" Type="F" Min="3.86262313e-02" Max="3.50522539e+04"/>
    <Variable VarIndex="3" Expression="ele_gsfchi2" Label="ele_gsfchi2" Title="ele_gsfchi2" Unit="" Internal="ele_gsfchi2" Type="F" Min="-1.00000000e+00" Max="1.07376122e+02"/>
    <Variable VarIndex="4" Expression="ele_fbrem" Label="ele_fbrem" Title="ele_fbrem" Unit="" Internal="ele_fbrem" Type="F" Min="-9.99948502e-01" Max="9.99258280e-01"/>
    <Variable VarIndex="5" Expression="ele_eelepout" Label="ele_eelepout" Title="ele_eelepout" Unit="" Internal="ele_eelepout" Type="F" Min="3.16176665e-05" Max="1.28238785e+02"/>
    <Variable VarIndex="6" Expression="ele_deltaetaele" Label="ele_deltaetaele" Title="ele_deltaetaele" Unit="" Internal="ele_deltaetaele" Type="F" Min="-6.30695343e-01" Max="5.79158545e-01"/>
    <Variable VarIndex="7" Expression="ele_deltaphiele" Label="ele_deltaphiele" Title="ele_deltaphiele" Unit="" Internal="ele_deltaphiele" Type="F" Min="-4.82388973e-01" Max="4.45967674e-01"/>
    <Variable VarIndex="8" Expression="ele_sigmauu" Label="ele_sigmauu" Title="ele_sigmauu" Unit="" Internal="ele_sigmauu" Type="F" Min="1.31896228e-01" Max="2.52021766e+00"/>
    <Variable VarIndex="9" Expression="ele_sigmavv" Label="ele_sigmavv" Title="ele_sigmavv" Unit="" Internal="ele_sigmavv" Type="F" Min="1.28536984e-01" Max="2.40327477e+00"/>
    <Variable VarIndex="10" Expression="ele_hgc_eigenvalues1" Label="ele_hgc_eigenvalues1" Title="ele_hgc_eigenvalues1" Unit="" Internal="ele_hgc_eigenvalues1" Type="F" Min="6.79086089e-01" Max="9.98637795e-01"/>
    <Variable VarIndex="11" Expression="ele_hgc_eigenvalues2" Label="ele_hgc_eigenvalues2" Title="ele_hgc_eigenvalues2" Unit="" Internal="ele_hgc_eigenvalues2" Type="F" Min="9.13964759e-04" Max="2.69707590e-01"/>
    <Variable VarIndex="12" Expression="ele_hgc_eigenvalues3" Label="ele_hgc_eigenvalues3" Title="ele_hgc_eigenvalues3" Unit="" Internal="ele_hgc_eigenvalues3" Type="F" Min="2.72359117e-04" Max="1.10646769e-01"/>
    <Variable VarIndex="13" Expression="ele_hgc_sigmas1" Label="ele_hgc_sigmas1" Title="ele_hgc_sigmas1" Unit="" Internal="ele_hgc_sigmas1" Type="F" Min="1.22119263e-01" Max="5.71597958e+00"/>
    <Variable VarIndex="14" Expression="ele_hgc_sigmas2" Label="ele_hgc_sigmas2" Title="ele_hgc_sigmas2" Unit="" Internal="ele_hgc_sigmas2" Type="F" Min="1.71697423e-01" Max="5.76112795e+00"/>
    <Variable VarIndex="15" Expression="ele_hgc_sigmas3" Label="ele_hgc_sigmas3" Title="ele_hgc_sigmas3" Unit="" Internal="ele_hgc_sigmas3" Type="F" Min="7.35265851e-01" Max="1.40372057e+01"/>
    <Variable VarIndex="16" Expression="ele_hgc_pcaAxisX" Label="ele_hgc_pcaAxisX" Title="ele_hgc_pcaAxisX" Unit="" Internal="ele_hgc_pcaAxisX" Type="F" Min="-5.61831951e-01" Max="5.47594905e-01"/>
    <Variable VarIndex="17" Expression="ele_hgc_pcaAxisY" Label="ele_hgc_pcaAxisY" Title="ele_hgc_pcaAxisY" Unit="" Internal="ele_hgc_pcaAxisY" Type="F" Min="-5.35121918e-01" Max="5.80676019e-01"/>
    <Variable VarIndex="18" Expression="ele_hgc_pcaAxisZ" Label="ele_hgc_pcaAxisZ" Title="ele_hgc_pcaAxisZ" Unit="" Internal="ele_hgc_pcaAxisZ" Type="F" Min="-9.99972224e-01" Max="9.99943495e-01"/>
    <Variable VarIndex="19" Expression="ele_hgc_pcaPosX" Label="ele_hgc_pcaPosX" Title="ele_hgc_pcaPosX" Unit="" Internal="ele_hgc_pcaPosX" Type="F" Min="-1.56532791e+02" Max="1.57779984e+02"/>
    <Variable VarIndex="20" Expression="ele_hgc_pcaPosY" Label="ele_hgc_pcaPosY" Title="ele_hgc_pcaPosY" Unit="" Internal="ele_hgc_pcaPosY" Type="F" Min="-1.58137909e+02" Max="1.57240738e+02"/>
    <Variable VarIndex="21" Expression="ele_hgc_pcaPosZ" Label="ele_hgc_pcaPosZ" Title="ele_hgc_pcaPosZ" Unit="" Internal="ele_hgc_pcaPosZ" Type="F" Min="-3.50189941e+02" Max="3.49888245e+02"/>
    <Variable VarIndex="22" Expression="ele_hgc_FHoverEE" Label="ele_hgc_FHoverEE" Title="ele_hgc_FHoverEE" Unit="" Internal="ele_hgc_FHoverEE" Type="F" Min="0.00000000e+00" Max="6.88581085e+01"/>
    <Variable VarIndex="23" Expression="ele_hgc_nlay" Label="ele_hgc_nlay" Title="ele_hgc_nlay" Unit="" Internal="ele_hgc_nlay" Type="F" Min="2.00000000e+01" Max="5.00000000e+01"/>
    <Variable VarIndex="24" Expression="ele_hgc_firstlay" Label="ele_hgc_firstlay" Title="ele_hgc_firstlay" Unit="" Internal="ele_hgc_firstlay" Type="F" Min="1.00000000e+00" Max="1.80000000e+01"/>
    <Variable VarIndex="25" Expression="ele_hgc_lastlay" Label="ele_hgc_lastlay" Title="ele_hgc_lastlay" Unit="" Internal="ele_hgc_lastlay" Type="F" Min="2.00000000e+01" Max="5.20000000e+01"/>
    <Variable VarIndex="26" Expression="ele_hgc_EE4overEE" Label="ele_hgc_EE4overEE" Title="ele_hgc_EE4overEE" Unit="" Internal="ele_hgc_EE4overEE" Type="F" Min="0.00000000e+00" Max="9.76602614e-01"/>
    <Variable VarIndex="27" Expression="ele_hgc_layEfrac10" Label="ele_hgc_layEfrac10" Title="ele_hgc_layEfrac10" Unit="" Internal="ele_hgc_layEfrac10" Type="F" Min="1.00000000e+00" Max="3.20000000e+01"/>
    <Variable VarIndex="28" Expression="ele_hgc_layEfrac90" Label="ele_hgc_layEfrac90" Title="ele_hgc_layEfrac90" Unit="" Internal="ele_hgc_layEfrac90" Type="F" Min="1.00000000e+00" Max="4.00000000e+01"/>
    <Variable VarIndex="29" Expression="ele_hgc_depthCompat" Label="ele_hgc_depthCompat" Title="ele_hgc_depthCompat" Unit="" Internal="ele_hgc_depthCompat" Type="F" Min="-9.97679806e+00" Max="1.99979763e+01"/>
  </Variables>
  <Spectators NSpec="6">
    <Spectator SpecIndex="0" Expression="ele_pT" Label="ele_pT" Title="F" Unit="" Internal="ele_pT" Type="F" Min="1.00000658e+01" Max="1.99998608e+01"/>
    <Spectator SpecIndex="1" Expression="ele_eta" Label="ele_eta" Title="F" Unit="" Internal="ele_eta" Type="F" Min="-2.99988675e+00" Max="2.99971676e+00"/>
    <Spectator SpecIndex="2" Expression="Nvtx" Label="Nvtx" Title="I" Unit="" Internal="Nvtx" Type="F" Min="9.50000000e+01" Max="2.02000000e+02"/>
    <Spectator SpecIndex="3" Expression="ele_ET" Label="ele_ET" Title="F" Unit="" Internal="ele_ET" Type="F" Min="7.44085088e-02" Max="8.06643600e+01"/>
    <Spectator SpecIndex="4" Expression="NPU" Label="NPU" Title="I" Unit="" Internal="NPU" Type="F" Min="1.42000000e+02" Max="2.68000000e+02"/>
    <Spectator SpecIndex="5" Expression="PU_density" Label="PU_density" Title="F" Unit="" Internal="PU_density" Type="F" Min="1.90120860e-04" Max="1.32518804e+00"/>
  </Spectators>
  <Classes NClass="2">
    <Class Name="Signal" Index="0"/>
    <Class Name="Background" Index="1"/>
  </Classes>
  <Transformations NTransformations="0"/>
  <MVAPdfs/>
  <Weights NTrees="2000" AnalysisType="1">
    <BinaryTree type="DecisionTree" boostWeight="1.0000000000000000e+00" itree="0">
      <Node pos="s" depth="0" NCoef="0" IVar="2" Cut="1.7555974960327148e+01" cType="1" res="5.0000000000000000e-01" rms="5.0000000000000000e-01" purity="5.0000000000000000e-01" nType="0">
        <Node pos="l" depth="1" NCoef="0" IVar="9" Cut="9.0333378314971924e-01" cType="1" res="7.4491071701049805e-01" rms="4.3661722540855408e-01" purity="7.4746668338775635e-01" nType="0">
          <Node pos="l" depth="2" NCoef="0" IVar="-1" Cut="0.0000000000000000e+00" cType="1" res="1.9409909844398499e-02" rms="3.7553700804710388e-01" purity="8.3010900020599365e-01" nType="-99"/>
          <Node pos="r" depth="2" NCoef="0" IVar="-1" Cut="0.0000000000000000e+00" cType="1" res="-2.2527385503053665e-02" rms="4.6441423892974854e-01" purity="3.1474497914314270e-01" nType="-99"/>
        </Node>
        <Node pos="r" depth="1" NCoef="0" IVar="5" Cut="2.0508263111114502e+00" cType="1" res="1.7840342223644257e-01" rms="3.8285198807716370e-01" purity="1.7840342223644257e-01" nType="0">
          <Node pos="l" depth="2" NCoef="0" IVar="-1" Cut="0.0000000000000000e+00" cType="1" res="-7.5715929269790649e-02" rms="3.2933163642883301e-01" purity="1.2378107756376266e-01" nType="-99"/>
          <Node pos="r" depth="2" NCoef="0" IVar="-1" Cut="0.0000000000000000e+00" cType="1" res="5.6135789491236210e-03" rms="4.9498382210731506e-01" purity="5.7064718008041382e-01" nType="-99"/>
        </Node>
      </Node>
    </BinaryTree>
    <BinaryTree type="DecisionTree" boostWeight="1.0000000000000000e+00" itree="1">
      <Node pos="s" depth="0" NCoef="0" IVar="2" Cut="1.7555974960327148e+01" cType="1" res="5.0000000000000000e-01" rms="5.0000000000000000e-01" purity="5.0000000000000000e-01" nType="0">
        <Node pos="l" depth="1" NCoef="0" IVar="29" Cut="3.7289309501647949e+00" cType="1" res="7.4521869421005249e-01" rms="4.3626794219017029e-01" purity="7.4746668338775635e-01" nType="0">
          <Node pos="l" depth="2" NCoef="0" IVar="-1" Cut="0.0000000000000000e+00" cType="1" res="1.8123513087630272e-02" rms="3.9073279500007629e-01" purity="8.0811667442321777e-01" nType="-99"/>
          <Node pos="r" depth="2" NCoef="0" IVar="-1" Cut="0.0000000000000000e+00" cType="1" res="-5.7850047945976257e-02" rms="3.7295621633529663e-01" purity="1.6956469416618347e-01" nType="-99"/>
        </Node>
        <Node pos="r" depth="1" NCoef="0" IVar="4" Cut="5.1278084516525269e-01" cType="1" res="1.7840342223644257e-01" rms="3.8285198807716370e-01" purity="1.7840342223644257e-01" nType="0">
          <Node pos="l" depth="2" NCoef="0" IVar="-1" Cut="0.0000000000000000e+00" cType="1" res="-2.6349588297307491e-03" rms="4.9408605694770813e-01" purity="4.4404590129852295e-01" nType="-99"/>
          <Node pos="r" depth="2" NCoef="0" IVar="-1" Cut="0.0000000000000000e+00" cType="1" res="-8.1086523830890656e-02" rms="2.9327586293220520e-01" purity="9.8937310278415680e-02" nType="-99"/>
        </Node>
      </Node>
    </BinaryTree>
    <BinaryTree type="DecisionTree" boostWeight="1.0000000000000000e+00" itree="2">
      <Node pos="s" depth="0" NCoef="0" IVar="2" Cut="1.7555974960327148e+01" cType="1" res="5.0000000000000000e-01" rms="5.0000000000000000e-01" purity="5.0000000000000000e-01" nType="0">
        <Node pos="l" depth="1" NCoef="0" IVar="2" Cut="5.1072869300842285e+00" cType="1" res="7.4521869421005249e-01" rms="4.3626794219017029e-01" purity="7.4746668338775635e-01" nType="0">
          <Node pos="l" depth="2" NCoef="0" IVar="-1" Cut="0.0000000000000000e+00" cType="1" res="1.8858734518289566e-02" rms="3.6319372057914734e-01" purity="8.3474922180175781e-01" nType="-99"/>
          <Node pos="r" depth="2" NCoef="0" IVar="-1" Cut="0.0000000000000000e+00" cType="1" res="-1.7536077648401260e-02" rms="4.7160193324089050e-01" purity="3.5153537988662720e-01" nType="-99"/>
        </Node>
        <Node pos="r" depth="1" NCoef="0" IVar="5" Cut="1.6022149324417114e+00" cType="1" res="1.7840342223644257e-01" rms="3.8285198807716370e-01" purity="1.7840342223644257e-01" nType="0">
          <Node pos="l" depth="2" NCoef="0" IVar="-1" Cut="0.0000000000000000e+00" cType="1" res="-6.7526623606681824e-02" rms="3.1006857752799988e-01" purity="1.1263519525527954e-01" nType="-99"/>
          <Node pos="r" depth="2" NCoef="0" IVar="-1" Cut="0.0000000000000000e+00" cType="1" res="2.9383939690887928e-03" rms="4.9376457929611206e-01" purity="5.0024634599685669e-01" nType="-99"/>
        </Node>
      </Node>
    </BinaryTree>
    <BinaryTree type="DecisionTree" boostWeight="1.0000000000000000e+00" itree="3">
      <Node pos="s" depth="0" NCoef="0" IVar="4" Cut="6.0860866308212280e-01" cType="1" res="5.0000000000000000e-01" rms="5.0000000000000000e-01" purity="5.0000000000000000e-01" nType="0">
        <Node pos="l" depth="1" NCoef="0" IVar="9" Cut="8.8969391584396362e-01" cType="1" res="7.1555155515670776e-01" rms="4.5115131139755249e-01" purity="7.1555155515670776e-01" nType="0">
          <Node pos="l" depth="2" NCoef="0" IVar="-1" Cut="0.0000000000000000e+00" cType="1" res="1.8257709220051765e-02" rms="3.7337732315063477e-01" purity="8.1097942590713501e-01" nType="-99"/>
          <Node pos="r" depth="2" NCoef="0" IVar="-1" Cut="0.0000000000000000e+00" cType="1" res="-2.1385263651609421e-02" rms="4.4764187932014465e-01" purity="3.0668905377388000e-01" nType="-99"/>
        </Node>
        <Node pos="r" depth="1" NCoef="0" IVar="5" Cut="2.2430882453918457e+00" cType="1" res="1.5953992307186127e-01" rms="3.6617884039878845e-01" purity="1.5953990817070007e-01" nType="0">
          <Node pos="l" depth="2" NCoef="0" IVar="-1" Cut="0.0000000000000000e+00" cType="1" res="-7.6389186084270477e-02" rms="2.7006775140762329e-01" purity="8.8744156062602997e-02" nType="-99"/>
          <Node pos="r" depth="2" NCoef="0" IVar="-1" Cut="0.0000000000000000e+00" cType="1" res="1.5569666400551796e-02" rms="4.3500059843063354e-01" purity="7.2516161203384399e-01" nType="-99"/>
        </Node>
      </Node>
    </BinaryTree>
    <BinaryTree type="DecisionTree" boostWeight="1.0000000000000000e+00" itree="4">
      <Node pos="s" depth="0" NCoef="0" IVar="2" Cut="1.7555974960327148e+01" cType="1" res="5.0000000000000000e-01" rms="5.0000000000000000e-01" purity="5.0000000000000000e-01" nType="0">
        <Node pos="l" depth="1" NCoef="0" IVar="9" Cut="9.2061930894851685e-01" cType="1" res="7.4521869421005249e-01" rms="4.3626794219017029e-01" purity="7.4746668338775635e-01" nType="0">
          <Node pos="l" depth="2" NCoef="0" IVar="-1" Cut="0.0000000000000000e+00" cType="1" res="1.7730684950947762e-02" rms="3.6726289987564087e-01" purity="8.2377982139587402e-01" nType="-99"/>
          <Node pos="r" depth="2" NCoef="0" IVar="-1" Cut="0.0000000000000000e+00" cType="1" res="-2.5556918233633041e-02" rms="4.4203925132751465e-01" purity="2.8230121731758118e-01" nType="-99"/>
        </Node>
        <Node pos="r" depth="1" NCoef="0" IVar="4" Cut="4.4785058498382568e-01" cType="1" res="1.7840342223644257e-01" rms="3.8285198807716370e-01" purity="1.7840342223644257e-01" nType="0">
          <Node pos="l" depth="2" NCoef="0" IVar="-1" Cut="0.0000000000000000e+00" cType="1" res="1.4855180634185672e-03" rms="4.9173727631568909e-01" purity="4.6793520450592041e-01" nType="-99"/>
          <Node pos="r" depth="2" NCoef="0" IVar="-1" Cut="0.0000000000000000e+00" cType="1" res="-6.0238029807806015e-02" rms="2.9151716828346252e-01" purity="1.0623630881309509e-01" nType="-99"/>
        </Node>
      </Node>
    </BinaryTree>
    <BinaryTree type="DecisionTree" boostWeight="1.0000000000000000e+00" itree="5">
      <Node pos="s" depth="0" NCoef="0" IVar="2" Cut="1.7555974960327148e+01" cType="1" res="5.0000000000000000e-01" rms="5.0000000000000000e-01" purity="5.0000000000000000e-01" nType="0">
        <Node pos="l" depth="1" NCoef="0" IVar="29" Cut="4.0024814605712891e+00" cType="1" res="7.4521869421005249e-01" rms="4.3626794219017029e-01" purity="7.4746668338775635e-01" nType="0">
          <Node pos="l" depth="2" NCoef="0" IVar="-1" Cut="0.0000000000000000e+00" cType="1" res="1.6731567680835724e-02" rms="3.7930285930633545e-01" purity="8.0573189258575439e-01" nType="-99"/>
          <Node pos="r" depth="2" NCoef="0" IVar="-1" Cut="0.0000000000000000e+00" cType="1" res="-5.9975370764732361e-02" rms="3.4586617350578308e-01" purity="1.4778731763362885e-01" nType="-99"/>
        </Node>
        <Node pos="r" depth="1" NCoef="0" IVar="9" Cut="8.0977767705917358e-01" cType="1" res="1.7840342223644257e-01" rms="3.8285198807716370e-01" purity="1.7840342223644257e-01" nType="0">
          <Node pos="l" depth="2" NCoef="0" IVar="-1" Cut="0.0000000000000000e+00" cType="1" res="-8.6753685027360916e-03" rms="4.3038487434387207e-01" purity="3.1178250908851624e-01" nType="-99"/>
          <Node pos="r" depth="2" NCoef="0" IVar="-1" Cut="0.0000000000000000e+00" cType="1" res="-7.8364014625549316e-02" rms="2.3498028516769409e-01" purity="6.6174924373626709e-02" nType="-99"/>
        </Node>
      </Node>
    </BinaryTree>
    <BinaryTree type="DecisionTree" boostWeight="1.0000000000000000e+00" itree="6">
      <Node pos="s" depth="0" NCoef="0" IVar="4" Cut="6.0561138391494751e-01" cType="1" res="5.0000000000000000e-01" rms="5.0000000000000000e-01" purity="5.0000000000000000e-01" nType="0">
        <Node pos="l" depth="1" NCoef="0" IVar="9" Cut="8.8969391584396362e-01" cType="1" res="7.1648913621902466e-01" rms="4.5070216059684753e-01" purity="7.1648919582366943e-01" nType="0">
          <Node pos="l" depth="2" NCoef="0" IVar="-1" Cut="0.0000000000000000e+00" cType="1" res="1.7377223819494247e-02" rms="3.6486279964447021e-01" purity="8.1185322999954224e-01" nType="-99"/>
          <Node pos="r" depth="2" NCoef="0" IVar="-1" Cut="0.0000000000000000e+00" cType="1" res="-1.7781941220164299e-02" rms="4.3944776058197021e-01" purity="3.0744042992591858e-01" nType="-99"/>
        </Node>
        <Node pos="r" depth="1" NCoef="0" IVar="5" Cut="2.0508263111114502e+00" cType="1" res="1.6112066805362701e-01" rms="3.6764222383499146e-01" purity="1.6112066805362701e-01" nType="0">
          <Node pos="l" depth="2" NCoef="0" IVar="-1" Cut="0.0000000000000000e+00" cType="1" res="-6.4795561134815216e-02" rms="2.6008605957031250e-01" purity="8.5101731121540070e-02" nType="-99"/>
          <Node pos="r" depth="2" NCoef="0" IVar="-1" Cut="0.0000000000000000e+00" cType="1" res="1.5454846434295177e-02" rms="4.2939609289169312e-01" purity="6.9853979349136353e-01" nType="-99"/>
        </Node>
      </Node>
    </BinaryTree>
    <BinaryTree type="DecisionTree" boostWeight="1.0000000000000000e+00" itree="7">
      <Node pos="s" depth="0" NCoef="0" IVar="2" Cut="1.7555974960327148e+01" cType="1" res="5.0000000000000000e-01" rms="5.0000000000000000e-01" purity="5.0000000000000000e-01" nType="0">
        <Node pos="l" depth="1" NCoef="0" IVar="6" Cut="-8.8120615109801292e-03" cType="1" res="7.4521869421005249e-01" rms="4.3626794219017029e-01" purity="7.4746668338775635e-01" nType="0">
          <Node pos="l" depth="2" NCoef="0" IVar="-1" Cut="0.0000000000000000e+00" cType="1" res="-3.4991484135389328e-02" rms="4.0741381049156189e-01" purity="2.4157525599002838e-01" nType="-99"/>
          <Node pos="r" depth="2" NCoef="0" IVar="-1" Cut="0.0000000000000000e+00" cType="1" res="1.6692014411091805e-02" rms="3.6192497611045837e-01" purity="8.1245100498199463e-01" nType="-99"/>
        </Node>
        <Node pos="r" depth="1" NCoef="0" IVar="5" Cut="1.6022149324417114e+00" cType="1" res="1.7840342223644257e-01" rms="3.8285198807716370e-01" purity="1.7840342223644257e-01" nType="0">
          <Node pos="l" depth="2" NCoef="0" IVar="-1" Cut="0.0000000000000000e+00" cType="1" res="-4.6784851700067520e-02" rms="2.9248413443565369e-01" purity="1.1263519525527954e-01" nType="-99"/>
          <Node pos="r" depth="2" NCoef="0" IVar="-1" Cut="0.0000000000000000e+00" cType="1" res="6.2610213644802570e-03" rms="4.7574523091316223e-01" purity="5.0024634599685669e-01" nType="-99"/>
        </Node>
      </Node>
    </BinaryTree>
    <BinaryTree type="DecisionTree" boostWeight="1.0000000000000000e+00" itree="8">
      <Node pos="s" depth="0" NCoef="0" IVar="4" Cut="6.3058894872665405e-01" cType="1" res="5.0000000000000000e-01" rms="5.0000000000000000e-01" purity="5.0000000000000000e-01" nType="0">
        <Node pos="l" depth="1" NCoef="0" IVar="9" Cut="8.8866013288497925e-01" cType="1" res="7.0737987756729126e-01" rms="4.5496547222137451e-01" purity="7.0737987756729126e-01" nType="0">
          <Node pos="l" depth="2" NCoef="0" IVar="-1" Cut="0.0000000000000000e+00" cType="1" res="1.6708783805370331e-02" rms="3.6314725875854492e-01" purity="8.0420100688934326e-01" nType="-99"/>
          <Node pos="r" depth="2" NCoef="0" IVar="-1" Cut="0.0000000000000000e+00" cType="1" res="-1.6602713614702225e-02" rms="4.3241569399833679e-01" purity="3.0290108919143677e-01" nType="-99"/>
        </Node>
        <Node pos="r" depth="1" NCoef="0" IVar="5" Cut="2.4399547576904297e+00" cType="1" res="1.5040828287601471e-01" rms="3.5747116804122925e-01" purity="1.5040828287601471e-01" nType="0">
          <Node pos="l" depth="2" NCoef="0" IVar="-1" Cut="0.0000000000000000e+00" cType="1" res="-5.7247046381235123e-02" rms="2.5877663493156433e-01" purity="8.6075142025947571e-02" nType="-99"/>
          <Node pos="r" depth="2" NCoef="0" IVar="-1" Cut="0.0000000000000000e+00" cType="1" res="1.6411978751420975e-02" rms="4.1149285435676575e-01" purity="7.4213361740112305e-01" nType="-99"/>
        </Node>
      </Node>
    </BinaryTree>
    <BinaryTree type="DecisionTree" boostWeight="1.0000000000000000e+00" itree="9">
      <Node pos="s" depth="0" NCoef="0" IVar="2" Cut="1.7555974960327148e+01" cType="1" res="5.0000000000000000e-01" rms="5.0000000000000000e-01" purity="5.0000000000000000e-01" nType="0">
        <Node pos="l" depth="1" NCoef="0" IVar="6" Cut="1.0290761478245258e-02" cType="1" res="7.4521869421005249e-01" rms="4.3626794219017029e-01" purity="7.4746668338775635e-01" nType="0">
          <Node pos="l" depth="2" NCoef="0" IVar="-1" Cut="0.0000000000000000e+00" cType="1" res="1.6224863007664680e-02" rms="3.5528185963630676e-01" purity="8.0959767103195190e-01" nType="-99"/>
          <Node pos="r" depth="2" NCoef="0" IVar="-1" Cut="0.0000000000000000e+00" cType="1" res="-3.7853568792343140e-02" rms="3.9663276076316833e-01" purity="2.3027805984020233e-01" nType="-99"/>
        </Node>
        <Node pos="r" depth="1" NCoef="0" IVar="9" Cut="8.0070436000823975e-01" cType="1" res="1.7840342223644257e-01" rms="3.8285198807716370e-01" purity="1.7840342223644257e-01" nType="0">
          <Node pos="l" depth="2" NCoef="0" IVar="-1" Cut="0.0000000000000000e+00" cType="1" res="-3.1353414524346590e-03" rms="4.1613265872001648e-01" purity="3.1742411851882935e-01" nType="-99"/>
          <Node pos="r" depth="2" NCoef="0" IVar="-1" Cut="0.0000000000000000e+00" cType="1" res="-6.0231000185012817e-02" rms="2.3828905820846558e-01" purity="7.1828648447990417e-02" nType="-99"/>
        </Node>
      </Node>
    </BinaryTree>
    <BinaryTree type="DecisionTree" boostWeight="1.0000000000000000e+00" itree="10">
      <Node pos="s" depth="0" NCoef="0" IVar="4" Cut="5.9661942720413208e-01" cType="1" res="5.0000000000000000e-01" rms="5.0000000000000000e-01" purity="5.0000000000000000e-01" nType="0">
        <Node pos="l" depth="1" NCoef="0" IVar="9" Cut="9.1036880016326904e-01" cType="1" res="7.1934163570404053e-01" rms="4.4932088255882263e-01" purity="7.1934163570404053e-01" nType="0">
          <Node pos="l" depth="2" NCoef="0" IVar="-1" Cut="0.0000000000000000e+00" cType="1" res="1.6070246696472168e-02" rms="3.6122435331344604e-01" purity="8.0553686618804932e-01" nType="-99"/>
          <Node pos="r" depth="2" NCoef="0" IVar="-1" Cut="0.0000000000000000e+00" cType="1" res="-2.0139131695032120e-02" rms="4.2149898409843445e-01" purity="2.7245658636093140e-01" nType="-99"/>
        </Node>
        <Node pos="r" depth="1" NCoef="0" IVar="5" Cut="1.9867389202117920e+00" cType="1" res="1.6599710285663605e-01" rms="3.7207803130149841e-01" purity="1.6599710285663605e-01" nType="0">
          <Node pos="l" depth="2" NCoef="0" IVar="-1" Cut="0.0000000000000000e+00" cType="1" res="-5.0807945430278778e-02" rms="2.5729414820671082e-01" purity="8.6745470762252808e-02" nType="-99"/>
          <Node pos="r" depth="2" NCoef="0" IVar="-1" Cut="0.0000000000000000e+00" cType="1" res="1.4799127355217934e-02" rms="4.1754391789436340e-01" purity="6.9169676303863525e-01" nType="-99"/>
        </Node>
      </Node>
    </BinaryTree>
    <BinaryTree type="DecisionTree" boostWeight="1.0000000000000000e+00" itree="11">
      <Node pos="s" depth="0" NCoef="0" IVar="2" Cut="1.7555974960327148e+01" cType="1" res="5.0000000000000000e-01" rms="5.0000000000000000e-01" purity="5.0000000000000000e-01" nType="0">
        <Node pos="l" depth="1" NCoef="0" IVar="29" Cut="3.7721230983734131e+00" cType="1" res="7.4521869421005249e-01" rms="4.3626794219017029e-01" purity="7.4746668338775635e-01" nType="0">
          <Node pos="l" depth="2" NCoef="0" IVar="-1" Cut="0.0000000000000000e+00" cType="1" res="1.5526004135608673e-02" rms="3.5603731870651245e-01" purity="8.0770540237426758e-01" nType="-99"/>
          <Node pos="r" depth="2" NCoef="0" IVar="-1" Cut="0.0000000000000000e+00" cType="1" res="-4.7903582453727722e-02" rms="3.5054200887680054e-01" purity="1.6573031246662140e-01" nType="-99"/>
        </Node>
        <Node pos="r" depth="1" NCoef="0" IVar="5" Cut="1.6022149324417114e+00" cType="1" res="1.7840342223644257e-01" rms="3.8285198807716370e-01" purity="1.7840342223644257e-01" nType="0">
          <Node pos="l" depth="2" NCoef="0" IVar="-1" Cut="0.0000000000000000e+00" cType="1" res="-3.6260925233364105e-02" rms="2.8571063280105591e-01" purity="1.1263519525527954e-01" nType="-99"/>
          <Node pos="r" depth="2" NCoef="0" IVar="-1" Cut="0.0000000000000000e+00" cType="1" res="7.0956037379801273e-03" rms="4.6394842863082886e-01" purity="5.0024634599685669e-01" nType="-99"/>
        </Node>
      </Node>
    </BinaryTree>
    <BinaryTree type="DecisionTree" boostWeight="1.0000000000000000e+00" itree="12">
      <Node pos="s" depth="0" NCoef="0" IVar="2" Cut="1.7555974960327148e+01" cType="1" res="5.0000000000000000e-01" rms="5.0000000000000000e-01" purity="5.0000000000000000e-01" nType="0">
        <Node pos="l" depth="1" NCoef="0" IVar="6" Cut="-8.8120615109801292e-03" cType="1" res="7.4521869421005249e-01" rms="4.3626794219017029e-01" purity="7.4746668338775635e-01" nType="0">
          <Node pos="l" depth="2" NCoef="0" IVar="-1" Cut="0.0000000000000000e+00" cType="1" res="-3.2132893800735474e-02" rms="3.9894038438796997e-01" purity="2.4157525599002838e-01" nType="-99"/>
          <Node pos="r" depth="2" NCoef="0" IVar="-1" Cut="0.0000000000000000e+00" cType="1" res="1.5557720325887203e-02" rms="3.4601601958274841e-01" purity="8.1245100498199463e-01" nType="-99"/>
        </Node>
        <Node pos="r" depth="1" NCoef="0" IVar="4" Cut="3.3097612857818604e-01" cType="1" res="1.7840342223644257e-01" rms="3.8285198807716370e-01" purity="1.7840342223644257e-01" nType="0">
          <Node pos="l" depth="2" NCoef="0" IVar="-1" Cut="0.0000000000000000e+00" cType="1" res="7.7240653336048126e-03" rms="4.7575947642326355e-01" purity="4.9517917633056641e-01" nType="-99"/>
          <Node pos="r" depth="2" NCoef="0" IVar="-1" Cut="0.0000000000000000e+00" cType="1" res="-3.2892461866140366e-02" rms="2.8394886851310730e-01" purity="1.1707537621259689e-01" nType="-99"/>
        </Node>
      </Node>
    </BinaryTree>
    <BinaryTree type="DecisionTree" boostWeight="1.0000000000000000e+00" itree="13">
      <Node pos="s" depth="0" NCoef="0" IVar="4" Cut="6.6755580902099609e-01" cType="1" res="5.0000000000000000e-01" rms="5.0000000000000000e-01" purity="5.0000000000000000e-01" nType="0">
        <Node pos="l" depth="1" NCoef="0" IVar="9" Cut="8.7584501504898071e-01" cType="1" res="6.9139230251312256e-01" rms="4.6191880106925964e-01" purity="6.9139230251312256e-01" nType="0">
          <Node pos="l" depth="2" NCoef="0" IVar="-1" Cut="0.0000000000000000e+00" cType="1" res="1.5650117769837379e-02" rms="3.5155621170997620e-01" purity="7.9613131284713745e-01" nType="-99"/>
          <Node pos="r" depth="2" NCoef="0" IVar="-1" Cut="0.0000000000000000e+00" cType="1" res="-1.1703358031809330e-02" rms="4.1752868890762329e-01" purity="3.1674847006797791e-01" nType="-99"/>
        </Node>
        <Node pos="r" depth="1" NCoef="0" IVar="5" Cut="2.5681247711181641e+00" cType="1" res="1.3326664268970490e-01" rms="3.3986267447471619e-01" purity="1.3326664268970490e-01" nType="0">
          <Node pos="l" depth="2" NCoef="0" IVar="-1" Cut="0.0000000000000000e+00" cType="1" res="-4.9339544028043747e-02" rms="2.4512998759746552e-01" purity="7.6664641499519348e-02" nType="-99"/>
          <Node pos="r" depth="2" NCoef="0" IVar="-1" Cut="0.0000000000000000e+00" cType="1" res="1.5942901372909546e-02" rms="4.0660181641578674e-01" purity="7.3610442876815796e-01" nType="-99"/>
        </Node>
      </Node>
    </BinaryTree>
    <BinaryTree type="DecisionTree" boostWeight="1.0000000000000000e+00" itree="14">
      <Node pos="s" depth="0" NCoef="0" IVar="5" Cut="8.3316695690155029e-01" cType="1" res="5.0000000000000000e-01" rms="5.0000000000000000e-01" purity="5.0000000000000000e-01" nType="0">
        <Node pos="l" depth="1" NCoef="0" IVar="9" Cut="8.0652225017547607e-01" cType="1" res="2.0662005245685577e-01" rms="4.0488049387931824e-01" purity="2.0662005245685577e-01" nType="0">
          <Node pos="l" depth="2" NCoef="0" IVar="-1" Cut="0.0000000000000000e+00" cType="1" res="-2.6093134656548500e-03" rms="3.8333839178085327e-01" purity="3.5861846804618835e-01" nType="-99"/>
          <Node pos="r" depth="2" NCoef="0" IVar="-1" Cut="0.0000000000000000e+00" cType="1" res="-5.0085037946701050e-02" rms="2.5748819112777710e-01" purity="9.2105247080326080e-02" nType="-99"/>
        </Node>
        <Node pos="r" depth="1" NCoef="0" IVar="2" Cut="7.2314248085021973e+00" cType="1" res="6.5331542491912842e-01" rms="4.7591426968574524e-01" purity="6.5331536531448364e-01" nType="0">
          <Node pos="l" depth="2" NCoef="0" IVar="-1" Cut="0.0000000000000000e+00" cType="1" res="1.7127539962530136e-02" rms="2.9521116614341736e-01" purity="8.7782055139541626e-01" nType="-99"/>
          <Node pos="r" depth="2" NCoef="0" IVar="-1" Cut="0.0000000000000000e+00" cType="1" res="-2.1151136606931686e-03" rms="3.9609861373901367e-01" purity="3.0757549405097961e-01" nType="-99"/>
        </Node>
      </Node>
    </BinaryTree>
    <BinaryTree type="DecisionTree" boostWeight="1.0000000000000000e+00" itree="15">
      <Node pos="s" depth="0" NCoef="0" IVar="2" Cut="1.7555974960327148e+01" cType="1" res="1.5472723171114922e-02" rms="1.2538529932498932e-01" purity="5.0000000000000000e-01" nType="0">
        <Node pos="l" depth="1" NCoef="0" IVar="6" Cut="1.0290761478245258e-02" cType="1" res="1.0459633171558380e-01" rms="3.0967524647712708e-01" purity="7.4746668338775635e-01" nType="0">
          <Node pos="l" depth="2" NCoef="0" IVar="-1" Cut="0.0000000000000000e+00" cType="1" res="1.4983015134930611e-02" rms="3.3719390630722046e-01" purity="8.0959767103195190e-01" nType="-99"/>
          <Node pos="r" depth="2" NCoef="0" IVar="-1" Cut="0.0000000000000000e+00" cType="1" res="-3.4689679741859436e-02" rms="3.8877773284912109e-01" purity="2.3027805984020233e-01" nType="-99"/>
        </Node>
        <Node pos="r" depth="1" NCoef="0" IVar="5" Cut="2.3071756362915039e+00" cType="1" res="-2.9694870114326477e-02" rms="0.0000000000000000e+00" purity="1.7840342223644257e-01" nType="0">
          <Node pos="l" depth="2" NCoef="0" IVar="-1" Cut="0.0000000000000000e+00" cType="1" res="-2.4599028751254082e-02" rms="2.9693764448165894e-01" purity="1.2963107228279114e-01" nType="-99"/>
          <Node pos="r" depth="2" NCoef="0" IVar="-1" Cut="0.0000000000000000e+00" cType="1" res="1.0866511613130569e-02" rms="4.7027009725570679e-01" purity="5.9668511152267456e-01" nType="-99"/>
        </Node>
      </Node>
    </BinaryTree>
    <BinaryTree type="DecisionTree" boostWeight="1.0000000000000000e+00" itree="16">
      <Node pos="s" depth="0" NCoef="0" IVar="5" Cut="8.3316695690155029e-01" cType="1" res="1.0079556703567505e-01" rms="3.0156800150871277e-01" purity="5.0000000000000000e-01" nType="0">
        <Node pos="l" depth="1" NCoef="0" IVar="28" Cut="2.0002998352050781e+01" cType="1" res="2.0662005245685577e-01" rms="4.0488049387931824e-01" purity="2.0662005245685577e-01" nType="0">
          <Node pos="l" depth="2" NCoef="0" IVar="-1" Cut="0.0000000000000000e+00" cType="1" res="-5.3978008218109608e-03" rms="3.5705628991127014e-01" purity="2.9658564925193787e-01" nType="-99"/>
          <Node pos="r" depth="2" NCoef="0" IVar="-1" Cut="0.0000000000000000e+00" cType="1" res="-5.9998828917741776e-02" rms="2.3760986328125000e-01" purity="6.8611294031143188e-02" nType="-99"/>
        </Node>
        <Node pos="r" depth="1" NCoef="0" IVar="2" Cut="7.2314248085021973e+00" cType="1" res="1.6071036458015442e-01" rms="7.9214113950729370e-01" purity="6.5331536531448364e-01" nType="0">
          <Node pos="l" depth="2" NCoef="0" IVar="-1" Cut="0.0000000000000000e+00" cType="1" res="1.6523405909538269e-02" rms="2.9328560829162598e-01" purity="8.7782055139541626e-01" nType="-99"/>
          <Node pos="r" depth="2" NCoef="0" IVar="-1" Cut="0.0000000000000000e+00" cType="1" res="-1.3578691286966205e-03" rms="3.9528959989547729e-01" purity="3.0757549405097961e-01" nType="-99"/>
        </Node>
      </Node>
    </BinaryTree>
    <BinaryTree type="DecisionTree" boostWeight="1.0000000000000000e+00" itree="17">
      <Node pos="s" depth="0" NCoef="0" IVar="4" Cut="6.8254238367080688e-01" cType="1" res="5.0000000000000000e-01" rms="5.0000000000000000e-01" purity="5.0000000000000000e-01" nType="0">
        <Node pos="l" depth="1" NCoef="0" IVar="9" Cut="9.1108560562133789e-01" cType="1" res="1.5497143976972438e-05" rms="1.0217188857495785e-02" purity="6.8420511484146118e-01" nType="0">
          <Node pos="l" depth="2" NCoef="0" IVar="-1" Cut="0.0000000000000000e+00" cType="1" res="1.4459719881415367e-02" rms="3.5220593214035034e-01" purity="7.7376568317413330e-01" nType="-99"/>
          <Node pos="r" depth="2" NCoef="0" IVar="-1" Cut="0.0000000000000000e+00" cType="1" res="-1.8771829083561897e-02" rms="3.8848826289176941e-01" purity="2.4365185201168060e-01" nType="-99"/>
        </Node>
        <Node pos="r" depth="1" NCoef="0" IVar="5" Cut="3.0167195796966553e+00" cType="1" res="1.2586070597171783e-01" rms="3.3169230818748474e-01" purity="1.2586070597171783e-01" nType="0">
          <Node pos="l" depth="2" NCoef="0" IVar="-1" Cut="0.0000000000000000e+00" cType="1" res="-4.1788443922996521e-02" rms="2.4326629936695099e-01" purity="7.9715810716152191e-02" nType="-99"/>
          <Node pos="r" depth="2" NCoef="0" IVar="-1" Cut="0.0000000000000000e+00" cType="1" res="1.6679346561431885e-02" rms="3.9089176058769226e-01" purity="7.6872742176055908e-01" nType="-99"/>
        </Node>
      </Node>
    </BinaryTree>
    <BinaryTree type="DecisionTree" boostWeight="1.0000000000000000e+00" itree="18">
      <Node pos="s" depth="0" NCoef="0" IVar="2" Cut="1.7555974960327148e+01" cType="1" res="0.0000000000000000e+00" rms="2.4223819732666016e+01" purity="5.0000000000000000e-01" nType="0">
        <Node pos="l" depth="1" NCoef="0" IVar="6" Cut="-8.8120615109801292e-03" cType="1" res="-inf" rms="0.0000000000000000e+00" purity="7.4746668338775635e-01" nType="0">
          <Node pos="l" depth="2" NCoef="0" IVar="-1" Cut="0.0000000000000000e+00" cType="1" res="-2.9246464371681213e-02" rms="3.9286187291145325e-01" purity="2.4157525599002838e-01" nType="-99"/>
          <Node pos="r" depth="2" NCoef="0" IVar="-1" Cut="0.0000000000000000e+00" cType="1" res="1.4459562487900257e-02" rms="3.2888621091842651e-01" purity="8.1245100498199463e-01" nType="-99"/>
        </Node>
        <Node pos="r" depth="1" NCoef="0" IVar="9" Cut="8.0070436000823975e-01" cType="1" res="4.2167594909667969e+01" rms="0.0000000000000000e+00" purity="1.7840342223644257e-01" nType="0">
          <Node pos="l" depth="2" NCoef="0" IVar="-1" Cut="0.0000000000000000e+00" cType="1" res="3.1828931532800198e-03" rms="3.9971503615379333e-01" purity="3.1742411851882935e-01" nType="-99"/>
          <Node pos="r" depth="2" NCoef="0" IVar="-1" Cut="0.0000000000000000e+00" cType="1" res="-4.2495980858802795e-02" rms="2.3432861268520355e-01" purity="7.1828648447990417e-02" nType="-99"/>
        </Node>
      </Node>
    </BinaryTree>
    <BinaryTree type="DecisionTree" boostWeight="1.0000000000000000e+00" itree="19">
      <Node pos="s" depth="0" NCoef="0" IVar="5" Cut="8.3316695690155029e-01" cType="1" res="0.0000000000000000e+00" rms="1.4786655083298683e-04" purity="5.0000000000000000e-01" nType="0">
        <Node pos="l" depth="1" NCoef="0" IVar="3" Cut="1.4081566333770752e+00" cType="1" res="2.0662005245685577e-01" rms="4.0488049387931824e-01" purity="2.0662005245685577e-01" nType="0">
          <Node pos="l" depth="2" NCoef="0" IVar="-1" Cut="0.0000000000000000e+00" cType="1" res="-2.2534783929586411e-02" rms="3.0329144001007080e-01" purity="1.6575290262699127e-01" nType="-99"/>
          <Node pos="r" depth="2" NCoef="0" IVar="-1" Cut="0.0000000000000000e+00" cType="1" res="8.7671214714646339e-03" rms="3.5759747028350830e-01" purity="4.8008704185485840e-01" nType="-99"/>
        </Node>
        <Node pos="r" depth="1" NCoef="0" IVar="2" Cut="7.2314248085021973e+00" cType="1" res="4.6393136321530928e-14" rms="8.0827927589416504e-01" purity="6.5331536531448364e-01" nType="0">
          <Node pos="l" depth="2" NCoef="0" IVar="-1" Cut="0.0000000000000000e+00" cType="1" res="1.5816738829016685e-02" rms="2.9000133275985718e-01" purity="8.7782055139541626e-01" nType="-99"/>
          <Node pos="r" depth="2" NCoef="0" IVar="-1" Cut="0.0000000000000000e+00" cType="1" res="5.8261452068109065e-05" rms="3.9016526937484741e-01" purity="3.0757549405097961e-01" nType="-99"/>
        </Node>
      </Node>
    </BinaryTree>
    <BinaryTree type="DecisionTree" boostWeight="1.0000000000000000e+00" itree="20">
      <Node pos="s" depth="0" NCoef="0" IVar="9" Cut="8.5722607374191284e-01" cType="1" res="1.3583812117576599e-01" rms="3.4472021460533142e-01" purity="5.0000000000000000e-01" nType="0">
        <Node pos="l" depth="1" NCoef="0" IVar="3" Cut="-9.4583904743194580e-01" cType="1" res="2.0847077667713165e-01" rms="4.0596973896026611e-01" purity="6.4029872417449951e-01" nType="0">
          <Node pos="l" depth="2" NCoef="0" IVar="-1" Cut="0.0000000000000000e+00" cType="1" res="-4.9044038169085979e-03" rms="3.8421285152435303e-01" purity="2.7275493741035461e-01" nType="-99"/>
          <Node pos="r" depth="2" NCoef="0" IVar="-1" Cut="0.0000000000000000e+00" cType="1" res="1.5251842327415943e-02" rms="3.0879265069961548e-01" purity="7.8980791568756104e-01" nType="-99"/>
        </Node>
        <Node pos="r" depth="1" NCoef="0" IVar="23" Cut="3.1010494232177734e+01" cType="1" res="4.3972402811050415e-01" rms="4.9654310941696167e-01" purity="2.0508614182472229e-01" nType="0">
          <Node pos="l" depth="2" NCoef="0" IVar="-1" Cut="0.0000000000000000e+00" cType="1" res="-3.3091109246015549e-02" rms="2.8282400965690613e-01" purity="1.2491478025913239e-01" nType="-99"/>
          <Node pos="r" depth="2" NCoef="0" IVar="-1" Cut="0.0000000000000000e+00" cType="1" res="1.3657916337251663e-02" rms="3.8567399978637695e-01" purity="7.2157734632492065e-01" nType="-99"/>
        </Node>
      </Node>
    </BinaryTree>
    <BinaryTree type="DecisionTree" boostWeight="1.0000000000000000e+00" itree="21">
      <Node pos="s" depth="0" NCoef="0" IVar="4" Cut="5.8163285255432129e-01" cType="1" res="1.3989539444446564e-01" rms="3.4687668085098267e-01" purity="5.0000000000000000e-01" nType="0">
        <Node pos="l" depth="1" NCoef="0" IVar="29" Cut="4.3739433288574219e+00" cType="1" res="2.3543661832809448e-01" rms="4.2427140474319458e-01" purity="7.2330492734909058e-01" nType="0">
          <Node pos="l" depth="2" NCoef="0" IVar="-1" Cut="0.0000000000000000e+00" cType="1" res="1.3610906898975372e-02" rms="3.4853103756904602e-01" purity="7.7481174468994141e-01" nType="-99"/>
          <Node pos="r" depth="2" NCoef="0" IVar="-1" Cut="0.0000000000000000e+00" cType="1" res="-5.4461944848299026e-02" rms="3.3376967906951904e-01" purity="1.3561218976974487e-01" nType="-99"/>
        </Node>
        <Node pos="r" depth="1" NCoef="0" IVar="5" Cut="1.7944769859313965e+00" cType="1" res="3.4455028176307678e-01" rms="4.7520196437835693e-01" purity="1.7326517403125763e-01" nType="0">
          <Node pos="l" depth="2" NCoef="0" IVar="-1" Cut="0.0000000000000000e+00" cType="1" res="-3.2967951148748398e-02" rms="2.4661250412464142e-01" purity="8.7965637445449829e-02" nType="-99"/>
          <Node pos="r" depth="2" NCoef="0" IVar="-1" Cut="0.0000000000000000e+00" cType="1" res="1.3945203274488449e-02" rms="3.9333575963973999e-01" purity="6.6169333457946777e-01" nType="-99"/>
        </Node>
      </Node>
    </BinaryTree>
    <BinaryTree type="DecisionTree" boostWeight="1.0000000000000000e+00" itree="22">
      <Node pos="s" depth="0" NCoef="0" IVar="9" Cut="8.5608929395675659e-01" cType="1" res="5.0000000000000000e-01" rms="5.0000000000000000e-01" purity="5.0000000000000000e-01" nType="0">
        <Node pos="l" depth="1" NCoef="0" IVar="3" Cut="-9.4583904743194580e-01" cType="1" res="6.4093363285064697e-01" rms="4.7972670197486877e-01" purity="6.4093363285064697e-01" nType="0">
          <Node pos="l" depth="2" NCoef="0" IVar="-1" Cut="0.0000000000000000e+00" cType="1" res="-3.9525842294096947e-03" rms="3.8164770603179932e-01" purity="2.7363488078117371e-01" nType="-99"/>
          <Node pos="r" depth="2" NCoef="0" IVar="-1" Cut="0.0000000000000000e+00" cType="1" res="1.4878777787089348e-02" rms="3.0487397313117981e-01" purity="7.9028618335723877e-01" nType="-99"/>
        </Node>
        <Node pos="r" depth="1" NCoef="0" IVar="23" Cut="3.1010494232177734e+01" cType="1" res="2.0703054964542389e-01" rms="4.0517762303352356e-01" purity="2.0703053474426270e-01" nType="0">
          <Node pos="l" depth="2" NCoef="0" IVar="-1" Cut="0.0000000000000000e+00" cType="1" res="-2.9656626284122467e-02" rms="2.8234222531318665e-01" purity="1.2652693688869476e-01" nType="-99"/>
          <Node pos="r" depth="2" NCoef="0" IVar="-1" Cut="0.0000000000000000e+00" cType="1" res="1.3023538514971733e-02" rms="3.8253119587898254e-01" purity="7.2343659400939941e-01" nType="-99"/>
        </Node>
      </Node>
    </BinaryTree>
    <BinaryTree type="DecisionTree" boostWeight="1.0000000000000000e+00" itree="23">
      <Node pos="s" depth="0" NCoef="0" IVar="5" Cut="8.3316695690155029e-01" cType="1" res="5.0000000000000000e-01" rms="5.0000000000000000e-01" purity="5.0000000000000000e-01" nType="0">
        <Node pos="l" depth="1" NCoef="0" IVar="3" Cut="1.5099097490310669e+00" cType="1" res="2.0662005245685577e-01" rms="4.0488049387931824e-01" purity="2.0662005245685577e-01" nType="0">
          <Node pos="l" depth="2" NCoef="0" IVar="-1" Cut="0.0000000000000000e+00" cType="1" res="-1.8284145742654800e-02" rms="3.0034860968589783e-01" purity="1.7053323984146118e-01" nType="-99"/>
          <Node pos="r" depth="2" NCoef="0" IVar="-1" Cut="0.0000000000000000e+00" cType="1" res="1.0072956793010235e-02" rms="3.4702116250991821e-01" purity="5.1023143529891968e-01" nType="-99"/>
        </Node>
        <Node pos="r" depth="1" NCoef="0" IVar="2" Cut="7.2314248085021973e+00" cType="1" res="6.5331542491912842e-01" rms="4.7591426968574524e-01" purity="6.5331536531448364e-01" nType="0">
          <Node pos="l" depth="2" NCoef="0" IVar="-1" Cut="0.0000000000000000e+00" cType="1" res="1.5074859373271465e-02" rms="2.8334161639213562e-01" purity="8.7782055139541626e-01" nType="-99"/>
          <Node pos="r" depth="2" NCoef="0" IVar="-1" Cut="0.0000000000000000e+00" cType="1" res="9.3204295262694359e-04" rms="3.8412174582481384e-01" purity="3.0757549405097961e-01" nType="-99"/>
        </Node>
      </Node>
    </BinaryTree>
    <BinaryTree type="DecisionTree" boostWeight="1.0000000000000000e+00" itree="24">
      <Node pos="s" depth="0" NCoef="0" IVar="4" Cut="6.8254238367080688e-01" cType="1" res="0.0000000000000000e+00" rms="0.0000000000000000e+00" purity="5.0000000000000000e-01" nType="0">
        <Node pos="l" depth="1" NCoef="0" IVar="29" Cut="3.5051095485687256e+00" cType="1" res="-inf" rms="0.0000000000000000e+00" purity="6.8420511484146118e-01" nType="0">
          <Node pos="l" depth="2" NCoef="0" IVar="-1" Cut="0.0000000000000000e+00" cType="1" res="1.3091307133436203e-02" rms="3.4466439485549927e-01" purity="7.4556136131286621e-01" nType="-99"/>
          <Node pos="r" depth="2" NCoef="0" IVar="-1" Cut="0.0000000000000000e+00" cType="1" res="-3.3346559852361679e-02" rms="3.4608843922615051e-01" purity="1.8218776583671570e-01" nType="-99"/>
        </Node>
        <Node pos="r" depth="1" NCoef="0" IVar="5" Cut="3.0167195796966553e+00" cType="1" res="7.5677379402123990e-15" rms="7.2488098144531250e+02" purity="1.2586070597171783e-01" nType="0">
          <Node pos="l" depth="2" NCoef="0" IVar="-1" Cut="0.0000000000000000e+00" cType="1" res="-3.3348713070154190e-02" rms="2.3941358923912048e-01" purity="7.9715810716152191e-02" nType="-99"/>
          <Node pos="r" depth="2" NCoef="0" IVar="-1" Cut="0.0000000000000000e+00" cType="1" res="1.5685219317674637e-02" rms="3.8133588433265686e-01" purity="7.6872742176055908e-01" nType="-99"/>
        </Node>
      </Node>
    </BinaryTree>
    <BinaryTree type="DecisionTree" boostWeight="1.0000000000000000e+00" itree="25">
      <Node pos="s" depth="0" NCoef="0" IVar="9" Cut="8.3107966184616089e-01" cType="1" res="0.0000000000000000e+00" rms="0.0000000000000000e+00" purity="5.0000000000000000e-01" nType="0">
        <Node pos="l" depth="1" NCoef="0" IVar="29" Cut="4.2541041374206543e+00" cType="1" res="0.0000000000000000e+00" rms="inf" purity="6.5597063302993774e-01" nType="0">
          <Node pos="l" depth="2" NCoef="0" IVar="-1" Cut="0.0000000000000000e+00" cType="1" res="1.3960619457066059e-02" rms="3.2576271891593933e-01" purity="7.1563488245010376e-01" nType="-99"/>
          <Node pos="r" depth="2" NCoef="0" IVar="-1" Cut="0.0000000000000000e+00" cType="1" res="-4.0438175201416016e-02" rms="2.9460027813911438e-01" purity="1.1805334687232971e-01" nType="-99"/>
        </Node>
        <Node pos="r" depth="1" NCoef="0" IVar="23" Cut="3.1010494232177734e+01" cType="1" res="3.0960572994231939e-10" rms="0.0000000000000000e+00" purity="2.4856211245059967e-01" nType="0">
          <Node pos="l" depth="2" NCoef="0" IVar="-1" Cut="0.0000000000000000e+00" cType="1" res="-2.2245533764362335e-02" rms="2.9005822539329529e-01" purity="1.5199115872383118e-01" nType="-99"/>
          <Node pos="r" depth="2" NCoef="0" IVar="-1" Cut="0.0000000000000000e+00" cType="1" res="1.3553460128605366e-02" rms="3.4944245219230652e-01" purity="7.7826112508773804e-01" nType="-99"/>
        </Node>
      </Node>
    </BinaryTree>
    <BinaryTree type="DecisionTree" boostWeight="1.0000000000000000e+00" itree="26">
      <Node pos="s" depth="0" NCoef="0" IVar="5" Cut="8.3316695690155029e-01" cType="1" res="0.0000000000000000e+00" rms="0.0000000000000000e+00" purity="5.0000000000000000e-01" nType="0">
        <Node pos="l" depth="1" NCoef="0" IVar="3" Cut="1.4081566333770752e+00" cType="1" res="2.0662005245685577e-01" rms="4.0488049387931824e-01" purity="2.0662005245685577e-01" nType="0">
          <Node pos="l" depth="2" NCoef="0" IVar="-1" Cut="0.0000000000000000e+00" cType="1" res="-1.7010977491736412e-02" rms="2.9598185420036316e-01" purity="1.6575290262699127e-01" nType="-99"/>
          <Node pos="r" depth="2" NCoef="0" IVar="-1" Cut="0.0000000000000000e+00" cType="1" res="8.7467161938548088e-03" rms="3.4240144491195679e-01" purity="4.8008704185485840e-01" nType="-99"/>
        </Node>
        <Node pos="r" depth="1" NCoef="0" IVar="2" Cut="7.2314248085021973e+00" cType="1" res="-7.3477488756179810e-01" rms="1.3526888427734375e+03" purity="6.5331536531448364e-01" nType="0">
          <Node pos="l" depth="2" NCoef="0" IVar="-1" Cut="0.0000000000000000e+00" cType="1" res="1.4550711959600449e-02" rms="2.7960640192031860e-01" purity="8.7782055139541626e-01" nType="-99"/>
          <Node pos="r" depth="2" NCoef="0" IVar="-1" Cut="0.0000000000000000e+00" cType="1" res="1.3588137226179242e-03" rms="3.7921312451362610e-01" purity="3.0757549405097961e-01" nType="-99"/>
        </Node>
      </Node>
    </BinaryTree>
    <BinaryTree type="DecisionTree" boostWeight="1.0000000000000000e+00" itree="27">
      <Node pos="s" depth="0" NCoef="0" IVar="28" Cut="2.2010494232177734e+01" cType="1" res="5.0000000000000000e-01" rms="5.0000000000000000e-01" purity="5.0000000000000000e-01" nType="0">
        <Node pos="l" depth="1" NCoef="0" IVar="6" Cut="1.0811391286551952e-02" cType="1" res="5.8423644304275513e-01" rms="4.9285313487052917e-01" purity="5.8423644304275513e-01" nType="0">
          <Node pos="l" depth="2" NCoef="0" IVar="-1" Cut="0.0000000000000000e+00" cType="1" res="1.3201813213527203e-02" rms="3.1806644797325134e-01" purity="6.8500053882598877e-01" nType="-99"/>
          <Node pos="r" depth="2" NCoef="0" IVar="-1" Cut="0.0000000000000000e+00" cType="1" res="-1.3072581961750984e-02" rms="3.5581263899803162e-01" purity="2.1294234693050385e-01" nType="-99"/>
        </Node>
        <Node pos="r" depth="1" NCoef="0" IVar="23" Cut="3.4005996704101562e+01" cType="1" res="1.0994126647710800e-01" rms="3.1281653046607971e-01" purity="1.0994126647710800e-01" nType="0">
          <Node pos="l" depth="2" NCoef="0" IVar="-1" Cut="0.0000000000000000e+00" cType="1" res="-4.9417674541473389e-02" rms="2.4298651516437531e-01" purity="7.7021151781082153e-02" nType="-99"/>
          <Node pos="r" depth="2" NCoef="0" IVar="-1" Cut="0.0000000000000000e+00" cType="1" res="1.1101102456450462e-02" rms="3.7729251384735107e-01" purity="7.2335696220397949e-01" nType="-99"/>
        </Node>
      </Node>
    </BinaryTree>
    <BinaryTree type="DecisionTree" boostWeight="1.0000000000000000e+00" itree="28">
      <Node pos="s" depth="0" NCoef="0" IVar="9" Cut="8.6177331209182739e-01" cType="1" res="5.0000000000000000e-01" rms="5.0000000000000000e-01" purity="5.0000000000000000e-01" nType="0">
        <Node pos="l" depth="1" NCoef="0" IVar="4" Cut="7.0652085542678833e-01" cType="1" res="6.3771325349807739e-01" rms="4.8066106438636780e-01" purity="6.3771325349807739e-01" nType="0">
          <Node pos="l" depth="2" NCoef="0" IVar="-1" Cut="0.0000000000000000e+00" cType="1" res="1.3309766538441181e-02" rms="3.2422733306884766e-01" purity="7.8497028350830078e-01" nType="-99"/>
          <Node pos="r" depth="2" NCoef="0" IVar="-1" Cut="0.0000000000000000e+00" cType="1" res="-8.4775071591138840e-03" rms="3.0570459365844727e-01" purity="1.8251502513885498e-01" nType="-99"/>
        </Node>
        <Node pos="r" depth="1" NCoef="0" IVar="23" Cut="3.2008995056152344e+01" cType="1" res="1.9779694080352783e-01" rms="3.9833819866180420e-01" purity="1.9779694080352783e-01" nType="0">
          <Node pos="l" depth="2" NCoef="0" IVar="-1" Cut="0.0000000000000000e+00" cType="1" res="-2.3887075483798981e-02" rms="2.8185671567916870e-01" purity="1.3104319572448730e-01" nType="-99"/>
          <Node pos="r" depth="2" NCoef="0" IVar="-1" Cut="0.0000000000000000e+00" cType="1" res="1.2522683478891850e-02" rms="3.6701199412345886e-01" purity="7.5244343280792236e-01" nType="-99"/>
        </Node>
      </Node>
    </BinaryTree>
    <BinaryTree type="DecisionTree" boostWeight="1.0000000000000000e+00" itree="29">
      <Node pos="s" depth="0" NCoef="0" IVar="6" Cut="-7.3273479938507080e-03" cType="1" res="5.0000000000000000e-01" rms="5.0000000000000000e-01" purity="5.0000000000000000e-01" nType="0">
        <Node pos="l" depth="1" NCoef="0" IVar="6" Cut="-4.8760686069726944e-02" cType="1" res="1.8465211987495422e-01" rms="3.8801509141921997e-01" purity="1.8465211987495422e-01" nType="0">
          <Node pos="l" depth="2" NCoef="0" IVar="-1" Cut="0.0000000000000000e+00" cType="1" res="-4.1772458702325821e-02" rms="2.6572999358177185e-01" purity="9.6827618777751923e-02" nType="-99"/>
          <Node pos="r" depth="2" NCoef="0" IVar="-1" Cut="0.0000000000000000e+00" cType="1" res="-5.9577110223472118e-03" rms="3.5531076788902283e-01" purity="2.3864252865314484e-01" nType="-99"/>
        </Node>
        <Node pos="r" depth="1" NCoef="0" IVar="6" Cut="5.5693890899419785e-03" cType="1" res="6.1032491922378540e-01" rms="4.8767656087875366e-01" purity="6.1032485961914062e-01" nType="0">
          <Node pos="l" depth="2" NCoef="0" IVar="-1" Cut="0.0000000000000000e+00" cType="1" res="1.5582257881760597e-02" rms="2.5992357730865479e-01" purity="8.4595733880996704e-01" nType="-99"/>
          <Node pos="r" depth="2" NCoef="0" IVar="-1" Cut="0.0000000000000000e+00" cType="1" res="-1.3000614941120148e-02" rms="3.3543369174003601e-01" purity="1.9903105497360229e-01" nType="-99"/>
        </Node>
      </Node>
    </BinaryTree>
    <BinaryTree type="DecisionTree" boostWeight="1.0000000000000000e+00" itree="30">
      <Node pos="s" depth="0" NCoef="0" IVar="5" Cut="7.6907962560653687e-01" cType="1" res="5.0000000000000000e-01" rms="5.0000000000000000e-01" purity="5.0000000000000000e-01" nType="0">
        <Node pos="l" depth="1" NCoef="0" IVar="4" Cut="-2.2187705338001251e-01" cType="1" res="1.8135274946689606e-01" rms="3.8531017303466797e-01" purity="1.8135274946689606e-01" nType="0">
          <Node pos="l" depth="2" NCoef="0" IVar="-1" Cut="0.0000000000000000e+00" cType="1" res="1.1217480525374413e-02" rms="4.3340221047401428e-01" purity="5.5862724781036377e-01" nType="-99"/>
          <Node pos="r" depth="2" NCoef="0" IVar="-1" Cut="0.0000000000000000e+00" cType="1" res="-1.6986867412924767e-02" rms="2.8036284446716309e-01" purity="1.5674242377281189e-01" nType="-99"/>
        </Node>
        <Node pos="r" depth="1" NCoef="0" IVar="2" Cut="7.2314248085021973e+00" cType="1" res="6.3798612356185913e-01" rms="4.8058280348777771e-01" purity="6.3798612356185913e-01" nType="0">
          <Node pos="l" depth="2" NCoef="0" IVar="-1" Cut="0.0000000000000000e+00" cType="1" res="1.3820257037878036e-02" rms="2.7762290835380554e-01" purity="8.7090337276458740e-01" nType="-99"/>
          <Node pos="r" depth="2" NCoef="0" IVar="-1" Cut="0.0000000000000000e+00" cType="1" res="1.2874345993623137e-03" rms="3.6789348721504211e-01" purity="2.9216989874839783e-01" nType="-99"/>
        </Node>
      </Node>
    </BinaryTree>
    <BinaryTree type="DecisionTree" boostWeight="1.0000000000000000e+00" itree="31">
      <Node pos="s" depth="0" NCoef="0" IVar="9" Cut="8.3107966184616089e-01" cType="1" res="5.0000000000000000e-01" rms="5.0000000000000000e-01" purity="5.0000000000000000e-01" nType="0">
        <Node pos="l" depth="1" NCoef="0" IVar="29" Cut="5.2877173423767090e+00" cType="1" res="6.5597069263458252e-01" rms="4.7505068778991699e-01" purity="6.5597063302993774e-01" nType="0">
          <Node pos="l" depth="2" NCoef="0" IVar="-1" Cut="0.0000000000000000e+00" cType="1" res="1.2995637953281403e-02" rms="3.1916305422782898e-01" purity="7.0730203390121460e-01" nType="-99"/>
          <Node pos="r" depth="2" NCoef="0" IVar="-1" Cut="0.0000000000000000e+00" cType="1" res="-5.4965067654848099e-02" rms="2.5443893671035767e-01" purity="7.5333952903747559e-02" nType="-99"/>
        </Node>
        <Node pos="r" depth="1" NCoef="0" IVar="23" Cut="3.0011993408203125e+01" cType="1" res="2.4856212735176086e-01" rms="4.3217936158180237e-01" purity="2.4856211245059967e-01" nType="0">
          <Node pos="l" depth="2" NCoef="0" IVar="-1" Cut="0.0000000000000000e+00" cType="1" res="-2.1099952980875969e-02" rms="2.8072309494018555e-01" purity="1.3940085470676422e-01" nType="-99"/>
          <Node pos="r" depth="2" NCoef="0" IVar="-1" Cut="0.0000000000000000e+00" cType="1" res="1.1525212787091732e-02" rms="3.5004690289497375e-01" purity="7.3866206407546997e-01" nType="-99"/>
        </Node>
      </Node>
    </BinaryTree>
    <BinaryTree type="DecisionTree" boostWeight="1.0000000000000000e+00" itree="32">
      <Node pos="s" depth="0" NCoef="0" IVar="4" Cut="7.0751994848251343e-01" cType="1" res="5.0000000000000000e-01" rms="5.0000000000000000e-01" purity="5.0000000000000000e-01" nType="0">
        <Node pos="l" depth="1" NCoef="0" IVar="29" Cut="2.8909337520599365e+00" cType="1" res="6.7023766040802002e-01" rms="4.7012671828269958e-01" purity="6.7023766040802002e-01" nType="0">
          <Node pos="l" depth="2" NCoef="0" IVar="-1" Cut="0.0000000000000000e+00" cType="1" res="1.2187487445771694e-02" rms="3.2965898513793945e-01" purity="7.3978227376937866e-01" nType="-99"/>
          <Node pos="r" depth="2" NCoef="0" IVar="-1" Cut="0.0000000000000000e+00" cType="1" res="-1.8283054232597351e-02" rms="3.4577983617782593e-01" purity="2.3239962756633759e-01" nType="-99"/>
        </Node>
        <Node pos="r" depth="1" NCoef="0" IVar="5" Cut="3.0167195796966553e+00" cType="1" res="1.1518453061580658e-01" rms="3.1924450397491455e-01" purity="1.1518453806638718e-01" nType="0">
          <Node pos="l" depth="2" NCoef="0" IVar="-1" Cut="0.0000000000000000e+00" cType="1" res="-3.0982892960309982e-02" rms="2.2756315767765045e-01" purity="7.1294598281383514e-02" nType="-99"/>
          <Node pos="r" depth="2" NCoef="0" IVar="-1" Cut="0.0000000000000000e+00" cType="1" res="1.4822229743003845e-02" rms="3.7772321701049805e-01" purity="7.5645130872726440e-01" nType="-99"/>
        </Node>
      </Node>
    </BinaryTree>
    <BinaryTree type="DecisionTree" boostWeight="1.0000000000000000e+00" itree="33">
      <Node pos="s" depth="0" NCoef="0" IVar="9" Cut="8.3107966184616089e-01" cType="1" res="0.0000000000000000e+00" rms="0.0000000000000000e+00" purity="5.0000000000000000e-01" nType="0">
        <Node pos="l" depth="1" NCoef="0" IVar="0" Cut="0.0000000000000000e+00" cType="1" res="1.2985232472419739e-01" rms="3.2284966111183167e-01" purity="6.5597063302993774e-01" nType="0">
          <Node pos="l" depth="2" NCoef="0" IVar="-1" Cut="0.0000000000000000e+00" cType="1" res="-7.4033235432580113e-04" rms="3.7814056873321533e-01" purity="2.9045593738555908e-01" nType="-99"/>
          <Node pos="r" depth="2" NCoef="0" IVar="-1" Cut="0.0000000000000000e+00" cType="1" res="1.3719189912080765e-02" rms="2.7991655468940735e-01" purity="8.0329024791717529e-01" nType="-99"/>
        </Node>
        <Node pos="r" depth="1" NCoef="0" IVar="23" Cut="3.0011993408203125e+01" cType="1" res="0.0000000000000000e+00" rms="1.0280289649963379e+00" purity="2.4856211245059967e-01" nType="0">
          <Node pos="l" depth="2" NCoef="0" IVar="-1" Cut="0.0000000000000000e+00" cType="1" res="-1.9395237788558006e-02" rms="2.8009113669395447e-01" purity="1.3940085470676422e-01" nType="-99"/>
          <Node pos="r" depth="2" NCoef="0" IVar="-1" Cut="0.0000000000000000e+00" cType="1" res="1.1009614914655685e-02" rms="3.4881535172462463e-01" purity="7.3866206407546997e-01" nType="-99"/>
        </Node>
      </Node>
    </BinaryTree>
    <BinaryTree type="DecisionTree" boostWeight="1.0000000000000000e+00" itree="34">
      <Node pos="s" depth="0" NCoef="0" IVar="6" Cut="-7.3273479938507080e-03" cType="1" res="5.0000000000000000e-01" rms="5.0000000000000000e-01" purity="5.0000000000000000e-01" nType="0">
        <Node pos="l" depth="1" NCoef="0" IVar="2" Cut="1.5291830062866211e+01" cType="1" res="1.8465211987495422e-01" rms="3.8801509141921997e-01" purity="1.8465211987495422e-01" nType="0">
          <Node pos="l" depth="2" NCoef="0" IVar="-1" Cut="0.0000000000000000e+00" cType="1" res="-2.1841177716851234e-02" rms="3.8913723826408386e-01" purity="2.6551702618598938e-01" nType="-99"/>
          <Node pos="r" depth="2" NCoef="0" IVar="-1" Cut="0.0000000000000000e+00" cType="1" res="-8.9458152651786804e-03" rms="2.9624527692794800e-01" purity="1.5939952433109283e-01" nType="-99"/>
        </Node>
        <Node pos="r" depth="1" NCoef="0" IVar="6" Cut="4.6901004388928413e-03" cType="1" res="6.1032491922378540e-01" rms="4.8767656087875366e-01" purity="6.1032485961914062e-01" nType="0">
          <Node pos="l" depth="2" NCoef="0" IVar="-1" Cut="0.0000000000000000e+00" cType="1" res="1.5037273988127708e-02" rms="2.5058001279830933e-01" purity="8.5141015052795410e-01" nType="-99"/>
          <Node pos="r" depth="2" NCoef="0" IVar="-1" Cut="0.0000000000000000e+00" cType="1" res="-1.0281983762979507e-02" rms="3.3415183424949646e-01" purity="2.0924226939678192e-01" nType="-99"/>
        </Node>
      </Node>
    </BinaryTree>
    <BinaryTree type="DecisionTree" boostWeight="1.0000000000000000e+00" itree="35">
      <Node pos="s" depth="0" NCoef="0" IVar="5" Cut="8.3316695690155029e-01" cType="1" res="5.0000000000000000e-01" rms="5.0000000000000000e-01" purity="5.0000000000000000e-01" nType="0">
        <Node pos="l" depth="1" NCoef="0" IVar="3" Cut="1.5438274145126343e+00" cType="1" res="0.0000000000000000e+00" rms="0.0000000000000000e+00" purity="2.0662005245685577e-01" nType="0">
          <Node pos="l" depth="2" NCoef="0" IVar="-1" Cut="0.0000000000000000e+00" cType="1" res="-1.2366332113742828e-02" rms="2.8950768709182739e-01" purity="1.7193683981895447e-01" nType="-99"/>
          <Node pos="r" depth="2" NCoef="0" IVar="-1" Cut="0.0000000000000000e+00" cType="1" res="1.0282912291586399e-02" rms="3.2212126255035400e-01" purity="5.1992458105087280e-01" nType="-99"/>
        </Node>
        <Node pos="r" depth="1" NCoef="0" IVar="4" Cut="7.4353295564651489e-01" cType="1" res="6.5331542491912842e-01" rms="4.7591426968574524e-01" purity="6.5331536531448364e-01" nType="0">
          <Node pos="l" depth="2" NCoef="0" IVar="-1" Cut="0.0000000000000000e+00" cType="1" res="1.2376335449516773e-02" rms="3.1815761327743530e-01" purity="7.8988587856292725e-01" nType="-99"/>
          <Node pos="r" depth="2" NCoef="0" IVar="-1" Cut="0.0000000000000000e+00" cType="1" res="-9.3576675280928612e-03" rms="2.8426665067672729e-01" purity="1.6221164166927338e-01" nType="-99"/>
        </Node>
      </Node>
    </BinaryTree>
    <BinaryTree type="DecisionTree" boostWeight="1.0000000000000000e+00" itree="36">
      <Node pos="s" depth="0" NCoef="0" IVar="29" Cut="2.5314161777496338e+00" cType="1" res="0.0000000000000000e+00" rms="0.0000000000000000e+00" purity="5.0000000000000000e-01" nType="0">
        <Node pos="l" depth="1" NCoef="0" IVar="6" Cut="-1.4582843519747257e-02" cType="1" res="0.0000000000000000e+00" rms="0.0000000000000000e+00" purity="5.8847486972808838e-01" nType="0">
          <Node pos="l" depth="2" NCoef="0" IVar="-1" Cut="0.0000000000000000e+00" cType="1" res="-1.2492786161601543e-02" rms="3.4016567468643188e-01" purity="1.9801282882690430e-01" nType="-99"/>
          <Node pos="r" depth="2" NCoef="0" IVar="-1" Cut="0.0000000000000000e+00" cType="1" res="1.2466795742511749e-02" rms="3.0219823122024536e-01" purity="6.8404799699783325e-01" nType="-99"/>
        </Node>
        <Node pos="r" depth="1" NCoef="0" IVar="29" Cut="6.0317130088806152e+00" cType="1" res="0.0000000000000000e+00" rms="5.6135769495961600e+14" purity="1.6494755446910858e-01" nType="0">
          <Node pos="l" depth="2" NCoef="0" IVar="-1" Cut="0.0000000000000000e+00" cType="1" res="-4.5677311718463898e-03" rms="3.1930646300315857e-01" purity="2.6978275179862976e-01" nType="-99"/>
          <Node pos="r" depth="2" NCoef="0" IVar="-1" Cut="0.0000000000000000e+00" cType="1" res="-7.1081802248954773e-02" rms="2.0719282329082489e-01" purity="3.6996524780988693e-02" nType="-99"/>
        </Node>
      </Node>
    </BinaryTree>
    <BinaryTree type="DecisionTree" boostWeight="1.0000000000000000e+00" itree="37">
      <Node pos="s" depth="0" NCoef="0" IVar="6" Cut="1.1416015215218067e-02" cType="1" res="0.0000000000000000e+00" rms="0.0000000000000000e+00" purity="5.0000000000000000e-01" nType="0">
        <Node pos="l" depth="1" NCoef="0" IVar="6" Cut="-5.5919517762959003e-03" cType="1" res="7.5080597917203542e+34" rms="0.0000000000000000e+00" purity="6.0148185491561890e-01" nType="0">
          <Node pos="l" depth="2" NCoef="0" IVar="-1" Cut="0.0000000000000000e+00" cType="1" res="-1.0112265124917030e-02" rms="3.2579225301742554e-01" purity="1.9850751757621765e-01" nType="-99"/>
          <Node pos="r" depth="2" NCoef="0" IVar="-1" Cut="0.0000000000000000e+00" cType="1" res="1.4280050992965698e-02" rms="2.5927212834358215e-01" purity="8.2425838708877563e-01" nType="-99"/>
        </Node>
        <Node pos="r" depth="1" NCoef="0" IVar="2" Cut="1.3019088745117188e+01" cType="1" res="5.4802227363729424e+31" rms="0.0000000000000000e+00" purity="1.6901579499244690e-01" nType="0">
          <Node pos="l" depth="2" NCoef="0" IVar="-1" Cut="0.0000000000000000e+00" cType="1" res="-3.0983222648501396e-02" rms="3.8260319828987122e-01" purity="2.2917552292346954e-01" nType="-99"/>
          <Node pos="r" depth="2" NCoef="0" IVar="-1" Cut="0.0000000000000000e+00" cType="1" res="-9.5948120579123497e-03" rms="2.9755699634552002e-01" purity="1.5431015193462372e-01" nType="-99"/>
        </Node>
      </Node>
    </BinaryTree>
    <BinaryTree type="DecisionTree" boostWeight="1.0000000000000000e+00" itree="38">
      <Node pos="s" depth="0" NCoef="0" IVar="9" Cut="8.8337248563766479e-01" cType="1" res="5.0000000000000000e-01" rms="5.0000000000000000e-01" purity="5.0000000000000000e-01" nType="0">
        <Node pos="l" depth="1" NCoef="0" IVar="23" Cut="2.3013492584228516e+01" cType="1" res="6.6897581178880000e+12" rms="0.0000000000000000e+00" purity="6.2478572130203247e-01" nType="0">
          <Node pos="l" depth="2" NCoef="0" IVar="-1" Cut="0.0000000000000000e+00" cType="1" res="1.7637455603107810e-03" rms="3.3124268054962158e-01" purity="3.8478857278823853e-01" nType="-99"/>
          <Node pos="r" depth="2" NCoef="0" IVar="-1" Cut="0.0000000000000000e+00" cType="1" res="1.3395810499787331e-02" rms="2.9106101393699646e-01" purity="7.7983051538467407e-01" nType="-99"/>
        </Node>
        <Node pos="r" depth="1" NCoef="0" IVar="23" Cut="3.3007495880126953e+01" cType="1" res="1.6068732293206267e-05" rms="4.4831126928329468e-01" purity="1.6612017154693604e-01" nType="0">
          <Node pos="l" depth="2" NCoef="0" IVar="-1" Cut="0.0000000000000000e+00" cType="1" res="-2.1524433046579361e-02" rms="2.7031996846199036e-01" purity="1.1930350214242935e-01" nType="-99"/>
          <Node pos="r" depth="2" NCoef="0" IVar="-1" Cut="0.0000000000000000e+00" cType="1" res="1.0805563069880009e-02" rms="3.7236651778221130e-01" purity="7.3812896013259888e-01" nType="-99"/>
        </Node>
      </Node>
    </BinaryTree>
    <BinaryTree type="DecisionTree" boostWeight="1.0000000000000000e+00" itree="39">
      <Node pos="s" depth="0" NCoef="0" IVar="6" Cut="1.3834513723850250e-02" cType="1" res="0.0000000000000000e+00" rms="0.0000000000000000e+00" purity="5.0000000000000000e-01" nType="0">
        <Node pos="l" depth="1" NCoef="0" IVar="6" Cut="-5.4919864051043987e-03" cType="1" res="6.2770532843520000e+12" rms="0.0000000000000000e+00" purity="5.9717851877212524e-01" nType="0">
          <Node pos="l" depth="2" NCoef="0" IVar="-1" Cut="0.0000000000000000e+00" cType="1" res="-9.3951029703021049e-03" rms="3.2506668567657471e-01" purity="1.9954915344715118e-01" nType="-99"/>
          <Node pos="r" depth="2" NCoef="0" IVar="-1" Cut="0.0000000000000000e+00" cType="1" res="1.3843613676726818e-02" rms="2.6183563470840454e-01" purity="8.1326460838317871e-01" nType="-99"/>
        </Node>
        <Node pos="r" depth="1" NCoef="0" IVar="2" Cut="1.3019088745117188e+01" cType="1" res="2.1618172624896000e+13" rms="0.0000000000000000e+00" purity="1.6235569119453430e-01" nType="0">
          <Node pos="l" depth="2" NCoef="0" IVar="-1" Cut="0.0000000000000000e+00" cType="1" res="-3.3237241208553314e-02" rms="3.7281921505928040e-01" purity="2.0947989821434021e-01" nType="-99"/>
          <Node pos="r" depth="2" NCoef="0" IVar="-1" Cut="0.0000000000000000e+00" cType="1" res="-9.6663068979978561e-03" rms="2.9502213001251221e-01" purity="1.5117165446281433e-01" nType="-99"/>
        </Node>
      </Node>
    </BinaryTree>
    <BinaryTree type="DecisionTree" boostWeight="1.0000000000000000e+00" itree="40">
      <Node pos="s" depth="0" NCoef="0" IVar="9" Cut="8.2425886392593384e-01" cType="1" res="0.0000000000000000e+00" rms="0.0000000000000000e+00" purity="5.0000000000000000e-01" nType="0">
        <Node pos="l" depth="1" NCoef="0" IVar="23" Cut="2.3013492584228516e+01" cType="1" res="2.0059770000000000e+06" rms="0.0000000000000000e+00" purity="6.5955621004104614e-01" nType="0">
          <Node pos="l" depth="2" NCoef="0" IVar="-1" Cut="0.0000000000000000e+00" cType="1" res="3.4030072856694460e-03" rms="3.3629345893859863e-01" purity="4.3042066693305969e-01" nType="-99"/>
          <Node pos="r" depth="2" NCoef="0" IVar="-1" Cut="0.0000000000000000e+00" cType="1" res="1.3880392536520958e-02" rms="2.7925172448158264e-01" purity="8.1154865026473999e-01" nType="-99"/>
        </Node>
        <Node pos="r" depth="1" NCoef="0" IVar="23" Cut="2.9013492584228516e+01" cType="1" res="4.2407102829322696e-10" rms="1.8225240694391687e-07" purity="2.6157537102699280e-01" nType="0">
          <Node pos="l" depth="2" NCoef="0" IVar="-1" Cut="0.0000000000000000e+00" cType="1" res="-1.7651444301009178e-02" rms="2.7288496494293213e-01" purity="1.3654553890228271e-01" nType="-99"/>
          <Node pos="r" depth="2" NCoef="0" IVar="-1" Cut="0.0000000000000000e+00" cType="1" res="9.7695346921682358e-03" rms="3.3548998832702637e-01" purity="7.1016490459442139e-01" nType="-99"/>
        </Node>
      </Node>
    </BinaryTree>
    <BinaryTree type="DecisionTree" boostWeight="1.0000000000000000e+00" itree="41">
      <Node pos="s" depth="0" NCoef="0" IVar="29" Cut="2.2467980384826660e+00" cType="1" res="5.0000000000000000e-01" rms="5.0000000000000000e-01" purity="5.0000000000000000e-01" nType="0">
        <Node pos="l" depth="1" NCoef="0" IVar="6" Cut="1.2625264935195446e-02" cType="1" res="5.9350842237472534e-01" rms="4.9117836356163025e-01" purity="5.9350842237472534e-01" nType="0">
          <Node pos="l" depth="2" NCoef="0" IVar="-1" Cut="0.0000000000000000e+00" cType="1" res="1.2092756107449532e-02" rms="2.9153180122375488e-01" purity="6.9148153066635132e-01" nType="-99"/>
          <Node pos="r" depth="2" NCoef="0" IVar="-1" Cut="0.0000000000000000e+00" cType="1" res="-9.4429124146699905e-03" rms="3.4649261832237244e-01" purity="2.0702840387821198e-01" nType="-99"/>
        </Node>
        <Node pos="r" depth="1" NCoef="0" IVar="27" Cut="1.1007995605468750e+01" cType="1" res="1.9238196313381195e-01" rms="3.9417144656181335e-01" purity="1.9238196313381195e-01" nType="0">
          <Node pos="l" depth="2" NCoef="0" IVar="-1" Cut="0.0000000000000000e+00" cType="1" res="-6.1407214961946011e-03" rms="2.9659685492515564e-01" purity="2.4344559013843536e-01" nType="-99"/>
          <Node pos="r" depth="2" NCoef="0" IVar="-1" Cut="0.0000000000000000e+00" cType="1" res="-8.2373917102813721e-02" rms="1.9821506738662720e-01" purity="2.8028989210724831e-02" nType="-99"/>
        </Node>
      </Node>
    </BinaryTree>
    <BinaryTree type="DecisionTree" boostWeight="1.0000000000000000e+00" itree="42">
      <Node pos="s" depth="0" NCoef="0" IVar="5" Cut="7.6907962560653687e-01" cType="1" res="5.0000000000000000e-01" rms="5.0000000000000000e-01" purity="5.0000000000000000e-01" nType="0">
        <Node pos="l" depth="1" NCoef="0" IVar="4" Cut="-7.7049888670444489e-02" cType="1" res="1.8135274946689606e-01" rms="3.8531017303466797e-01" purity="1.8135274946689606e-01" nType="0">
          <Node pos="l" depth="2" NCoef="0" IVar="-1" Cut="0.0000000000000000e+00" cType="1" res="9.9910004064440727e-03" rms="4.2196136713027954e-01" purity="5.3036069869995117e-01" nType="-99"/>
          <Node pos="r" depth="2" NCoef="0" IVar="-1" Cut="0.0000000000000000e+00" cType="1" res="-1.4133204706013203e-02" rms="2.6733252406120300e-01" purity="1.5152883529663086e-01" nType="-99"/>
        </Node>
        <Node pos="r" depth="1" NCoef="0" IVar="4" Cut="7.4353295564651489e-01" cType="1" res="6.3798612356185913e-01" rms="4.8058280348777771e-01" purity="6.3798612356185913e-01" nType="0">
          <Node pos="l" depth="2" NCoef="0" IVar="-1" Cut="0.0000000000000000e+00" cType="1" res="1.1503673158586025e-02" rms="3.1079387664794922e-01" purity="7.7911782264709473e-01" nType="-99"/>
          <Node pos="r" depth="2" NCoef="0" IVar="-1" Cut="0.0000000000000000e+00" cType="1" res="-9.2153931036591530e-03" rms="2.7018496394157410e-01" purity="1.5069083869457245e-01" nType="-99"/>
        </Node>
      </Node>
    </BinaryTree>
    <BinaryTree type="DecisionTree" boostWeight="1.0000000000000000e+00" itree="43">
      <Node pos="s" depth="0" NCoef="0" IVar="6" Cut="-1.4582843519747257e-02" cType="1" res="5.0000000000000000e-01" rms="5.0000000000000000e-01" purity="5.0000000000000000e-01" nType="0">
        <Node pos="l" depth="1" NCoef="0" IVar="2" Cut="1.5291830062866211e+01" cType="1" res="1.6045975685119629e-01" rms="3.6703190207481384e-01" purity="1.6045975685119629e-01" nType="0">
          <Node pos="l" depth="2" NCoef="0" IVar="-1" Cut="0.0000000000000000e+00" cType="1" res="-2.8384951874613762e-02" rms="3.7130072712898254e-01" purity="2.1232105791568756e-01" nType="-99"/>
          <Node pos="r" depth="2" NCoef="0" IVar="-1" Cut="0.0000000000000000e+00" cType="1" res="-8.9425826445221901e-03" rms="2.8350147604942322e-01" purity="1.4570648968219757e-01" nType="-99"/>
        </Node>
        <Node pos="r" depth="1" NCoef="0" IVar="6" Cut="4.4074733741581440e-03" cType="1" res="5.9670954942703247e-01" rms="4.9055811762809753e-01" purity="5.9670954942703247e-01" nType="0">
          <Node pos="l" depth="2" NCoef="0" IVar="-1" Cut="0.0000000000000000e+00" cType="1" res="1.3486909680068493e-02" rms="2.5582733750343323e-01" purity="8.1367176771163940e-01" nType="-99"/>
          <Node pos="r" depth="2" NCoef="0" IVar="-1" Cut="0.0000000000000000e+00" cType="1" res="-7.8643653541803360e-03" rms="3.2808732986450195e-01" purity="2.1245886385440826e-01" nType="-99"/>
        </Node>
      </Node>
    </BinaryTree>
    <BinaryTree type="DecisionTree" boostWeight="1.0000000000000000e+00" itree="44">
      <Node pos="s" depth="0" NCoef="0" IVar="9" Cut="8.3107966184616089e-01" cType="1" res="5.0000000000000000e-01" rms="5.0000000000000000e-01" purity="5.0000000000000000e-01" nType="0">
        <Node pos="l" depth="1" NCoef="0" IVar="23" Cut="2.3013492584228516e+01" cType="1" res="6.5597069263458252e-01" rms="4.7505068778991699e-01" purity="6.5597063302993774e-01" nType="0">
          <Node pos="l" depth="2" NCoef="0" IVar="-1" Cut="0.0000000000000000e+00" cType="1" res="3.0355853959918022e-03" rms="3.3129349350929260e-01" purity="4.2437285184860229e-01" nType="-99"/>
          <Node pos="r" depth="2" NCoef="0" IVar="-1" Cut="0.0000000000000000e+00" cType="1" res="1.3324320316314697e-02" rms="2.7654451131820679e-01" purity="8.0854433774948120e-01" nType="-99"/>
        </Node>
        <Node pos="r" depth="1" NCoef="0" IVar="23" Cut="3.1010494232177734e+01" cType="1" res="2.4856212735176086e-01" rms="4.3217936158180237e-01" purity="2.4856211245059967e-01" nType="0">
          <Node pos="l" depth="2" NCoef="0" IVar="-1" Cut="0.0000000000000000e+00" cType="1" res="-1.3658856973052025e-02" rms="2.7625575661659241e-01" purity="1.5199115872383118e-01" nType="-99"/>
          <Node pos="r" depth="2" NCoef="0" IVar="-1" Cut="0.0000000000000000e+00" cType="1" res="1.0231163352727890e-02" rms="3.2503879070281982e-01" purity="7.7826112508773804e-01" nType="-99"/>
        </Node>
      </Node>
    </BinaryTree>
    <BinaryTree type="DecisionTree" boostWeight="1.0000000000000000e+00" itree="45">
      <Node pos="s" depth="0" NCoef="0" IVar="28" Cut="2.2010494232177734e+01" cType="1" res="5.0000000000000000e-01" rms="5.0000000000000000e-01" purity="5.0000000000000000e-01" nType="0">
        <Node pos="l" depth="1" NCoef="0" IVar="23" Cut="2.4002998352050781e+01" cType="1" res="5.8423644304275513e-01" rms="4.9285313487052917e-01" purity="5.8423644304275513e-01" nType="0">
          <Node pos="l" depth="2" NCoef="0" IVar="-1" Cut="0.0000000000000000e+00" cType="1" res="2.6629872154444456e-03" rms="3.2057672739028931e-01" purity="3.7858971953392029e-01" nType="-99"/>
          <Node pos="r" depth="2" NCoef="0" IVar="-1" Cut="0.0000000000000000e+00" cType="1" res="1.2673423625528812e-02" rms="2.8592982888221741e-01" purity="7.9037010669708252e-01" nType="-99"/>
        </Node>
        <Node pos="r" depth="1" NCoef="0" IVar="23" Cut="3.6002998352050781e+01" cType="1" res="1.0994126647710800e-01" rms="3.1281653046607971e-01" purity="1.0994126647710800e-01" nType="0">
          <Node pos="l" depth="2" NCoef="0" IVar="-1" Cut="0.0000000000000000e+00" cType="1" res="-3.4452106803655624e-02" rms="2.3779623210430145e-01" purity="8.6576387286186218e-02" nType="-99"/>
          <Node pos="r" depth="2" NCoef="0" IVar="-1" Cut="0.0000000000000000e+00" cType="1" res="1.1856126599013805e-02" rms="3.3172690868377686e-01" purity="8.0963742733001709e-01" nType="-99"/>
        </Node>
      </Node>
    </BinaryTree>
    <BinaryTree type="DecisionTree" boostWeight="1.0000000000000000e+00" itree="46">
      <Node pos="s" depth="0" NCoef="0" IVar="6" Cut="-1.4582843519747257e-02" cType="1" res="5.0000000000000000e-01" rms="5.0000000000000000e-01" purity="5.0000000000000000e-01" nType="0">
        <Node pos="l" depth="1" NCoef="0" IVar="2" Cut="1.5291830062866211e+01" cType="1" res="1.6045975685119629e-01" rms="3.6703190207481384e-01" purity="1.6045975685119629e-01" nType="0">
          <Node pos="l" depth="2" NCoef="0" IVar="-1" Cut="0.0000000000000000e+00" cType="1" res="-2.6541849598288536e-02" rms="3.7059125304222107e-01" purity="2.1232105791568756e-01" nType="-99"/>
          <Node pos="r" depth="2" NCoef="0" IVar="-1" Cut="0.0000000000000000e+00" cType="1" res="-8.4280800074338913e-03" rms="2.8240850567817688e-01" purity="1.4570648968219757e-01" nType="-99"/>
        </Node>
        <Node pos="r" depth="1" NCoef="0" IVar="6" Cut="5.8910846710205078e-03" cType="1" res="5.9670954942703247e-01" rms="4.9055811762809753e-01" purity="5.9670954942703247e-01" nType="0">
          <Node pos="l" depth="2" NCoef="0" IVar="-1" Cut="0.0000000000000000e+00" cType="1" res="1.2982018291950226e-02" rms="2.5679358839988708e-01" purity="8.0633616447448730e-01" nType="-99"/>
          <Node pos="r" depth="2" NCoef="0" IVar="-1" Cut="0.0000000000000000e+00" cType="1" res="-8.9549012482166290e-03" rms="3.2489681243896484e-01" purity="1.9630934298038483e-01" nType="-99"/>
        </Node>
      </Node>
    </BinaryTree>
    <BinaryTree type="DecisionTree" boostWeight="1.0000000000000000e+00" itree="47">
      <Node pos="s" depth="0" NCoef="0" IVar="9" Cut="9.1975015401840210e-01" cType="1" res="5.0000000000000000e-01" rms="5.0000000000000000e-01" purity="5.0000000000000000e-01" nType="0">
        <Node pos="l" depth="1" NCoef="0" IVar="29" Cut="2.5314161777496338e+00" cType="1" res="6.0312730073928833e-01" rms="4.8924916982650757e-01" purity="6.0312736034393311e-01" nType="0">
          <Node pos="l" depth="2" NCoef="0" IVar="-1" Cut="0.0000000000000000e+00" cType="1" res="1.1063426733016968e-02" rms="3.0034014582633972e-01" purity="6.8816709518432617e-01" nType="-99"/>
          <Node pos="r" depth="2" NCoef="0" IVar="-1" Cut="0.0000000000000000e+00" cType="1" res="-1.0723865590989590e-02" rms="2.9534411430358887e-01" purity="2.2332891821861267e-01" nType="-99"/>
        </Node>
        <Node pos="r" depth="1" NCoef="0" IVar="4" Cut="1.8534468486905098e-02" cType="1" res="1.2626005709171295e-01" rms="3.3214223384857178e-01" purity="1.2626007199287415e-01" nType="0">
          <Node pos="l" depth="2" NCoef="0" IVar="-1" Cut="0.0000000000000000e+00" cType="1" res="-2.8363076969981194e-02" rms="3.5239568352699280e-01" purity="1.9284528493881226e-01" nType="-99"/>
          <Node pos="r" depth="2" NCoef="0" IVar="-1" Cut="0.0000000000000000e+00" cType="1" res="-1.2622085399925709e-02" rms="2.3503477871417999e-01" purity="1.0932130366563797e-01" nType="-99"/>
        </Node>
      </Node>
    </BinaryTree>
    <BinaryTree type="DecisionTree" boostWeight="1.0000000000000000e+00" itree="48">
      <Node pos="s" depth="0" NCoef="0" IVar="5" Cut="8.3316695690155029e-01" cType="1" res="5.0000000000000000e-01" rms="5.0000000000000000e-01" purity="5.0000000000000000e-01" nType="0">
        <Node pos="l" depth="1" NCoef="0" IVar="0" Cut="1.1000000000000000e+01" cType="1" res="-2.4963634088635445e-02" rms="2.8534638881683350e-01" purity="2.0662005245685577e-01" nType="0">
          <Node pos="l" depth="2" NCoef="0" IVar="-1" Cut="0.0000000000000000e+00" cType="1" res="-4.8631118261255324e-04" rms="2.8646415472030640e-01" purity="2.2601482272148132e-01" nType="-99"/>
          <Node pos="r" depth="2" NCoef="0" IVar="-1" Cut="0.0000000000000000e+00" cType="1" res="-2.4071801453828812e-02" rms="2.7271509170532227e-01" purity="1.5351858735084534e-01" nType="-99"/>
        </Node>
        <Node pos="r" depth="1" NCoef="0" IVar="9" Cut="9.6813231706619263e-01" cType="1" res="6.5331542491912842e-01" rms="4.7591426968574524e-01" purity="6.5331536531448364e-01" nType="0">
          <Node pos="l" depth="2" NCoef="0" IVar="-1" Cut="0.0000000000000000e+00" cType="1" res="1.1009627021849155e-02" rms="2.9591831564903259e-01" purity="7.1509009599685669e-01" nType="-99"/>
          <Node pos="r" depth="2" NCoef="0" IVar="-1" Cut="0.0000000000000000e+00" cType="1" res="-2.3920092731714249e-02" rms="2.9801076650619507e-01" purity="1.4636673033237457e-01" nType="-99"/>
        </Node>
      </Node>
    </BinaryTree>
    <BinaryTree type="DecisionTree" boostWeight="1.0000000000000000e+00" itree="49">
      <Node pos="s" depth="0" NCoef="0" IVar="6" Cut="1.5043763443827629e-02" cType="1" res="5.0000000000000000e-01" rms="5.0000000000000000e-01" purity="5.0000000000000000e-01" nType="0">
        <Node pos="l" depth="1" NCoef="0" IVar="6" Cut="-5.9325271286070347e-03" cType="1" res="5.9494954347610474e-01" rms="4.9090179800987244e-01" purity="5.9494960308074951e-01" nType="0">
          <Node pos="l" depth="2" NCoef="0" IVar="-1" Cut="0.0000000000000000e+00" cType="1" res="-8.6098751053214073e-03" rms="3.1798478960990906e-01" purity="1.9568705558776855e-01" nType="-99"/>
          <Node pos="r" depth="2" NCoef="0" IVar="-1" Cut="0.0000000000000000e+00" cType="1" res="1.2668153271079063e-02" rms="2.5493872165679932e-01" purity="8.0523973703384399e-01" nType="-99"/>
        </Node>
        <Node pos="r" depth="1" NCoef="0" IVar="2" Cut="1.3019088745117188e+01" cType="1" res="1.5970639884471893e-01" rms="3.6633354425430298e-01" purity="1.5970641374588013e-01" nType="0">
          <Node pos="l" depth="2" NCoef="0" IVar="-1" Cut="0.0000000000000000e+00" cType="1" res="-3.0158964917063713e-02" rms="3.6928784847259521e-01" purity="2.0493640005588531e-01" nType="-99"/>
          <Node pos="r" depth="2" NCoef="0" IVar="-1" Cut="0.0000000000000000e+00" cType="1" res="-7.8495992347598076e-03" rms="2.9048517346382141e-01" purity="1.4901912212371826e-01" nType="-99"/>
        </Node>
      </Node>
    </BinaryTree>
    <BinaryTree type="DecisionTree" boostWeight="1.0000000000000000e+00" itree="50">
      <Node pos="s" depth="0" NCoef="0" IVar="29" Cut="2.0071196556091309e+00" cType="1" res="5.0000000000000000e-01" rms="5.0000000000000000e-01" purity="5.0000000000000000e-01" nType="0">
        <Node pos="l" depth="1" NCoef="0" IVar="6" Cut="-1.5187468379735947e-02" cType="1" res="5.9816902875900269e-01" rms="4.9026814103126526e-01" purity="5.9816902875900269e-01" nType="0">
          <Node pos="l" depth="2" NCoef="0" IVar="-1" Cut="0.0000000000000000e+00" cType="1" res="-8.8882725685834885e-03" rms="3.3663487434387207e-01" purity="2.0114177465438843e-01" nType="-99"/>
          <Node pos="r" depth="2" NCoef="0" IVar="-1" Cut="0.0000000000000000e+00" cType="1" res="1.1234026402235031e-02" rms="2.8391894698143005e-01" purity="6.9168740510940552e-01" nType="-99"/>
        </Node>
        <Node pos="r" depth="1" NCoef="0" IVar="29" Cut="6.0350594520568848e+00" cType="1" res="2.1629159152507782e-01" rms="4.1171535849571228e-01" purity="2.1629157662391663e-01" nType="0">
          <Node pos="l" depth="2" NCoef="0" IVar="-1" Cut="0.0000000000000000e+00" cType="1" res="-1.6196648357436061e-03" rms="3.0885401368141174e-01" purity="3.1964769959449768e-01" nType="-99"/>
          <Node pos="r" depth="2" NCoef="0" IVar="-1" Cut="0.0000000000000000e+00" cType="1" res="-6.1032727360725403e-02" rms="2.0137374103069305e-01" purity="3.7023089826107025e-02" nType="-99"/>
        </Node>
      </Node>
    </BinaryTree>
    <BinaryTree type="DecisionTree" boostWeight="1.0000000000000000e+00" itree="51">
      <Node pos="s" depth="0" NCoef="0" IVar="6" Cut="7.7882679179310799e-03" cType="1" res="5.0000000000000000e-01" rms="5.0000000000000000e-01" purity="5.0000000000000000e-01" nType="0">
        <Node pos="l" depth="1" NCoef="0" IVar="6" Cut="-4.0190308354794979e-03" cType="1" res="6.0783946514129639e-01" rms="4.8823216557502747e-01" purity="6.0783946514129639e-01" nType="0">
          <Node pos="l" depth="2" NCoef="0" IVar="-1" Cut="0.0000000000000000e+00" cType="1" res="-5.7906061410903931e-03" rms="3.2088473439216614e-01" purity="2.2112174332141876e-01" nType="-99"/>
          <Node pos="r" depth="2" NCoef="0" IVar="-1" Cut="0.0000000000000000e+00" cType="1" res="1.3023789972066879e-02" rms="2.3353590071201324e-01" purity="8.5346150398254395e-01" nType="-99"/>
        </Node>
        <Node pos="r" depth="1" NCoef="0" IVar="6" Cut="4.5766767114400864e-02" cType="1" res="1.8322882056236267e-01" rms="3.8685399293899536e-01" purity="1.8322883546352386e-01" nType="0">
          <Node pos="l" depth="2" NCoef="0" IVar="-1" Cut="0.0000000000000000e+00" cType="1" res="-4.8378075007349253e-04" rms="3.4889325499534607e-01" purity="2.4508804082870483e-01" nType="-99"/>
          <Node pos="r" depth="2" NCoef="0" IVar="-1" Cut="0.0000000000000000e+00" cType="1" res="-3.3541671931743622e-02" rms="2.6268699765205383e-01" purity="9.6170574426651001e-02" nType="-99"/>
        </Node>
      </Node>
    </BinaryTree>
    <BinaryTree type="DecisionTree" boostWeight="1.0000000000000000e+00" itree="52">
      <Node pos="s" depth="0" NCoef="0" IVar="9" Cut="8.1061726808547974e-01" cType="1" res="5.0000000000000000e-01" rms="5.0000000000000000e-01" purity="5.0000000000000000e-01" nType="0">
        <Node pos="l" depth="1" NCoef="0" IVar="23" Cut="2.2008995056152344e+01" cType="1" res="6.6611963510513306e-01" rms="4.7159758210182190e-01" purity="6.6611957550048828e-01" nType="0">
          <Node pos="l" depth="2" NCoef="0" IVar="-1" Cut="0.0000000000000000e+00" cType="1" res="7.8207330079749227e-04" rms="3.2404169440269470e-01" purity="3.8656145334243774e-01" nType="-99"/>
          <Node pos="r" depth="2" NCoef="0" IVar="-1" Cut="0.0000000000000000e+00" cType="1" res="1.2362105771899223e-02" rms="2.7729332447052002e-01" purity="7.8625828027725220e-01" nType="-99"/>
        </Node>
        <Node pos="r" depth="1" NCoef="0" IVar="23" Cut="2.9013492584228516e+01" cType="1" res="2.8726753592491150e-01" rms="4.5248746871948242e-01" purity="2.8726753592491150e-01" nType="0">
          <Node pos="l" depth="2" NCoef="0" IVar="-1" Cut="0.0000000000000000e+00" cType="1" res="-1.2859715148806572e-02" rms="2.7072930335998535e-01" purity="1.5343831479549408e-01" nType="-99"/>
          <Node pos="r" depth="2" NCoef="0" IVar="-1" Cut="0.0000000000000000e+00" cType="1" res="9.3249212950468063e-03" rms="3.0497542023658752e-01" purity="7.3869597911834717e-01" nType="-99"/>
        </Node>
      </Node>
    </BinaryTree>
    <BinaryTree type="DecisionTree" boostWeight="1.0000000000000000e+00" itree="53">
      <Node pos="s" depth="0" NCoef="0" IVar="4" Cut="7.3549485206604004e-01" cType="1" res="5.0000000000000000e-01" rms="5.0000000000000000e-01" purity="5.0000000000000000e-01" nType="0">
        <Node pos="l" depth="1" NCoef="0" IVar="5" Cut="7.1219956874847412e-01" cType="1" res="0.0000000000000000e+00" rms="0.0000000000000000e+00" purity="6.5171694755554199e-01" nType="0">
          <Node pos="l" depth="2" NCoef="0" IVar="-1" Cut="0.0000000000000000e+00" cType="1" res="-5.2982419729232788e-03" rms="3.2486587762832642e-01" purity="2.4954716861248016e-01" nType="-99"/>
          <Node pos="r" depth="2" NCoef="0" IVar="-1" Cut="0.0000000000000000e+00" cType="1" res="1.0330997407436371e-02" rms="3.0168712139129639e-01" purity="7.7132481336593628e-01" nType="-99"/>
        </Node>
        <Node pos="r" depth="1" NCoef="0" IVar="5" Cut="3.5934846401214600e+00" cType="1" res="1.0492991656064987e-01" rms="3.0646309256553650e-01" purity="1.0492990911006927e-01" nType="0">
          <Node pos="l" depth="2" NCoef="0" IVar="-1" Cut="0.0000000000000000e+00" cType="1" res="-2.4796672165393829e-02" rms="2.1405391395092010e-01" purity="6.9471314549446106e-02" nType="-99"/>
          <Node pos="r" depth="2" NCoef="0" IVar="-1" Cut="0.0000000000000000e+00" cType="1" res="1.5525874681770802e-02" rms="3.4518203139305115e-01" purity="7.8816252946853638e-01" nType="-99"/>
        </Node>
      </Node>
    </BinaryTree>
    <BinaryTree type="DecisionTree" boostWeight="1.0000000000000000e+00" itree="54">
      <Node pos="s" depth="0" NCoef="0" IVar="29" Cut="2.0071196556091309e+00" cType="1" res="5.0000000000000000e-01" rms="5.0000000000000000e-01" purity="5.0000000000000000e-01" nType="0">
        <Node pos="l" depth="1" NCoef="0" IVar="6" Cut="-2.7279959991574287e-02" cType="1" res="5.9816902875900269e-01" rms="4.9026814103126526e-01" purity="5.9816902875900269e-01" nType="0">
          <Node pos="l" depth="2" NCoef="0" IVar="-1" Cut="0.0000000000000000e+00" cType="1" res="-1.3604685664176941e-02" rms="3.1859192252159119e-01" purity="1.7245128750801086e-01" nType="-99"/>
          <Node pos="r" depth="2" NCoef="0" IVar="-1" Cut="0.0000000000000000e+00" cType="1" res="1.0630376636981964e-02" rms="2.8695085644721985e-01" purity="6.7175579071044922e-01" nType="-99"/>
        </Node>
        <Node pos="r" depth="1" NCoef="0" IVar="27" Cut="8.0024986267089844e+00" cType="1" res="2.1629159152507782e-01" rms="4.1171535849571228e-01" purity="2.1629157662391663e-01" nType="0">
          <Node pos="l" depth="2" NCoef="0" IVar="-1" Cut="0.0000000000000000e+00" cType="1" res="-1.4808159321546555e-03" rms="2.8912797570228577e-01" purity="2.9550093412399292e-01" nType="-99"/>
          <Node pos="r" depth="2" NCoef="0" IVar="-1" Cut="0.0000000000000000e+00" cType="1" res="-3.4802392125129700e-02" rms="2.4021069705486298e-01" purity="8.3779558539390564e-02" nType="-99"/>
        </Node>
      </Node>
    </BinaryTree>
    <BinaryTree type="DecisionTree" boostWeight="1.0000000000000000e+00" itree="55">
      <Node pos="s" depth="0" NCoef="0" IVar="9" Cut="8.0038607120513916e-01" cType="1" res="5.0000000000000000e-01" rms="5.0000000000000000e-01" purity="5.0000000000000000e-01" nType="0">
        <Node pos="l" depth="1" NCoef="0" IVar="6" Cut="3.9157692342996597e-02" cType="1" res="6.7080330848693848e-01" rms="4.6992152929306030e-01" purity="6.7080330848693848e-01" nType="0">
          <Node pos="l" depth="2" NCoef="0" IVar="-1" Cut="0.0000000000000000e+00" cType="1" res="1.1190671473741531e-02" rms="2.8620365262031555e-01" purity="7.2400295734405518e-01" nType="-99"/>
          <Node pos="r" depth="2" NCoef="0" IVar="-1" Cut="0.0000000000000000e+00" cType="1" res="-1.8295412883162498e-02" rms="3.1465977430343628e-01" purity="1.7625510692596436e-01" nType="-99"/>
        </Node>
        <Node pos="r" depth="1" NCoef="0" IVar="23" Cut="2.9013492584228516e+01" cType="1" res="3.0608791112899780e-01" rms="4.6086668968200684e-01" purity="3.0608794093132019e-01" nType="0">
          <Node pos="l" depth="2" NCoef="0" IVar="-1" Cut="0.0000000000000000e+00" cType="1" res="-1.0755332186818123e-02" rms="2.7391812205314636e-01" purity="1.6951254010200500e-01" nType="-99"/>
          <Node pos="r" depth="2" NCoef="0" IVar="-1" Cut="0.0000000000000000e+00" cType="1" res="9.1677326709032059e-03" rms="2.9726314544677734e-01" purity="7.5412839651107788e-01" nType="-99"/>
        </Node>
      </Node>
    </BinaryTree>
    <BinaryTree type="DecisionTree" boostWeight="1.0000000000000000e+00" itree="56">
      <Node pos="s" depth="0" NCoef="0" IVar="6" Cut="7.7882679179310799e-03" cType="1" res="0.0000000000000000e+00" rms="9.4624266028404236e-02" purity="5.0000000000000000e-01" nType="0">
        <Node pos="l" depth="1" NCoef="0" IVar="6" Cut="-4.0190308354794979e-03" cType="1" res="inf" rms="0.0000000000000000e+00" purity="6.0783946514129639e-01" nType="0">
          <Node pos="l" depth="2" NCoef="0" IVar="-1" Cut="0.0000000000000000e+00" cType="1" res="-5.3497338667511940e-03" rms="3.1852692365646362e-01" purity="2.2112174332141876e-01" nType="-99"/>
          <Node pos="r" depth="2" NCoef="0" IVar="-1" Cut="0.0000000000000000e+00" cType="1" res="1.2530994601547718e-02" rms="2.3091942071914673e-01" purity="8.5346150398254395e-01" nType="-99"/>
        </Node>
        <Node pos="r" depth="1" NCoef="0" IVar="6" Cut="4.5766767114400864e-02" cType="1" res="0.0000000000000000e+00" rms="0.0000000000000000e+00" purity="1.8322883546352386e-01" nType="0">
          <Node pos="l" depth="2" NCoef="0" IVar="-1" Cut="0.0000000000000000e+00" cType="1" res="-7.2401273064315319e-04" rms="3.4655448794364929e-01" purity="2.4508804082870483e-01" nType="-99"/>
          <Node pos="r" depth="2" NCoef="0" IVar="-1" Cut="0.0000000000000000e+00" cType="1" res="-3.0368383973836899e-02" rms="2.6168069243431091e-01" purity="9.6170574426651001e-02" nType="-99"/>
        </Node>
      </Node>
    </BinaryTree>
    <BinaryTree type="DecisionTree" boostWeight="1.0000000000000000e+00" itree="57">
      <Node pos="s" depth="0" NCoef="0" IVar="5" Cut="8.3316695690155029e-01" cType="1" res="0.0000000000000000e+00" rms="0.0000000000000000e+00" purity="5.0000000000000000e-01" nType="0">
        <Node pos="l" depth="1" NCoef="0" IVar="3" Cut="1.4081566333770752e+00" cType="1" res="-7.0803584530949593e-03" rms="0.0000000000000000e+00" purity="2.0662005245685577e-01" nType="0">
          <Node pos="l" depth="2" NCoef="0" IVar="-1" Cut="0.0000000000000000e+00" cType="1" res="-9.3232830986380577e-03" rms="2.7432832121849060e-01" purity="1.6575290262699127e-01" nType="-99"/>
          <Node pos="r" depth="2" NCoef="0" IVar="-1" Cut="0.0000000000000000e+00" cType="1" res="8.8530415669083595e-03" rms="2.9524305462837219e-01" purity="4.8008704185485840e-01" nType="-99"/>
        </Node>
        <Node pos="r" depth="1" NCoef="0" IVar="9" Cut="9.6813231706619263e-01" cType="1" res="-1.5802665948867798e+00" rms="1.3526881103515625e+03" purity="6.5331536531448364e-01" nType="0">
          <Node pos="l" depth="2" NCoef="0" IVar="-1" Cut="0.0000000000000000e+00" cType="1" res="1.0214908048510551e-02" rms="2.8787091374397278e-01" purity="7.1509009599685669e-01" nType="-99"/>
          <Node pos="r" depth="2" NCoef="0" IVar="-1" Cut="0.0000000000000000e+00" cType="1" res="-2.1569192409515381e-02" rms="2.9344290494918823e-01" purity="1.4636673033237457e-01" nType="-99"/>
        </Node>
      </Node>
    </BinaryTree>
    <BinaryTree type="DecisionTree" boostWeight="1.0000000000000000e+00" itree="58">
      <Node pos="s" depth="0" NCoef="0" IVar="29" Cut="1.9322202205657959e+00" cType="1" res="5.0000000000000000e-01" rms="5.0000000000000000e-01" purity="5.0000000000000000e-01" nType="0">
        <Node pos="l" depth="1" NCoef="0" IVar="9" Cut="9.2612314224243164e-01" cType="1" res="5.9964132308959961e-01" rms="4.8997104167938232e-01" purity="5.9964132308959961e-01" nType="0">
          <Node pos="l" depth="2" NCoef="0" IVar="-1" Cut="0.0000000000000000e+00" cType="1" res="1.0240611620247364e-02" rms="2.8970572352409363e-01" purity="6.9649636745452881e-01" nType="-99"/>
          <Node pos="r" depth="2" NCoef="0" IVar="-1" Cut="0.0000000000000000e+00" cType="1" res="-1.0122703388333321e-02" rms="2.8474879264831543e-01" purity="1.6380921006202698e-01" nType="-99"/>
        </Node>
        <Node pos="r" depth="1" NCoef="0" IVar="27" Cut="9.0094947814941406e+00" cType="1" res="2.2357842326164246e-01" rms="4.1664266586303711e-01" purity="2.2357840836048126e-01" nType="0">
          <Node pos="l" depth="2" NCoef="0" IVar="-1" Cut="0.0000000000000000e+00" cType="1" res="-1.9364802865311503e-03" rms="2.8931218385696411e-01" purity="2.9379278421401978e-01" nType="-99"/>
          <Node pos="r" depth="2" NCoef="0" IVar="-1" Cut="0.0000000000000000e+00" cType="1" res="-4.4074989855289459e-02" rms="2.2331207990646362e-01" purity="5.8713730424642563e-02" nType="-99"/>
        </Node>
      </Node>
    </BinaryTree>
    <BinaryTree type="DecisionTree" boostWeight="1.0000000000000000e+00" itree="59">
      <Node pos="s" depth="0" NCoef="0" IVar="6" Cut="-2.9093835502862930e-02" cType="1" res="5.0000000000000000e-01" rms="5.0000000000000000e-01" purity="5.0000000000000000e-01" nType="0">
        <Node pos="l" depth="1" NCoef="0" IVar="2" Cut="1.5350794792175293e+01" cType="1" res="1.3149860501289368e-01" rms="3.3794486522674561e-01" purity="1.3149860501289368e-01" nType="0">
